<?xml version="1.0"?>
<MethodSetup Method="MLP::MLP">
  <GeneralInfo>
    <Info name="TMVA Release" value="4.2.1 [262657]"/>
    <Info name="ROOT Release" value="6.14/00 [396800]"/>
    <Info name="Creator" value="riggi"/>
    <Info name="Date" value="Wed Sep 23 13:39:29 2020"/>
    <Info name="Host" value="Linux riggi-tpt460 4.4.0-116-generic #140-Ubuntu SMP Mon Feb 12 21:23:04 UTC 2018 x86_64 x86_64 x86_64 GNU/Linux"/>
    <Info name="Dir" value="/home/riggi/Analysis/ASKAPProjects/ScorpioSurvey/ScorpioASKAPCatalog/CompactSources/SourceClassification/MVASourceClassifier/train_EccentricityDiff"/>
    <Info name="Training events" value="7267"/>
    <Info name="TrainingTime" value="3.78358693e+02"/>
    <Info name="AnalysisType" value="Classification"/>
  </GeneralInfo>
  <Options>
    <Option name="NCycles" modified="Yes">1000</Option>
    <Option name="HiddenLayers" modified="Yes">N+9,N+6,N+3</Option>
    <Option name="NeuronType" modified="Yes">tanh</Option>
    <Option name="RandomSeed" modified="No">1</Option>
    <Option name="EstimatorType" modified="Yes">CE</Option>
    <Option name="NeuronInputType" modified="No">sum</Option>
    <Option name="V" modified="Yes">False</Option>
    <Option name="VerbosityLevel" modified="No">Default</Option>
    <Option name="VarTransform" modified="Yes">None</Option>
    <Option name="H" modified="Yes">True</Option>
    <Option name="CreateMVAPdfs" modified="No">False</Option>
    <Option name="IgnoreNegWeightsInTraining" modified="No">False</Option>
    <Option name="TrainingMethod" modified="Yes">BFGS</Option>
    <Option name="LearningRate" modified="No">2.000000e-02</Option>
    <Option name="DecayRate" modified="No">1.000000e-02</Option>
    <Option name="TestRate" modified="No">10</Option>
    <Option name="EpochMonitoring" modified="No">False</Option>
    <Option name="Sampling" modified="No">1.000000e+00</Option>
    <Option name="SamplingEpoch" modified="No">1.000000e+00</Option>
    <Option name="SamplingImportance" modified="No">1.000000e+00</Option>
    <Option name="SamplingTraining" modified="No">True</Option>
    <Option name="SamplingTesting" modified="No">False</Option>
    <Option name="ResetStep" modified="No">50</Option>
    <Option name="Tau" modified="No">3.000000e+00</Option>
    <Option name="BPMode" modified="No">sequential</Option>
    <Option name="BatchSize" modified="No">-1</Option>
    <Option name="ConvergenceImprove" modified="No">1.000000e-30</Option>
    <Option name="ConvergenceTests" modified="No">-1</Option>
    <Option name="UseRegulator" modified="Yes">True</Option>
    <Option name="UpdateLimit" modified="No">10000</Option>
    <Option name="CalculateErrors" modified="Yes">True</Option>
    <Option name="WeightRange" modified="No">1.000000e+00</Option>
  </Options>
  <Variables NVar="3">
    <Variable VarIndex="0" Expression="peakSNR" Label="peakSNR" Title="peakSNR" Unit="" Internal="peakSNR" Type="F" Min="3.40282347e+38" Max="-3.40282347e+38"/>
    <Variable VarIndex="1" Expression="eccentricityPar" Label="eccentricityPar" Title="eccentricityPar" Unit="" Internal="eccentricityPar" Type="F" Min="3.40282347e+38" Max="-3.40282347e+38"/>
    <Variable VarIndex="2" Expression="areaRatio" Label="areaRatio" Title="areaRatio" Unit="" Internal="areaRatio" Type="F" Min="3.40282347e+38" Max="-3.40282347e+38"/>
  </Variables>
  <Spectators NSpec="1">
    <Spectator SpecIndex="0" Expression="classOutput" Label="classOutput" Title="I" Unit="" Internal="classOutput" Type="F" Min="3.40282347e+38" Max="-3.40282347e+38"/>
  </Spectators>
  <Classes NClass="2">
    <Class Name="Signal" Index="0"/>
    <Class Name="Background" Index="1"/>
  </Classes>
  <Transformations NTransformations="0"/>
  <MVAPdfs/>
  <Weights>
    <Layout NLayers="5">
      <Layer Index="0" NNeurons="4">
        <Neuron NSynapses="12">
          -1.8485791310010709e+00 5.0846647633988376e+00 1.0133284533930511e+00 2.0646570405945903e+00 -5.9442073422953368e-01 -1.0080798978973218e+00 -7.2879751913985058e-01 6.4270460834813758e-01 -8.1874787084278577e-01 -2.7820313445137912e+00 -1.1009200517933522e+00 -1.8179317449652088e+00 
        </Neuron>
        <Neuron NSynapses="12">
          7.9950423077799246e-02 -3.3777152631717622e-01 -3.5352796820029014e-01 2.2920053414895531e+00 1.9736103698304505e-01 -7.5076111499311726e-01 4.6157682450597071e-01 -5.0856790186462435e-02 1.0357087429197891e+00 -1.1075360756745678e+00 1.8378556660291537e-02 7.2134174358152808e-02 
        </Neuron>
        <Neuron NSynapses="12">
          -1.5256944843513227e+00 3.1625769600712603e-02 -2.1732268596672996e-01 -1.0690602881446059e+00 -2.7335573008254199e+00 7.6309097808952830e-01 2.4741369044103956e-01 4.0587244701079916e-01 -2.0207074531232228e+00 -1.7603237425141156e+00 4.1945427894930010e-01 2.6165874596350081e-01 
        </Neuron>
        <Neuron NSynapses="12">
          -6.6535368184604271e-01 2.4789314689030859e+00 -1.9942121088031431e-01 -3.9360799093935284e-01 1.2764673941943268e+00 -4.1942338476280505e-01 2.8397945661714680e-01 5.3603988154040771e-01 -5.8857159255524993e-01 -7.4217698985313540e-01 2.7705798167290030e-01 -1.0232179244642048e+00 
        </Neuron>
      </Layer>
      <Layer Index="1" NNeurons="13">
        <Neuron NSynapses="9">
          8.4371784402736660e-01 1.6683443237982347e+00 6.8995723945010501e-01 9.9013374809437782e-01 -1.3052842606961719e+00 5.7118413636434151e-01 -8.6802345518250323e-01 -5.7715932866146324e-01 -9.9472453681580641e-01 
        </Neuron>
        <Neuron NSynapses="9">
          -9.5088469756155217e-02 1.4076131105943821e+00 2.9483677332305880e-01 -1.0212997136570552e+00 6.8961808669640501e-01 -4.3432429407618545e-01 5.4563883933633217e-01 5.2690232414348230e+00 -9.8273041111981319e-01 
        </Neuron>
        <Neuron NSynapses="9">
          -3.0094832434213942e-01 1.0088576867992172e-01 4.5149556657792300e-01 -2.1672825272603549e-01 -6.1837130100334270e-01 -7.4011348993352399e-01 4.8699126818652133e-01 1.1103308351293370e-01 1.4640288816971796e+00 
        </Neuron>
        <Neuron NSynapses="9">
          1.5331246723616634e+00 -2.4174352258751464e+00 -9.2524350203369499e-01 9.8932402206562942e-01 3.3566116385214012e-01 5.2407966531866923e-01 1.5931329563528616e+00 2.2575496805545368e+00 -6.2808923891819479e-01 
        </Neuron>
        <Neuron NSynapses="9">
          -1.9075468544676342e+00 -1.1344513773546938e+00 4.6333338543120089e-01 -7.1762593707725197e-01 -6.9810781357217333e-01 -8.7893726045536091e-01 3.5699882327669258e-01 4.7764949144932822e-01 2.4910053768473710e+00 
        </Neuron>
        <Neuron NSynapses="9">
          -3.0586349643552876e-02 -1.0421513879775552e+00 8.6174650706332423e-01 -6.1793433443759094e-01 -6.1807325160758608e-01 -5.7114075541519527e-01 -3.5207495457271260e-01 -1.1548708931162466e+00 -1.6455228187362141e+00 
        </Neuron>
        <Neuron NSynapses="9">
          7.6834008740209336e-01 8.0788498159104577e-02 -5.7573623579960553e-01 5.5969778561885264e-01 -1.0472504692001652e-01 -3.0252439179531354e-01 -9.6950655612551451e-02 5.0331687404090719e-01 -1.7630536596080382e+00 
        </Neuron>
        <Neuron NSynapses="9">
          4.1487683655280877e-01 -4.6470168768398978e-01 2.5786995721700773e-01 -9.9906390408203671e-01 1.0415788264808645e+00 1.9627358575267911e-01 -4.3581853091872574e-01 1.2369050053943491e+00 -3.3875311763486016e-01 
        </Neuron>
        <Neuron NSynapses="9">
          -9.1243933979088054e-01 1.3069888423020819e+00 -2.1186375812610839e-01 1.5162153990277663e+00 1.0231727848054112e-01 -3.9482771640103126e-01 -1.8398449663099534e-01 -1.1571550441193120e-02 -2.3198519185012367e+00 
        </Neuron>
        <Neuron NSynapses="9">
          1.3608932083280270e+00 -1.6780879248586671e+00 -6.9409934314952226e-01 2.9855932970479282e-01 -1.1899787331740976e+00 3.1933597417292303e-01 7.1683008355645250e-01 5.0403291925788385e-01 -1.1564938843709560e+00 
        </Neuron>
        <Neuron NSynapses="9">
          6.6675178092168474e-01 4.4266796121988881e-02 6.2622157172938442e-01 -1.0777610518799691e-01 -3.6735720049299819e-01 3.9222200026803794e-02 -8.8070176875532780e-01 9.9863519211972740e-01 -5.4592749575758259e-01 
        </Neuron>
        <Neuron NSynapses="9">
          -1.3213952300995089e+00 -1.1338763512829635e+00 2.9856566856906637e-02 -4.2775917607386271e-01 3.4653213483448614e-01 8.4477616633926589e-01 -3.6892966365440444e-01 -1.4182003957035068e+00 -8.0044511420181230e-01 
        </Neuron>
        <Neuron NSynapses="9">
          8.9314534965296488e-01 -4.6912503196828109e-01 3.3633229795693786e-01 -9.5415458030212863e-01 1.0825001045756950e+00 4.3616916656369759e-01 3.1213977955171768e-01 8.9271396534297531e-01 -5.9123621454799369e-01 
        </Neuron>
      </Layer>
      <Layer Index="2" NNeurons="10">
        <Neuron NSynapses="6">
          1.9549150423731436e+00 -2.8812723808986149e+00 -7.9699082572779112e-01 -6.7178996758358325e-02 1.9189182618848399e-01 5.5338715398279326e-01 
        </Neuron>
        <Neuron NSynapses="6">
          -4.0602990168910652e-01 -1.4260966900527898e+00 2.4397801999477133e+00 3.6854621237479296e-01 -2.9364188250030101e+00 -8.4376249015380975e-02 
        </Neuron>
        <Neuron NSynapses="6">
          -2.2264566652826812e-01 -2.9900100812052044e-01 -5.4184909758289324e-01 -3.7712713714922114e-01 -4.4549316287451718e-01 7.1092640881632330e-01 
        </Neuron>
        <Neuron NSynapses="6">
          -6.7668434864828375e-01 1.9117508234648392e-01 -9.9026648711708098e-01 1.1756129577605058e-01 1.1577116796478280e+00 7.7716464313910194e-01 
        </Neuron>
        <Neuron NSynapses="6">
          -3.6968120410185440e-01 -5.2648356342698011e-01 6.5037211993498789e-01 2.9505748249668168e-01 3.9275440022009256e-01 4.8122640623303076e-01 
        </Neuron>
        <Neuron NSynapses="6">
          3.1376033207847437e-01 1.2626720374327549e-01 3.4284592608319647e-01 1.1052630338279995e-01 9.5041199171943580e-01 -7.7688665310866034e-01 
        </Neuron>
        <Neuron NSynapses="6">
          1.2936168635958036e+00 1.1449705240637100e+00 -4.6975624918939640e-01 4.0474059768786536e-01 6.0157395198420949e-01 -5.7383942466908888e-01 
        </Neuron>
        <Neuron NSynapses="6">
          -1.3666209853370901e+00 9.7639266571073280e-01 -5.7385908294357757e-01 9.5674298413032294e-02 5.1505056571578800e-01 -1.1904448337535480e+00 
        </Neuron>
        <Neuron NSynapses="6">
          2.0163838945596940e-01 3.3222855490169683e+00 -2.7462352089290754e-01 7.8969369621057051e-02 1.8381171840444599e-01 2.6912962948593209e+00 
        </Neuron>
        <Neuron NSynapses="6">
          -4.1601762140152831e-01 -5.3643152024826213e-01 -2.6653596897299203e-01 -3.5991276660916771e-01 -4.3850433548607376e-01 6.2201436122602560e-01 
        </Neuron>
      </Layer>
      <Layer Index="3" NNeurons="7">
        <Neuron NSynapses="1">
          -2.1876670023286553e+00 
        </Neuron>
        <Neuron NSynapses="1">
          4.6660951230461443e+00 
        </Neuron>
        <Neuron NSynapses="1">
          -3.7895539575481125e+00 
        </Neuron>
        <Neuron NSynapses="1">
          2.7622344235537516e-01 
        </Neuron>
        <Neuron NSynapses="1">
          -4.0360030676729597e+00 
        </Neuron>
        <Neuron NSynapses="1">
          2.9420720973542780e+00 
        </Neuron>
        <Neuron NSynapses="1">
          -4.9572889312789581e-01 
        </Neuron>
      </Layer>
      <Layer Index="4" NNeurons="1">
        <Neuron NSynapses="0"/>
      </Layer>
    </Layout>
    <InverseHessian NElements="53824" NRows="232" NCols="232">
      <Row Index="0">
        2.8794998227596720e+03 -2.0227193840354414e+02 1.3776406180418712e+02 3.5569274527335338e+01 -1.3194016862885488e+02 -2.8468982846427241e+02 -1.4912294219430623e+02 -4.6130511093774776e+03 3.0678682159273421e+01 8.7745840822757714e+01 1.8674609331765121e+03 -3.0591756677034876e+01 4.2718122264162650e+02 -1.1861582898476193e+01 1.5108647572698928e+03 1.0870326358019132e+02 1.0283776021314534e+02 -7.6602723722091810e+01 -4.6462546231522147e+01 -3.6220352257902897e+02 3.2277769584846499e+02 -2.5674259388690480e+01 -1.4790969334171889e+03 2.8602635042701820e+02 1.0729243640546260e+03 -8.5467475001714234e+01 6.2872971088318911e+02 -4.8569582315861645e+01 5.4757354843676680e+01 -2.2941325113285086e+02 6.3114455316624003e+02 -1.0350239390370098e+03 -1.9994195237182035e+02 -9.7191003202635358e+00 -8.0431926318558135e+02 -6.4471725206888846e+02 7.3836654073410341e+02 -7.2719575724286869e+01 -1.1870111442206485e+03 -1.4067859768535442e+01 -1.4248120326805250e+02 -4.1725855438435246e+01 -1.1446698085404892e+03 -2.6255501373022653e+03 -5.8584435908555122e+01 1.4302329640624921e+01 1.2330217380717654e+03 2.7534392037649263e+02 2.2829230056992665e+03 4.2442113998640525e+03 7.8065785026000310e+02 2.9867359003901624e+03 -2.9958799821767552e+03 1.1076676752968708e+03 -3.1752065996449082e+03 -2.1866637753560790e+03 -3.3907061624103235e+03 -1.1043607251810883e+02 -6.7190520713790036e+01 -1.7456220530282085e+01 -9.5241804293139651e+01 4.6939627101391204e+02 -9.4562905287029409e+01 5.1059805686858525e+01 -8.5665420316009579e+02 -8.7946580347264970e+01 -4.9459714809300276e+03 1.5928544883484319e+03 5.7742488423549139e+02 -3.3428865684637731e+02 1.2762821726901263e+03 -4.9200878116850172e+03 1.7862470906121616e+03 -2.3836955616771593e+02 2.7960670264447863e+03 -4.5209511148706859e+01 2.1054260190374606e+02 5.9239318830256241e+02 -3.7138659352992285e+01 -1.9544159454747000e+02 3.6934285382197650e+01 -2.4224178233514132e+02 -2.1677251551766409e+02 8.6831634941137452e+01 -4.4331967597643057e+01 -2.1745931190990447e+01 1.2269895205341744e+02 -2.4997192013040436e+02 -3.8721329066732017e+02 1.3213317156710465e+02 -1.2673277580806429e+02 4.9285454830332540e+01 1.3212452263322561e+02 -9.9126508782126768e+02 -5.3434286584490378e+00 1.0373700602861770e+03 -1.3565156943989282e+02 -2.7368131084527640e+03 8.4907912752204061e+02 1.3492689287257056e+03 -1.0962354206142381e+03 4.4029805167711004e+02 -1.2404977663067395e+03 9.3920519192023266e+02 3.4482596836418525e+03 -1.0417976064127356e+03 2.8787769352792334e+03 1.2875508143460247e+03 -8.2044999226071559e+02 2.5120617482216667e+03 -5.4640789987599956e+03 5.4261699515711334e+03 3.9587491359702867e+03 1.7998946464923899e+03 2.8015764503792229e+02 -9.7140250983474471e+02 5.5584984856994597e+03 -6.8254652418830565e+03 -4.7577891972407997e+02 -6.8117243591170618e+03 -2.3051928092437271e+02 -1.1880689895688145e+03 1.7440672558785920e+02 -9.6638076334119694e+02 -3.7657816826822057e+02 -5.8650317032387193e+01 1.4369925407675494e+03 3.5713916842496201e+02 1.6314143987016005e+03 9.9376398580727184e+01 2.1650803388533745e+02 -1.6998871071508910e+02 2.1789958912872083e+02 2.5720280482359823e+02 8.1790332878576919e+00 1.8084968378574871e+02 -1.2393767410034057e+01 1.9014426054314981e+00 -9.7971354083969959e+02 1.2445055200070015e+03 -1.2126973230064777e+03 2.8269121961199971e+02 -9.2390601335525571e+02 -5.1999468959342848e+03 -3.2752584869936909e+03 5.8150350940730277e+01 5.2939952299982433e+03 -4.0347500032730625e+02 6.0247951290207322e+02 -5.2196677002561205e+02 1.0853736648523952e+03 1.6108392966576115e+01 5.2667785115826712e+02 7.1282258916208366e+02 -4.3732096272512990e+03 -1.0926034737926018e+02 -2.1442115443835864e+03 -9.3337119132126463e+02 -1.0655728635744440e+03 2.3126779648041219e+02 -2.9737978497868812e+02 -2.5125588811417274e+03 5.9510309353118873e+03 -8.9580003337599794e+02 3.1484520563328183e+03 -1.5214204519422637e+02 2.4583524833934781e+01 -7.8262180789327243e+00 -2.0003940721105528e+02 -1.0288294243565625e+02 -2.6328603346357763e+01 -4.0044788779863602e+01 1.0607071914419836e+02 -6.7282171707893088e+00 1.4835048609107750e+02 -3.2349005987661442e+01 7.4445356353848638e+01 -2.3553660809385809e+02 -3.2796075345352733e+02 -4.4112171713182408e+02 -9.9803226913007416e+02 -1.0718206818474030e+02 5.1135455747960378e+01 -1.6467787960319336e+02 -2.2206349167726557e+01 5.4690669374985532e+01 -1.0979280893268788e+02 2.3342432145005008e+00 -2.2139809292933504e+02 6.2042477019033385e+01 -1.0756132663222775e+02 -6.9670015662356647e+01 1.0643515250066002e+01 -7.7080090217849687e+01 -4.4756758977436128e+01 -9.9675042925850803e+01 3.2921397355978735e+02 -1.1947192154530435e+02 -4.2238748036211456e+02 -5.0398100604631672e+01 2.9541663519289813e+02 1.5839354447469150e+01 -1.5112333372530017e+01 -1.2377924550848547e+01 -3.4073303916594750e+02 1.9933781149902887e+02 -9.5046397737088284e+01 -6.3001789562826549e-01 6.5614543189463763e+00 -8.0421164197266251e+00 -2.3479881954985325e+02 5.9333937048921404e-01 -3.3356168714555025e+01 -5.0166821483117072e+00 1.2942412387123974e+02 -7.9999109066281875e+01 3.5904182057630607e+01 -2.7278811645435637e+00 2.3195672582379723e+02 3.3245008244763739e+01 3.3484539677631756e+02 4.5406198430889117e+02 2.7347663629062413e+02 3.2281665026265188e+02 -1.8937965241337642e+02 4.9540435900816959e+00 2.9511749381885291e+01 -4.1335566124264034e+00 9.2795085835640350e+01 -2.5412526963805419e+01 -6.6166862304963786e+01 1.3646840389855015e+02 
      </Row>
      <Row Index="1">
        -2.0227186970514219e+02 5.9264708937217176e+02 9.8009836796267189e+02 -1.3206614316512969e+01 7.4739646029666460e+01 1.9022730854817422e+02 6.0485430393944284e+02 2.0718945352969831e+03 7.3009051278712889e+00 -5.6336838628062203e+01 -1.6519808025598181e+03 -6.4466031898721872e+02 -4.8778773870569182e+01 -2.8820136825360958e+01 -3.0626208772696964e+02 -1.5390477903956404e+01 -9.3770256589127445e+00 2.2608762571736776e+02 -1.9305466122384883e+02 -1.4230139952460329e+01 -4.5227577766655202e+01 7.7836610819173009e+00 3.3433803141186416e+02 9.8734143646784020e+01 -1.3585825670122438e+02 3.5075137887878029e+01 -3.3547959458857122e+00 6.1058467848767046e+00 1.2358739648436234e+01 -1.2675245941001995e+02 6.6839493755907142e+01 8.0881041664046074e+02 -3.4353853691072686e+01 2.6124959944816410e+01 6.0342624979155642e+02 8.6661681866001587e+01 -7.5676142542840566e+01 2.3927407773569786e+02 -4.4718111542704207e+01 -7.1865841909343429e+00 2.7284219126448683e+01 2.8962988249645156e+02 -9.5753261097274446e+01 4.8035734974212056e+02 3.0878901035325981e+01 -4.5258618139403893e+01 1.2479026958234588e+03 -5.6462664574345001e+02 8.1142410149919172e+01 -4.2663584358389755e+02 -7.5655352496725683e+01 5.0185850355242906e+02 1.1260402514035375e+03 -1.7341137042306684e+01 3.8775498611173668e+02 4.1868241779562226e+02 4.3297114621481762e+02 9.3008292214848645e+00 -4.7401403011297424e+02 -5.9261447199277072e+01 1.1861803355948386e+02 -2.5714754572937716e+02 8.2174993297075616e+01 -2.5658003571832313e+02 -1.9666388077783895e+03 2.7559691675113032e+02 1.9015297785640460e+03 -2.2946403930622921e+02 1.5776014863114090e+03 -2.7790633861417871e+02 -4.7221478919692117e+01 2.5918835784706621e+03 -9.1321402757494081e+02 -1.1018329929547945e+03 1.0813731789989417e+03 2.5737280944006208e+01 -8.2964328834654125e+01 4.6654609813429211e+01 -1.1725972581642939e+02 -3.6528926915943337e+01 -8.9422819914396811e+01 1.2955425631554274e+02 -4.6554250063673067e+01 -1.2955939074740030e+02 -8.5012453004548078e+01 3.4521298887566516e+01 -5.5913006081118581e+00 4.3183406479823896e+02 1.0877151884186286e+02 -1.0155375496183646e+02 -1.5524127586465182e+01 -2.5345669662804930e+01 -6.6673203042564197e+01 -3.9804584022212843e+01 -7.1536105836579679e+02 8.9315777283739089e+02 -6.5740882255077724e+02 7.1188603209689427e+02 -7.0649206627689432e+02 4.3731947979205046e+01 -2.2802450324695423e+02 -1.2646182639250819e+03 9.7873432393794553e+02 -4.8287721050643682e+02 -6.3053661133581852e+02 3.0872875844776536e+02 -2.4978994618289494e+02 3.3432586884775992e+02 5.1815873596715250e+01 -1.2689846322608864e+03 6.4291767357078174e+02 -8.4551291212003525e+02 9.6167727551358473e+02 -7.0645516864017759e+02 2.0679719191143445e+03 -3.8425877273148944e+02 -5.7128900992146282e+02 -2.3932022920318752e+02 6.1056213744439947e+02 1.1257186740974189e+03 -6.6166824194373646e+01 -1.0572765946352405e+01 2.2025534681963865e+02 -4.1225950552703017e+02 2.0780095473232024e+02 -3.1359033344516163e+01 -3.5114179629904879e+02 -9.4107203425681519e+01 -3.0593313610428629e+02 1.4345412984359948e+01 -4.7004453274281353e+01 -1.7069493696666888e+02 -3.5779814667130336e+02 -3.6809775924890653e+02 -3.4145999596958291e+01 -2.2371522809928700e+02 3.5578558995337460e+01 -3.9353297134058749e+01 -5.1308486255199705e+02 4.3238723742989373e+02 1.3494750186603137e+03 -5.8710010873415831e+02 1.2798876778175709e+03 2.1379771918090505e+03 3.6933778621361216e+02 1.9797807728789303e+02 8.1480683028117960e+02 1.3012462208389545e+03 -7.6802108388139715e+01 3.7953777565412020e+02 1.1194867659560195e+02 -9.4681326249268716e+02 1.3539282829576192e+02 -1.5823890964944728e+03 -1.8276853006749404e+03 7.0644925284693045e+02 6.7827831871442402e+02 -6.3939680296011011e+02 1.2160224520838521e+02 -1.2550891900081640e+03 -7.2642723075812455e+01 2.0147159852866173e+02 2.9624593865480001e+01 -8.0108636540811619e+02 9.5972017838168910e+01 -5.4596276786288707e+00 3.3868465986699448e+01 3.0417778635058752e+01 4.0979140403900956e+01 -3.4900368795782882e+01 -8.8404011823527551e+00 3.0486156176429056e+00 -3.2860721427488365e+01 1.3015040867725489e+01 1.5778537506149476e+02 -3.4974958768523372e+01 3.3362408691069430e+00 1.0980781362648571e+02 1.8658108534166826e+02 9.4003330235973081e+01 -1.0748847127147997e+01 7.8437356472632928e+01 -1.6442105111015513e+02 6.9303335752931652e+00 1.3014028954695334e+02 -4.3516221871372451e+01 2.6048517423429075e+01 2.9861785416535554e+01 -1.0034338915447650e+01 4.3474492775027983e+01 -3.3060525537294168e+01 -3.8242273529197632e+01 -8.5294098773549109e+01 1.2389704154842411e+00 -2.6415499073213820e+00 7.7235188040074490e+01 -1.7299958359576431e+02 -4.0953337339505708e+01 1.2996354652545807e+02 1.5308104518234780e+00 -8.4150063671624054e+01 5.5371492179790947e+00 -9.1435549743266478e+00 -4.6606147144185677e+00 1.4348090306098024e+02 -8.3850277885639784e+01 2.4203307071304469e+01 5.8728209295440481e-01 -7.8848664539455919e+00 7.1378436511215213e+00 1.3528361717833354e+02 -1.0109252780780736e+01 -6.2096243934380633e+00 1.4155424507401177e+01 -7.8669909125888253e+01 9.8999548932011798e+00 6.0752362090325434e+01 -3.3097979453282129e+01 -3.5513996825876838e+01 -1.1921233538851411e+02 -2.7034170241750871e+01 -6.6115864530739302e+01 -6.6065080471947510e+00 -7.4300710043914961e+01 1.1598018273035638e+02 4.4594155360614565e+00 -1.1922266553119982e+00 -3.8810145498872018e+01 -1.0018313460150021e+02 -2.9715580694680128e+01 1.1964664360320899e+01 -3.4815183301094578e+01 
      </Row>
      <Row Index="2">
        1.3776504956474076e+02 9.8009813061815760e+02 4.9067916193392994e+04 -8.1666345945971557e+01 4.3095030340169887e+02 7.4726571855707675e+02 2.7999313189330540e+04 5.8092206737335709e+03 -3.1068988072736238e+02 5.3259122541281180e+01 -1.1774152585026894e+04 1.6871018874190183e+03 -4.4904202265804770e+01 -1.1014535068275937e+02 7.3719516243483367e+03 1.0717015155333399e+02 1.0875848504355625e+01 1.6064482101641181e+02 4.7865175998355871e+03 -1.8269035164480954e+03 -2.7437467984187833e+02 1.9458251535293459e+02 5.7153914909331806e+03 1.7289380206875121e+03 -6.7339124539766772e+02 2.6409729254821838e+02 -8.7841336866105739e+03 6.8305125100292315e+01 3.7653169237826779e+02 -1.9819439433213199e+02 -3.7495676028770540e+03 2.9036712454542685e+03 1.3909086440557985e+01 7.4171310736301166e+01 8.3258816253016084e+02 -4.5821307161890175e+01 1.2715275304551005e+02 3.5654427551895890e+02 -5.2600029519292002e+03 -1.4349295230990705e+02 -1.1095940857811314e+02 1.8602207791218189e+02 -4.5823460121271555e+03 -1.8890790826140437e+03 -1.1790311604589465e+02 -1.0868755460738613e+02 7.6469501981620379e+03 -3.9706946758826450e+02 6.2664269807544315e+02 -7.3063250781240413e+02 4.0489572470375862e+02 -4.3146950144638413e+02 1.4241493743211322e+03 8.8334655617524049e+01 -4.5781946018345407e+03 -1.1210789345643821e+02 -2.7107232331312002e+03 2.8026104864312254e+02 -7.1660680175607956e+02 -3.3431871292695163e+00 9.2400334015828844e+02 1.3070339549065204e+02 3.2999321067586760e+02 -8.4639827001860863e+02 -7.1004661287093877e+03 5.9494040926668947e+02 7.1890938320149889e+03 -6.6398648124713509e+03 -2.1263652405133420e+04 -4.4084240521019319e+02 4.9271402051697896e+03 8.4146393094735744e+04 -2.8023009596243333e+04 3.9489259935468217e+03 -2.0347338608856211e+04 -4.0857313158674145e+01 7.9809734213541515e+02 -7.1619093658251552e+02 4.4476191663512236e+02 -8.3742718865184986e+02 -1.8564065144563824e+02 -1.8923490198561430e+02 8.9443124636595243e+01 -7.6043291263805986e+02 -2.5771945604089723e+02 -1.8482166437319520e+00 1.1832317843743015e+03 1.8412347359404787e+03 7.3532284788063680e+02 -1.3839961091085554e+03 7.6621505785323120e+02 4.8792114394422424e+02 -2.9378130771431938e+02 -1.1131013177855532e+03 -8.3228052428445142e+02 1.3633774225130664e+03 4.9517113624841822e+03 1.6899743479766776e+03 -8.6042487832503866e+03 6.9196874195138898e+03 4.0475929742741783e+02 -5.5890971345820631e+01 -5.2452683986509674e+03 -1.0118947549479661e+04 -3.0181997466168832e+04 -3.4175742699548136e+03 2.4839691914957406e+04 8.1687473871166294e+04 -8.6588432772004890e+03 -1.5609804594778710e+04 -1.4623908665015781e+04 9.4556260466006643e+02 2.1378774039376640e+02 8.2899504618198171e+02 -3.3618332000300188e+03 -2.1370490219027306e+04 -1.2378549572277661e+04 -1.0725767617468860e+04 4.3124106633529036e+03 -1.1914981220008620e+04 -2.2419330387519921e+02 -5.7760823818354345e+02 -1.4241048403071584e+03 1.2385664595828052e+02 9.6335683936925113e+02 -2.7023202245793145e+03 2.3895200616828879e+03 8.1588093362796099e+02 5.9012866494801528e+02 5.1142201955348708e+02 -4.3537557376690302e+02 -1.1524230291967438e+03 -1.3017197003542992e+03 -4.5966874770831409e+03 -9.9231476995344769e+02 1.8656733933247504e+03 4.1168306762020109e+02 -9.0310519070351097e+02 7.8642228746455194e+03 7.5279200722826790e+03 6.8234466392097092e+03 6.2915937431478014e+03 -3.5715118327329663e+04 -1.0364253495404402e+04 5.9823454612820626e+01 1.2606242591582512e+04 1.8668546797148167e+04 5.3174578227057527e+03 -2.8094766893156134e+03 2.1313067621194032e+03 -5.4170643632123001e+03 5.0398115879702718e+03 1.3005969713801351e+04 -1.7482295481127916e+04 -8.2272233370535414e+03 -1.3426374921651803e+04 1.7402197548465920e+03 -3.9573766259506738e+03 -6.0281098321956870e+02 -4.9454230142330607e+03 1.4091621477602695e+04 1.0074555923560151e+03 -3.7131712134496092e+02 5.5807390681313291e+03 -8.1739595585615043e+03 4.8391085310235951e+01 4.3564057078270707e+01 3.0197791314844443e+02 -5.3974457623587341e+02 -1.2009624443529322e+02 -2.4384076921177194e+02 -1.4962667418759798e+02 -4.3011968332275711e+02 4.3314574868620599e+02 3.6341316842699198e+03 -7.3390251058650892e+02 2.6280886979156907e+01 6.6500059205335754e+02 3.9542083382423107e+02 1.5262566196504122e+02 -4.3502432206003577e+03 5.2625973250812876e+01 -1.5393190590572649e+03 -2.8696668716488745e+02 2.7475571029006151e+03 -7.9017520121308371e+02 -7.8173769931979768e+02 3.5446631510915654e+02 9.5824710411191788e+01 1.5844290760392308e+01 -3.0212122346211800e+01 -4.7233493399612449e+01 1.4227049424738007e+03 8.5776646861537841e+01 1.5139421948387641e+02 2.4132806576790776e+02 -7.6947192831490327e+02 2.6332726444478187e+01 9.2252300179462543e+02 -8.3094907010852216e+02 -2.4608156456914941e+01 -6.3703714070452399e+01 -6.3435290204857210e+01 2.3810138990397110e+02 4.3825874163607878e+03 -2.3009088823734083e+02 -4.9468967753645427e+02 8.3500986365550489e+01 7.7116484996797574e+00 -3.1946501145564760e+01 1.0766172214166986e+03 1.1439652574891989e+01 -3.2016441194228619e+01 -3.5486639695676736e+01 -3.1389905698188318e+02 -7.8679248071413298e+01 4.5769082393081533e+02 -1.8838762044949027e+02 9.0300307551743558e+01 -6.8897820194887595e+02 2.4459997743832027e+03 -1.4104083698781909e+02 7.2609829690713213e+03 4.0535070670261729e+02 3.0350341198351572e+02 -8.4198640903053160e+01 -2.1073775514070469e+01 2.3355953570014162e+02 -3.8826173241975303e+03 2.9170906930907722e+02 6.8938582010257761e+01 -3.0228016931902812e+03 
      </Row>
      <Row Index="3">
        3.5569261412959534e+01 -1.3206611772405303e+01 -8.1666433031720089e+01 6.9985285162348603e+01 2.4517573971791169e+01 -2.0432884526706911e+02 -1.0202106218726465e+02 -4.5171923230907862e+02 -2.6643023417055414e+01 1.1854984921272886e+00 -1.2226683465786934e+01 -8.1982506113215877e+01 1.7170212047344364e+00 2.8973327357672929e+00 5.1727327158864640e+01 4.8336717386517961e+01 3.2347971611533874e+00 -5.6785428611040402e+01 7.5271035502395222e+01 -7.4893460074880963e+01 -1.6796536227232134e-01 -7.7316347916460213e+00 -8.0016992319845400e+01 -1.4553066876072303e+00 1.3496195349067122e+01 4.8491376685016840e+00 1.5114771639648242e+02 -1.5961363720433170e+01 3.4581728483863664e+01 9.3000401034397754e+01 1.7585769094922779e+02 9.4090386249472772e+01 -3.7849313292189542e+01 -1.3973611900237493e+01 -1.1516317839623605e+02 -2.4564403238899931e+01 -3.6054095684612335e+00 -5.7910553606876309e+00 -1.9164158237222495e+02 1.1665390899062658e+01 -7.8039453406338604e+00 -1.7139041515044886e+02 -8.4100921691788528e+01 -6.8349436462578456e+02 -3.3737851052768622e+00 4.3930092525424147e+00 2.2449730625754987e+02 -2.6082556407176131e+01 1.3789978921438797e+02 6.2211970252020521e+01 6.2730406715875937e+01 1.7082552559282274e+02 -2.3478432524808937e+01 6.1765888437408826e+01 2.1471174483891758e+01 -6.3117622220809238e+01 -3.0679797288803911e+01 1.5293259261120367e+00 9.8285126410776371e+00 -3.5756582429126674e+01 -4.7389840246250969e+00 5.2028448067936353e+01 -1.6520627184071742e+01 1.4392071987170036e+01 1.3467596579823132e+02 -1.2899752910186843e+01 -9.6722283791738141e+02 8.3292150322621967e+02 3.4245451798428098e+02 -1.3545260041298914e+02 9.0963241870985115e+01 -4.8003289267608557e+02 -1.9059102389785096e+02 -4.6610186548432921e+01 -4.2185273673285496e+02 -6.8030129823836475e+01 1.3148866951781633e+02 9.6376785071542159e+01 6.2298769004591774e+00 -2.1828979395115297e+01 2.4524112650329499e-01 -5.7181056689298160e+01 -7.2301782168317942e+01 4.2758545959227746e+01 -4.2570919846304996e+01 -2.7618939370868357e+01 -1.6349293120378205e+00 4.8211390187877782e+01 -2.3636024337724919e+01 2.7482479368441158e+01 -5.7555276099555414e+01 4.4017788616265520e+01 5.0922607814337269e+01 -1.6395679767490449e+02 2.1737569581734755e+02 -1.0705019506247552e+02 4.2830947399157260e+01 -1.7421456186905058e+02 9.0416546112531805e+01 -3.4545452692654045e+01 -1.1825214455244490e+02 5.1984437683950762e+02 -9.0057792284614811e+02 6.2625170161960762e+02 -7.7472574283495078e+01 1.5222170306926409e+02 4.8822756531154948e+02 -1.0405186046177050e+02 -5.3790725490032287e+02 -2.1695000914978039e+02 1.8169310123767918e+01 4.1435372176907680e+02 -2.2420377523728300e+02 2.3602302080047828e+00 -1.1681252504235637e+02 9.2113956400006828e+01 3.4171565595521417e+02 -5.2058643810359206e+02 -2.6201256995983692e+02 2.5247563215617018e+02 3.3371202386483631e+01 -8.7518858984276548e+01 -7.0796023060263380e+00 -2.6244725454479891e+02 -3.0867845063381633e+01 -1.9771938107747616e+01 -6.2754080662098808e+01 4.9042714199772888e+01 1.2165765775681200e+02 -1.3349004882543870e+01 1.7991486284582347e+01 -7.4910531577145989e+01 -2.0322504400611951e+01 7.4096682275370824e+01 -5.6322737684507487e+01 -5.2380054915577993e+01 -6.8594054707894463e+00 2.1609295901898200e+01 -1.6567759190951210e+02 1.3645101241142856e+02 6.1596520700230451e+02 -4.1384672851944293e+02 9.5082409270872020e+01 -2.8368721683078763e+02 -7.8704188396307927e+01 -2.6944584464528714e+02 -8.0491504255732866e+02 1.3975974102248466e+02 1.2705074703570178e+02 -2.0084129784409228e+02 1.9692710768440338e+02 -1.3717231135037838e+02 6.3335581125305303e+01 -2.6278457268568083e+01 5.3107831426973326e+02 1.5323856868535492e+01 7.7883257466990756e+01 -4.1126334723743184e+01 5.8312716774212184e+01 -4.0466023365906295e+02 1.7119048768382591e+01 -1.6886584999989549e+02 2.9106990823472654e+02 7.1749239978523156e+02 1.2240804518719708e+02 -1.0712553460672691e+01 1.2931766352113868e+01 1.3032051891168395e+00 -2.2025669671508119e+00 5.8482342404710899e+00 -1.8730731224629867e+01 -5.5765095028452114e+00 8.5957242719035172e+00 7.7389764141775315e+00 -4.7641917890831039e+01 -7.2766588010466950e+00 8.2561730167665761e+00 -8.3757733467437319e+01 -3.3864636627751707e+01 -3.8117740921628155e+01 -4.3223238637590065e+01 -8.3058939711351272e+01 8.8211044377640974e+01 -1.6429058545823509e+01 -6.6437715025570810e+01 -7.8130678272080729e+00 -7.3116828004837885e+01 2.0690857697630523e+01 1.1567059684452076e+01 5.8706673723741645e+00 9.8669641780543316e-01 -5.1963815754759839e+00 -9.1860120060372068e+01 -6.0922480656035685e+00 -7.1515417299052597e+00 -2.8888488930670661e+01 6.7473287007171407e+00 5.0748470404652735e-01 -1.9428918774521637e+01 -4.1507919965545256e+01 5.0555978347062386e+01 -1.1000008446773776e+01 -5.2321026990173465e+00 2.9684301017994709e+01 -3.3128804642881107e+01 -2.4116625193701150e+01 4.0319210479311529e+00 -1.6633738607550157e+00 -7.2791970818726359e-01 3.6683336012592660e-01 -2.5344646840907174e+01 1.7306468689004562e+00 4.4274770681775726e+00 -1.5292469666436359e-01 -1.0870842731898403e+01 -7.8889408359500424e+00 3.7612786875989039e+00 -1.4936042195197496e+01 2.2182357398411426e+01 3.6141672316509116e+01 -2.9762767022007324e+01 6.0278776617494984e+01 5.9196099235209800e+00 6.1559089692968719e+01 -4.3446281395567908e+01 -1.1551192615707642e+00 -2.1026476989203493e+00 -5.3237130310018532e+00 5.5267407442829580e+01 -7.2493681825697251e+00 -7.4971953447842155e-01 3.8057851573852361e+01 
      </Row>
      <Row Index="4">
        -1.3194016686021465e+02 7.4739654361134129e+01 4.3095030928724094e+02 2.4517570976146771e+01 1.1460902580778037e+02 -1.0354470623436868e+02 4.3950608073428822e+02 6.5864992157360996e+02 -2.7452207653491151e+01 -1.2707019861749680e+01 -1.0748236998697877e+02 -1.2581328099320949e+02 3.3957681610353774e+01 -3.5707820150598191e+00 -2.7327542091584837e+02 1.7363829602907124e+01 1.7012702917237629e+01 -2.5508136219521894e+01 -1.8037857789775988e+01 -1.8663711985769147e+01 -2.5860320804664763e+01 2.1962807226803442e+01 5.2644560299358474e+01 5.0821155876167623e+01 -1.7917403908720252e+02 2.7996397701637505e+01 -1.7487103845518163e+02 3.2899373978529547e+00 1.9409969660279316e+01 4.4018016060074814e+00 -1.4652892356403362e+02 1.8433995025763943e+02 6.1126565336656782e+00 -1.7028597234560046e+01 -5.1485444771690254e+00 7.6122796305649814e+01 -6.6198622362697847e+01 2.6111541225218851e+01 -8.6808207687066727e+01 2.5059212313483643e+00 2.4805018531989113e+01 -9.0948904111845025e+01 1.3564325299007078e+02 -2.3842962220173865e+02 -9.1176711175250169e+00 -1.3701543318138194e+01 -7.2965533002355585e+00 -1.4509878397282733e+02 7.0122332483870082e+01 -1.3042630209355031e+02 -1.4064210803468529e+02 -1.2836708367930193e+01 4.2481980981414529e+02 -4.3444479591543093e+01 1.7105654015021514e+02 1.3726433314084150e+02 2.2611939177358244e+02 9.9698940283009598e+00 -5.0392189122546377e+01 -8.0308250181190772e+01 7.1382959714101162e+00 -1.7386555884626667e+01 -1.8130282907077067e+01 -1.8748795521985436e+01 -3.0031973127815365e+02 4.5250524624564605e+01 6.1424499088840912e+02 2.3333290858417161e+02 -1.8323505359956135e+02 -2.3929741605061838e+02 4.9922205672564940e+02 2.8512502790934343e+02 -5.5735088559891528e+02 5.4308996114111198e+02 -7.1873856775784611e+02 -4.5418815012876443e+00 8.2126862467398723e+01 -7.9857580390018734e+00 9.9851026312077778e+01 -5.4011023373844921e+01 6.4747779981136819e+00 -5.2608869411268939e+00 -5.5313979671511362e+00 6.2440464377952090e+00 9.2614226331458838e-01 1.6273959483602369e+00 1.1881311590683566e+02 1.0525911933506700e+00 5.1141249424580664e+01 2.4655576302635289e+01 -4.7632554418815609e+01 3.9875414669084620e+01 -1.4381561611245200e+01 -1.1438886291142106e+02 1.8428545348391850e+01 3.1826867754835780e+02 -1.0909830325672426e+02 4.4793319440343646e+02 -1.6783752572036153e+01 -9.6955530321036889e+01 1.6657759790307244e+02 2.4952647107654178e+02 1.6203002777768862e+02 2.2283224152674632e+02 -5.6787398347612861e+02 -2.0196390328795133e+02 -1.0830752013108633e+02 -3.7954717086626897e+02 -2.3214560586267908e+02 3.5738444361667950e+02 3.8595417440558998e+02 1.6458830683060302e+02 -1.4255387666381566e+01 -2.5756105324842665e+01 -2.7743130826088734e+01 -1.1927609760626638e+03 -2.1914307155677295e+02 9.9906071588623433e+01 -3.0581056241890030e+02 6.8504763764608663e+02 -6.4718776512470683e+01 -8.4174614491707516e+01 6.7019797446751582e+01 -2.6615455378234935e+02 1.6229422846432013e+02 4.2466434322757323e+01 -1.2081061613642149e+02 6.7153562536025092e+01 1.3421784165590054e+01 2.0714557555732299e+01 -4.3583194080333818e+01 -2.9855553815052904e+01 -5.7817129359937610e+01 -2.5859473588633199e+02 -1.1529120174898992e+01 -5.2140104165615185e+01 -1.0936524062872692e+01 -5.5505984063335170e+01 5.4908910593400788e+02 2.3530754673275851e+00 3.7310495665076485e+02 3.6304753200440950e+02 4.7227658656712390e+02 1.1801061642750216e+02 -6.6131605326963950e+01 -1.6035544234619579e+01 -1.5909976114733204e+03 3.2879195640641115e+02 -1.2702306806580422e+01 -2.5151854289959630e+02 -2.1908668333029343e+02 -1.6848953898670166e+02 1.5668868563127046e+02 -2.7024102749547916e+02 -1.0738102743727400e+02 1.1235691390357300e+02 -1.2405884686031015e+01 -2.3917365372167461e+02 2.2648276623597863e+02 -8.3212100161385888e+02 6.9137346869373107e+02 3.7936961427775014e+02 -3.7772264522386422e+02 7.0016578511565569e+02 1.5280641566040845e+02 8.8524153254890052e+00 2.4345954347472798e+01 1.9411726882893262e+01 3.8006177367648000e+01 7.1925570222150208e+00 -2.5136203039485448e+01 8.0926930728679594e+00 -2.7299344479578296e+00 -3.2893712003181669e-02 -4.8854052460451193e+01 1.0473443962439324e+01 -1.5971506685055017e+00 9.0644829223171826e+00 4.4887657106481015e+01 8.2695542900913381e+01 1.5880977963990335e+02 -5.0789102978578171e-01 -9.7661332364559371e+01 2.5223424340150826e+00 4.8550460665180580e+01 -2.9477798700823993e+01 -8.5003914710663935e+00 7.4978743052286116e+00 2.1370123102823584e+00 7.2601559074214475e+00 -3.6695871394603955e+01 4.4187066903676415e+00 -4.7198483718154847e+01 6.8938058820150951e+00 -1.0161926881048444e+01 1.1313304896223116e+01 -3.4909965467896214e+01 1.9690331475036512e+01 -5.6005749815432750e+00 -1.6260508221878354e+01 1.0590385224876826e+00 -1.0056323003952723e+01 -1.0009654017222772e+01 1.4097604843404381e+01 -3.0815050427523829e+00 -2.2337407036817318e+01 -1.6140314438336961e+01 4.5787274082699696e+00 -2.5731050852174495e+00 2.2915534825987764e+00 -4.5225775223360024e+01 3.6704957174168229e-01 2.3144745257838757e+00 8.1261575794797114e+00 -1.5002612596589895e+01 1.3246247798672240e+01 5.5654226755471647e-01 -9.0107243582063514e+00 8.7474593080810443e+00 -1.2039886179113203e+01 4.2551344942017664e+01 -7.4442259717639644e+01 8.3610910237993039e+00 -2.9550930739346963e+00 5.3675491195579205e+01 -4.9538490159206479e+00 -8.9998313358244730e-01 6.4001876380957654e+00 3.5209176145847437e+01 1.8572791429309206e+00 -2.8191862958094243e+00 2.6697298366612472e+00 
      </Row>
      <Row Index="5">
        -2.8468962258193352e+02 1.9022726216761791e+02 7.4726621453612086e+02 -2.0432882979348426e+02 -1.0354472899304818e+02 2.8712557129576985e+03 8.8184650799380984e+02 2.6503083644151718e+02 -3.3482771935254391e+01 -2.0483843595694911e+01 -2.6372159553352740e+03 3.8226284841604701e+02 -2.3539121824000799e+02 -8.8737684026696364e+00 4.9688447866053576e+02 -1.9820829874047266e+02 -4.9522542437703549e+01 1.6148515347659386e+03 -1.3692426611006911e+02 7.0809570039850041e+02 -2.1052545512223622e+02 6.0490489394488257e+01 2.0986786200003617e+03 7.6309571423135722e+01 2.9270913375826638e+01 -2.6090181075027509e+01 6.0819322615899864e+01 7.6152407632740903e+01 -5.4293809609922164e+01 -1.0587121496206032e+03 -2.9738508677234904e+02 -4.5828210732605407e+02 2.4794699163986968e+02 1.5685602956151236e+01 6.9692056227005878e+02 4.0858872335462365e+01 -8.0058744098474889e+01 1.0605121094118238e+02 9.4940425964830638e+01 -4.6461701075087049e+01 3.1028157539013499e+01 2.3259997395569999e+03 -2.3704167555172626e+02 1.0153410098379363e+03 -3.5351479283237097e+00 -2.6574188153355628e+01 -1.8355157258582790e+02 1.7847136388706514e+02 -4.9513227421312610e+02 3.6853602359906432e+02 -7.7379828155819087e+02 6.7318090501873144e+02 -7.2455714516871876e+02 1.5660750379732744e+02 -6.5818203043788731e+02 1.6174485327513602e+02 1.6565780882579113e+03 -3.6058692687403934e+01 -3.3143941167029531e+01 2.2260854790145316e+02 5.5030010315304389e+02 -4.4648349796563537e+02 1.0078048024200595e+02 -1.2764685380798203e+02 2.0168307670554153e+01 2.1770245838097833e+02 2.4049692412459772e+03 1.4016756712456709e+02 -1.1038443675450046e+03 1.5977036326911634e+03 -2.1621416808103268e+03 3.6900143352206896e+03 2.3447183349348907e+03 1.7643994570588166e+03 4.7731685731584585e+03 1.3045277136057143e+02 -8.1016096637905821e+02 -8.0768646825150097e+02 -2.8142436296334637e+02 2.5227610729654490e+01 -1.2990799509231869e+02 2.7853938149682091e+02 -1.3288564285617247e+02 -6.9293150425263048e+02 1.5952354048656653e+02 8.0769439254218895e+01 1.1055159901773958e+02 7.7847387075697020e+02 -2.1208432281496933e+01 -8.3462465668607265e+01 2.8039332849417673e+02 1.5147033378035346e+01 -3.7972158698601351e+02 4.8533137159698680e+02 -4.8871547978525441e+03 1.7695444950673361e+03 -4.1349717731871642e+03 -1.6908034844785473e+03 -2.1980316973896342e+03 -2.1114554840225102e+02 -3.0801619972616986e+03 -8.3071560346296719e+03 -8.0732364301149801e+01 -3.0554900821760903e+03 -3.6977016129164631e+03 -1.0492129858496628e+03 -1.8219569813782555e+03 1.3179553246366681e+03 6.1750349300111066e+03 -3.4176000805692138e+03 -1.3041795157908964e+03 -1.1757625336305987e+03 4.2953415165068345e+03 -7.2792945603556791e+02 3.3731930042906129e+03 4.1627855834125412e+03 8.1200986143302453e+02 -9.3544212831960067e+02 4.8298508196675321e+03 2.7951002301847138e+03 -2.5396482396958294e+02 2.7590145846342892e+02 8.9555699661777317e+02 4.1358063285642018e+01 2.8867326622038127e+02 -1.3478197478740978e+02 1.9435574290672008e+02 -3.5177878430709870e+02 -1.6975773788552312e+03 -2.9717260342561655e+01 -2.7343465299775096e+02 -3.8300271778329000e+02 -1.2809393528464037e+02 6.3155560201639582e+02 -5.5174942403322916e+01 3.2915865967259992e+02 3.6748322914349114e+02 -1.2793861151692160e+02 3.1676689841698180e+02 5.6875724859259135e+03 -1.5547205559879089e+03 4.6340628725378938e+03 1.2129909286020702e+03 3.9191576603089179e+03 6.7949509274823913e+02 5.6019601804770564e+03 1.1546629245725719e+04 1.7326444730030605e+02 8.1469445859131031e+02 1.5614844712747893e+03 1.8330804980818104e+03 -8.5429704679480452e+01 -1.8428454382845267e+01 -1.3949273331820982e+03 8.4194723417271007e+02 7.8892753215496157e+02 1.1580789982518122e+03 -1.9098263813436965e+03 1.7968670382376951e+02 -1.0687838098220097e+03 -2.3039310383221532e+03 -1.1035859700707906e+03 -1.1733868883403113e+03 -2.4440911087517547e+03 -3.3432131617257050e+03 1.1667522235492658e+02 -9.0047974475091905e+01 -2.7727964690927880e+01 6.8364392818254146e+01 -4.4768509670666340e+01 1.8550967959303165e+02 5.5952981327614197e+01 -1.3193876322467170e+02 -6.2408691876220930e+00 1.7442205824667235e+02 2.3793888228562574e+00 -6.7944267621064824e+01 1.0282337143282265e+02 5.4883878121726116e+02 6.0326297323021356e+02 7.9372783689777339e+02 2.7564190709381666e+02 -4.9302345295941524e+02 1.0094513516515494e+02 5.0169226945085529e+02 -4.3314051990897198e+01 6.2180591254408819e+02 -7.9968459120318457e+01 -1.2163126957752018e+01 7.4100279682841418e+01 1.6017342553669096e+01 -4.9672444848510779e+01 4.0428096861999381e+02 -3.7073547934337256e+01 1.6551357207682656e+01 9.7787084845286955e+01 8.1400456115010030e+01 -2.6025993488276562e+01 2.9123273326308606e+02 1.9453227689310964e+02 -1.7460870699668266e+02 -2.0546781323972209e+02 -1.0203460603823466e+02 9.9253135907377029e+01 1.1317944333726155e+02 -2.2556960691677642e+02 -7.3172517471091524e+01 1.8054046208112595e+01 1.0303556281640248e+01 7.4548505080905150e+00 5.3266893909503082e+01 -7.4727892291042899e+00 -1.0710156921516271e+01 3.9694234043244876e+01 1.2755932354274174e+02 -5.3046190451138457e+00 3.2591225025874940e+02 5.4073256762674312e+01 7.6518387185076895e+00 -3.5520431509757469e+02 -3.8524740803297391e+01 -4.2221848931713794e+02 -1.4598873277646210e+03 -5.9922403339457492e+02 4.6254755222801646e+02 -2.1455473781484596e+01 -5.6406641237054718e+00 -5.0233628794864146e+01 1.2885160804730208e+02 -6.2862502234631478e+01 -4.7563257544814491e+01 2.5273105382582111e+02 
      </Row>
      <Row Index="6">
        -1.4912219578436634e+02 6.0485430733062697e+02 2.7999318447999423e+04 -1.0202112783356642e+02 4.3950600033962542e+02 8.8184712549292112e+02 3.3619604636609438e+04 7.0725942333006678e+03 -4.5808538689847182e+01 3.7989071561142106e+02 -9.5961767591143162e+03 2.5880783328240709e+03 -1.1076153014598367e+02 -9.6916913064522902e+01 -5.1396645627974112e+03 -4.8749184546677576e+01 1.1561809816977149e+02 5.4538745736346266e+02 6.5673857395597554e+02 -1.2148994922878571e+03 -2.0405426849714095e+02 3.0909670572835108e+02 3.3342406181452538e+03 1.0837596739712308e+03 -4.7378131350259753e+02 1.2847045149004094e+02 -5.1571272920273559e+03 6.1049513174413036e+01 -1.8909782866081628e+01 -5.9967401703980249e+02 -1.8408195613088792e+03 5.8002484233774521e+02 -1.9604722147573557e+02 1.4935457410119062e+02 4.7327368824808218e+02 6.0025413937258577e+02 -1.7600965261360670e+02 3.0301649107795299e+02 -1.7662419190368382e+03 -3.6809079618972781e+01 7.3128872560918012e+01 1.7204182470215801e+02 4.5392923193372289e+03 2.1418369515739978e+03 1.3732945175845407e+02 -4.9963748524743153e+01 2.8304689450272781e+03 6.7987389858624817e+02 9.2692142782851238e+02 7.0259570587847747e+01 -3.4528428688717929e+02 9.5175413619536357e+03 1.2815549067962779e+03 2.4179806515140319e+02 -6.0747994087033139e+03 3.2686340259906069e+02 -1.9928700988379569e+02 3.5928981293476602e+02 -2.8093844033373688e+02 -1.9451481414497869e+02 -3.9022165032848716e+02 8.2874467834294364e+02 2.1146734156241799e+01 -6.0722329712123667e+02 -4.2712867803582276e+03 6.1603348524340095e+02 -2.7966297029119516e+04 -1.6885740806571361e+04 1.9411073411075024e+03 -1.3192604498562200e+03 1.2104893092207454e+04 5.7701920254205717e+04 -1.8737109452463861e+04 -4.4679302981353831e+03 3.8684156460721271e+04 7.3273768421705981e+01 4.0756208564048700e+02 -4.3458836851366925e+02 3.3795047747533715e+00 -3.2892289824757404e+02 2.9025829486176917e+01 -8.9381079775958597e+02 3.8362828820437096e+02 -4.5836348966662968e+02 4.5276002392642039e+02 5.7659554064942995e+01 1.2926228893018442e+03 6.8772309002890790e+02 3.4596506176084796e+02 -1.6111308149680747e+02 1.0928800033746556e+03 2.9218963782736961e+02 -9.3364928752892820e+02 3.4725746173729692e+02 -1.9356814874795180e+03 2.0309463491874369e+03 5.7023516021221876e+03 -2.0313855668507770e+01 -6.8995628833692499e+03 5.4491015476653283e+03 1.1881892590248997e+03 -2.4296019151086275e+03 -2.5053978364709423e+04 -1.4585183488481358e+04 -5.6406885687176837e+03 -2.5364881748023799e+03 5.4729313548681766e+03 2.9710713534116687e+04 9.6608681505321729e+03 -5.3692956616208685e+03 4.6254342157048159e+04 5.4256857663622141e+03 2.3841546949071708e+03 8.5769312650044194e+03 6.3201395335297129e+03 -9.6702341177224880e+03 -1.8168651720001944e+03 -1.8506799829172960e+03 6.6928284345241264e+03 4.1935241266301455e+02 -2.6888040182851046e+02 -5.0347588076121065e+02 2.1616212136520744e+02 -7.9080734410748607e+02 7.5282444971597033e+02 -9.1701925664479541e+02 4.0734200367859539e+03 6.9833261956833917e+02 6.8669010615856132e+02 7.2642132974620813e+02 -9.4796937821444158e+02 -2.8985697688958021e+02 -3.9610814737522687e+03 -2.9681774801403590e+03 -8.6316114877108907e+02 3.0133370838408164e+03 5.1619728995382854e+02 -1.3071279539635016e+03 2.1212917434454880e+03 1.5668251936286470e+03 -9.5678521118046774e+02 6.4564858453949319e+03 -1.3694592319346440e+04 9.4686111738150357e+03 -1.0778531209621520e+04 6.9577865915346047e+03 -2.9204803372471815e+03 2.4080646789966208e+03 -2.5226140588200255e+03 3.6252473953926324e+03 -8.8463724528847870e+03 1.0310454697551382e+04 1.1681486596249797e+04 -1.1525339142973951e+04 -5.2908695965369552e+03 -7.0652799185961667e+03 -5.3110596785144589e+03 -3.3042469038209929e+03 3.3362753748097593e+03 -6.8621818475248065e+03 1.3445995871510302e+04 4.7963359057769012e+03 -5.0176982776539280e+03 -5.3689095974936590e+03 9.1747672646002502e+02 9.3865377675176589e+01 -2.5647478509461507e+01 1.8984430682959990e+02 -7.7145373498385382e+01 -1.0706719181625971e+01 -2.5903554064977931e+02 -4.8051472085161873e+00 -1.8003932778922288e+02 2.5781206639653374e+02 2.7731623840997486e+03 -5.7678010058487200e+02 7.4114322635615679e+01 5.9045832736366560e+02 5.8886901721713912e+02 3.6014438429878101e+02 -1.7690464847454932e+03 -2.4892747627159224e+02 -1.0815872400067501e+03 -8.9212627367428610e-01 1.2379516745466026e+03 -4.3045267074726644e+02 -5.0155147308091000e+02 3.1368131407828309e+02 6.4227744826158727e+01 8.1240725221892035e+01 -3.4863570299954699e+02 -5.7835384218309073e+01 1.8366895873898957e+03 6.8192290468629594e+01 4.7584907031682484e+01 2.1724421856050307e+02 1.0017630651834097e+02 1.6662206815343117e+02 1.0220198451204817e+03 -1.1240366387876772e+02 6.4240683538470208e+01 9.2583267945550958e+00 1.0347156469744175e+02 5.9433536015965309e+01 3.6489480524575174e+03 -1.2797364992025221e+02 -4.7184141455507682e+02 5.6110700537450612e+01 -1.0376718498244138e+01 -5.6878153820551681e+01 5.4816242819977651e+02 5.8785783562791181e+01 -3.6863639896015997e+01 -6.5807119174798686e+01 7.4587521041032730e+01 5.3943483792691708e+01 5.4745210432308227e+02 -1.5296283912425861e+02 3.4567818893140998e+02 -3.2158190951477991e+02 1.2868254266762742e+03 -1.1545650933552415e+02 4.5784304974433790e+03 6.7558862637828884e+02 -3.2636142481186653e+01 -6.6568246288925025e+01 1.1877830228670163e+01 4.4282821462466171e+02 -3.1129844975209680e+03 6.7497952235365506e+02 1.2130728898833944e+01 -2.2458292097239173e+03 
      </Row>
      <Row Index="7">
        -4.6130508009171263e+03 2.0718946968636178e+03 5.8092269304033653e+03 -4.5171932331097196e+02 6.5864983565357090e+02 2.6503204026386470e+02 7.0725983440493965e+03 1.0742055050988260e+05 1.2759725309969403e+03 -1.6414495334069429e+02 5.5059671933071149e+03 -2.5735794837987362e+02 5.2375208458946327e+02 -9.5449736574877534e+01 -6.6435772955136526e+03 -6.1086545346762784e+02 -2.6437469671650354e+02 1.2806507842273650e+03 -2.6263955729777108e+03 -1.7942489953001600e+03 -5.9540989726882110e+01 2.7828646942002376e+02 5.0402407785934856e+03 -4.5787211830079860e+02 -4.3804565839203933e+03 4.4152572183222318e+01 -7.3627549046905824e+03 2.6599889143743212e+02 -1.5265594118185840e+02 3.5377765656175370e+01 -4.9281054601926562e+03 2.8347929341444236e+04 -8.9933524654244138e+01 7.1340057666001303e+02 1.1289314340293775e+04 4.7566287667783274e+02 -9.5451106480586714e+02 8.6379595876676103e+02 9.3805374284751961e+03 -2.7132955465354136e+01 3.3561096842712834e+02 1.3718987057220766e+03 7.8946498633737056e+03 2.4377923360478137e+04 4.0849085553669056e+02 -3.3726243684855928e+02 -4.2755655649745822e+03 -5.1634139613504544e+02 -1.8943330346172879e+03 -1.6846977375793183e+04 -2.4042873670814660e+02 -2.6992429894122513e+04 2.8787599132200419e+04 -4.5732085252534780e+03 3.7562175061171774e+03 1.3679740098791266e+04 4.8282163161918434e+03 6.9218176107366321e+02 -1.9303020050511871e+03 -1.1342069541808091e+03 -3.9683778917985037e+03 3.1292916300601155e+03 -7.9876134089795994e+02 -1.1097124272348772e+03 -4.2941751306302085e+03 9.4224856818767989e+02 -4.5373434305811716e+03 -1.9245938243536522e+04 -5.2967434490953410e+03 7.7635102516812103e+03 7.1638388364630500e+03 2.2957461522711441e+04 2.8606377338347434e+03 6.8535627196948553e+02 -3.8054796575515957e+02 4.1556629742249953e+02 -2.5062573194268439e+03 2.7250546882178073e+03 6.1154302796254706e+02 -8.9908705579086268e+02 2.3126855275757890e+02 9.7248893209832602e+02 2.8575490492549977e+02 -1.1769538330840223e+03 -4.6890429921303308e+02 7.6450019545964187e+02 -5.1299482518650257e+02 2.7064022470903292e+03 3.3057886825198016e+03 -6.0833282672577980e+02 2.0012242274933394e+03 -4.0858826831952044e+01 -4.8673927713564319e+02 5.6248238511656809e+03 -3.5206974886757657e+03 1.5068279497776370e+04 -9.7175997326783836e+03 6.7024415928630597e+03 -2.7723110808412293e+03 -3.9511550800033874e+03 3.9234508856308603e+03 -9.6274453074088797e+03 -5.2546162355150745e+03 -1.1663536412939035e+04 -1.2262871527194366e+04 9.9600686825164321e+03 -1.0570808977024244e+04 -4.8799682703501858e+03 1.6573652301414480e+04 -4.3191128843783790e+03 1.1121192833065026e+04 -5.2491696704092974e+04 1.7446947749713006e+04 -4.3126221104507393e+04 5.5300251046719291e+04 -1.9030530215413528e+04 -3.8483829390510087e+04 7.4232876670391561e+04 -9.2993276804988214e+04 4.9560657577127145e+04 1.0425446216260871e+03 1.3733764043128160e+03 -1.3490556990364560e+03 -1.0851208157556937e+03 2.9521133417644733e+03 -1.3252074235309574e+03 -7.7507613193986049e+02 -7.1087454206745315e+02 -3.0896741704919932e+03 5.2475719893552900e+02 -3.9433186138696726e+01 -1.1544290127299610e+02 3.7734441336834370e+03 -3.5437556229927818e+03 1.1981161354358212e+03 9.2054837079750814e+02 8.1159463380824761e+01 -1.0711871476404526e+03 -5.7640964133248381e+03 -7.0490381772891933e+03 -3.2612573256633113e+03 -1.6852544664294677e+04 9.2243982324078388e+03 1.5346296436865508e+04 8.8291315495871968e+03 7.1240551806721778e+03 -2.0423635113287621e+03 6.8282155189796122e+03 -1.2006245506369612e+04 -3.4824750802413966e+01 -2.0197267299589410e+04 3.8150354169307386e+04 -8.0896903975167686e+02 -7.3774132121573966e+03 2.1912311364664089e+04 -1.4474114006387133e+03 2.8872277578156878e+04 -1.8060594551936938e+04 2.7546459444702934e+04 -3.0016739002998205e+04 3.6425791829555972e+04 2.4656434496321599e+04 -4.7545340869591077e+04 5.5199924024810658e+04 -2.6781284247635944e+04 5.3803140922722787e+02 -3.2720248264196562e+02 -2.0657620370784284e+02 -6.2757629795243666e+01 -6.8693310801511404e+02 6.4832821120764845e+02 3.6415769340155698e+01 8.9630325437652829e+01 -5.3145782988208332e+01 -9.5731193955754929e+02 3.0254229194642130e+02 2.0472190398953116e+00 1.3040716841523858e+03 -4.0473401268513317e+02 -9.0140271852835940e+02 2.2626513671050329e+03 1.5370744586774563e+03 -2.3679564365134429e+03 4.3511919829815395e+02 4.5985280045895543e+03 8.7767886019510968e+01 2.2459163599367271e+03 -2.4467015800401782e+01 -1.1164363120522364e+02 3.7005411240920586e+02 3.6570848074734386e+01 -2.9182254094600802e+02 -2.1449572368847644e+03 1.1484057244834545e+02 1.8923503090771825e+02 7.9563078632519978e+02 -5.2067526536062542e+02 9.4445456523435695e+01 1.0874243817598972e+03 1.4311086979728341e+03 -1.8481441739012807e+03 1.1058943714450682e+02 4.4016288049299135e+02 -9.8499867306037834e+02 -7.9714700942758247e+02 6.7744049612707613e+00 3.3782829514800807e+02 -1.1220166622810939e+02 -8.2592722657244657e+00 1.0960619287066131e+00 9.2674719026796413e+02 -5.7365741765281285e+01 -3.8651217873430724e+01 2.9752843047287718e+02 -1.1736631636568443e+03 -2.1570643787278209e+02 -2.9003233762971200e+02 1.0842887833600980e+02 -5.4143965167576357e+02 -6.7956546256417914e+02 5.3586523473159468e+03 7.6105037603728056e+02 1.1181290120836007e+02 5.7095579549924096e+01 4.0085583067707262e+02 1.6969147698444783e+02 -6.3409929262535147e+00 1.1706674665186429e+02 1.2012890759991781e+03 -1.9951163456497352e+02 3.3277075870614112e+02 5.9877077562509294e+02 
      </Row>
      <Row Index="8">
        3.0678667778424369e+01 7.3008992882802941e+00 -3.1068986004791395e+02 -2.6643023336058491e+01 -2.7452209051719393e+01 -3.3482783481453581e+01 -4.5808329614891136e+01 1.2759728043883993e+03 4.6275633262121596e+02 5.4482738244878234e+01 5.7124164892252523e+01 -2.1172549406116914e+02 1.1650138342161991e+02 9.2954780407525313e+00 -4.3323070736902025e+02 -4.5773792805443243e+01 5.0665711660346400e+00 1.0611005841087888e+02 -2.2789148675995878e+02 3.7041425948639221e+02 1.2062933245501691e+02 2.7200223904900433e+01 -2.7922583988740314e+02 -3.9767161877982517e+01 -4.4948202958707384e+01 6.3566671104006156e+00 2.1239213616306131e+01 -4.0109270758686911e+01 -9.0219379308728307e+01 -7.7801852517393996e+01 -3.6165564007126022e+01 -4.0990459106081016e+02 8.1770493089993408e+01 8.9914257057397862e+01 7.6437469827439770e+02 2.5651901448639933e+01 -2.9111233440178097e+01 -1.4624447302621252e+01 4.4701827233948927e+02 2.3201485580960579e+01 2.6398884351579294e+01 1.9003116544771649e+02 5.4645528864933760e+02 1.7058161982735987e+03 1.1444992893708313e+02 -9.8088274632994530e+00 4.9245196596324513e+02 -1.1341984912721982e+02 -5.1807572050557127e+01 7.2211996123424183e+02 2.4314529365913035e+01 2.8606975657460157e+03 -9.1734438044232752e+02 1.1819803801211528e+02 2.2621211670959872e+02 1.6646713893470931e+02 -3.8372137650054219e+02 2.1766754287446776e+01 -3.5871816870637836e+01 -6.4539721681867462e+01 -2.3701449588674586e+02 -1.0211976885516066e+01 -2.2843482092194780e+01 -2.6229798160180824e+00 2.2731997055710252e+01 -1.9763357309354568e+01 -3.2919443580199072e+03 -9.9309528956011718e+02 -1.8656839184918251e+03 -9.3364713414179073e+02 3.7639429137496199e+02 5.3615792074579758e+02 1.0715063486602319e+03 3.3911915687204851e+02 -1.2215469301344597e+03 6.7713221658510577e+01 -1.9936896685271461e+02 1.5762565200343090e+02 -3.1707407331029475e+02 -1.3088780363219783e+02 7.4729840419803779e+01 3.6432118925949041e+01 1.5202965517654881e+01 -1.9495047184752821e+01 1.1109959617201308e+02 9.3648863955823188e+01 4.3162362010262143e+00 -1.3904275901503124e+02 3.0991283464355621e+02 -4.6281999192345545e+01 2.3006422844184695e+02 -6.7142160009782685e+01 -8.5465589572469966e+01 1.1532160252096301e+02 -2.1934650159218688e+02 2.7148209147810354e+02 -8.8770784297026694e+01 8.5484358625261348e+02 -1.4664186603155633e+02 -2.9551019355718455e+02 2.3050572729330288e+01 -6.3919643760926522e+02 -1.9896337037563369e+03 -7.9163230136050129e+02 -1.0281585759231211e+03 1.3489265486433919e+03 -8.3013034838537260e+02 -9.2275842070316480e+02 8.3821774761018696e+02 8.8119483792895994e+02 -1.2476050492325439e+03 1.0683660860024193e+03 4.7084916640004235e+02 9.1111739505212347e+02 2.2014535026729577e+03 -3.1841289400149253e+02 1.0300294240212452e+02 2.8990029388618750e+03 8.0011170567830413e+02 -7.5950063325838892e+02 -3.4736438839050884e+01 -2.1811133440718697e+02 -3.9223924525251562e+01 -6.3913219856974501e+02 6.9091099106707009e+02 -1.9406319410448009e+02 1.5421826767626675e+02 -1.4382501472336526e+02 -2.2463503779640973e+01 9.1282477511672951e+01 -2.2320314648792368e+02 3.3063040735273279e+02 -9.3868901807744692e+02 -2.1282430281495124e+01 1.1893720625985495e+02 1.4479852495756913e+02 9.2305111498901823e+01 -1.5021794502374911e+02 -1.5220879374399537e+03 -1.8980764983466361e+02 -1.2683159080756252e+03 -2.3985139697570603e+03 4.0539492032369981e+02 1.6815197285639697e+03 7.6012117672799150e+02 -1.6958156053892321e+02 -6.4322550803974400e+02 5.8467178396116287e+02 -8.3735319858227214e+01 3.3554100411018806e+02 -7.5679969439999115e+02 5.5355710942530197e+02 -2.5694311549658426e+02 2.7810444303498031e+02 1.0226981593519959e+03 -8.5923717678157274e+01 -8.7693481649927912e+02 3.5835107881558429e+02 -3.6985713766535912e+02 3.4702580580164067e+02 -2.2000130187232753e+02 -6.8818099997678175e+01 -5.7296905055905791e+02 -1.7724008982540201e+03 1.4737296370667984e+03 1.3449407287638296e+01 -2.6744406447964138e+01 -2.4242235941486797e+01 -4.3431893962808893e+01 -5.9855588921493137e+01 6.8955510438139555e+01 -7.7574949649650038e-01 2.2152938262795026e+01 -2.3812165330089812e+01 -5.1235608917906511e+01 1.0615689320344096e+01 -2.7493379506849469e+00 5.3079338314169433e+01 -7.8630556485570082e+01 -8.7546287933568465e+01 -1.2268707396561047e+02 -3.1209017817206046e+00 -4.7129074765613126e+01 1.2615172371741674e+02 -5.0877577732005278e+01 8.2098485467447997e+00 7.0445624619967134e+01 -3.7880808864790865e+00 -3.1713779844505680e+01 1.4894754791468918e+01 3.0229767685140260e+01 1.4105463144129232e+01 1.6695903559457076e+02 1.3073883575849900e+01 2.0357129564789773e+01 2.4488593738343081e+01 -1.4420143775552184e+01 -3.9439349606735973e+01 -6.9804099678343306e+01 2.7573737117902084e+01 5.2879669345556977e+00 -5.7783758011903972e+00 -1.6535030032089608e+01 -5.8875586485387963e+01 2.7203684335099751e+00 -8.6254964111242209e+00 1.8567296561497276e+01 -1.2670182369297436e+01 -4.5706413986631755e-01 -2.5600045032791958e+00 8.5245452722492558e+01 -2.7031161238366490e+00 -3.8814440499207463e+00 1.9790209992442847e+01 1.2445759502440342e+01 -2.8028262616568501e+01 -5.6661531539308442e+01 2.1531907259181025e+01 1.0086639061341932e+01 5.5666172383154418e+01 -7.0231082900371064e+01 4.3808235456789495e+00 1.7502506725718291e+02 1.3014245131138367e+01 -5.4275594838444604e+01 1.0927219074797918e+01 -7.2760008003785757e+00 7.6105997765366027e+01 -9.2493949916224693e+01 5.4895806428506667e+01 -3.6256168084825191e-01 -1.0673257264548494e+02 
      </Row>
      <Row Index="9">
        8.7745821432062712e+01 -5.6336842970040301e+01 5.3259085282562751e+01 1.1855002054674060e+00 -1.2707017080138451e+01 -2.0483862570804519e+01 3.7989075019205256e+02 -1.6414482500381604e+02 5.4482732613207361e+01 2.9597294174238601e+02 8.5560589184812727e+02 1.4922769115812767e+02 1.1576958987518028e+01 9.5936503136519100e+00 -2.9191473836170803e+02 -2.0162083552004280e+01 -3.0987090341296581e+00 -2.7605896500937732e+01 -2.7387425741374540e+02 1.6036794788177468e+02 3.0527011876618229e+00 1.0808349023286414e+02 -4.9776728650878221e+02 1.2208002854166164e+00 2.4666321173611266e+01 -1.2644456254407592e+01 6.0652640804941441e+01 -2.0211103014124948e+01 -5.2289822041812881e+00 -3.0966658886402087e+01 3.3073330822672943e+02 -4.5031406608769203e+01 -1.5354518417680723e+01 6.7089001404813459e+01 -4.7982254611139035e+02 4.7356716718475468e+01 5.5239395069178372e+01 -2.6534693861308057e+01 -1.4929555298330706e+02 2.2844112413082996e+01 -7.6730419685195823e+00 1.4980698725142013e+01 -5.5499353281635166e+01 -1.7568203644393679e+02 2.4267438399987761e+01 9.1026702183739090e+01 -2.2593110279341528e+02 1.2098418913966675e+02 1.1408619462586792e+02 2.5179486497349237e+02 4.0318348227069424e+02 1.3272623866020276e+03 -1.0788998955172221e+02 -1.0311007866707232e+01 -4.3168114169169866e+02 5.2902846959836921e+01 9.2089227210936428e+01 1.2895762048479028e+01 8.7262547117359560e+01 4.8481138446652665e+01 -5.9606873973447364e+01 5.5122222733263129e+01 -5.2132707536760101e+01 2.5727266331226161e+01 1.3438881738771309e+02 -3.4474841740837903e+01 -1.4582298483518816e+03 3.3878701530926129e+01 6.2689970651085150e+02 -1.3870017608970556e+02 6.4816049698381710e+02 3.0469256333115288e+02 3.1023312561745064e+02 -1.5127426732492897e+03 -3.5310674597848362e+01 -1.0018249438086933e+01 -1.0290657358322321e+02 5.6236063783570273e+01 -1.2219547534999114e+02 1.9460182949788773e+00 5.5009803860684535e+01 -1.0734348719351489e+02 6.8184031407727971e+01 1.8557675171220886e+01 8.9898734180901741e+01 -6.2327189458147977e+01 6.0855171698076262e+01 -3.3935714817154638e+02 2.0457736279586932e+01 2.4845893974776423e+01 3.9893037029586109e-01 6.5620503450355287e+01 -3.1133562591140066e+01 -8.5234066806903677e+00 2.4754979134402468e+01 5.2700050320649109e+02 2.6150605560257100e+02 -6.3389981393841232e+01 1.0195570533970766e+01 -2.5454598593175672e+02 2.4695707369181201e+02 1.1662683554031504e+02 -3.2707084508681696e+01 1.2547017241922663e+02 7.4230966956098337e+02 1.2569247683414278e+02 -4.0011273298948555e+02 -2.2454590043062854e+02 -3.5943173076786292e+02 1.8064468622270505e+02 -8.4760101722229820e+02 1.1830206432197465e+03 -3.1107784441688921e+02 5.2417038396652629e+02 2.3932156690637639e+03 6.4830948236271161e+02 3.9505565481662211e+02 2.4798727174138139e+02 4.8463077301714850e+02 1.2903458115086187e+02 9.2924151739934437e+00 4.8705782822416573e+01 -6.4213117735156288e+01 2.8381136637189621e+02 9.3275354845494771e+00 -9.5561217698832479e+00 1.6321941559822193e+02 -4.4407449852197203e+01 1.4133322953269754e+01 1.9382396046486926e+02 -2.6917490319723618e+02 -3.9927209120713954e+01 -3.7881722950747655e+02 4.7951059866067158e+00 9.3172044972524077e+01 2.2867211217156461e+02 1.0895465059103975e+02 -2.5982792259422644e+02 -9.2217857430918215e+01 -9.2149787572949151e+00 6.3414096873991161e+02 -5.4647815159841525e+02 -9.3599719314685206e+02 2.3880681899384626e+02 -1.1492862445959190e+01 -6.5652331098368791e+02 3.4523376965441571e+01 -3.9652133589894510e+02 -8.1448921422054113e+01 -5.5633613382067449e+02 1.7594108175889488e+02 7.6860027748046548e+02 1.5261334977776608e+02 6.3832488994605455e+02 -5.4150712220776904e+02 -4.1042512278815657e+01 -8.9077194566240291e+02 8.4668059716929605e+01 -2.8418846105297212e+02 -3.4114199133526591e+02 1.0455417163394186e+03 -4.6700160641243443e+01 9.4691192095260817e+01 -1.8182037187201701e+02 2.9676332226265953e+02 3.6315673335216616e+01 -5.4525735059509316e+01 -6.5558642222604249e+00 -1.6178898756825284e+01 -2.8523238009507242e+01 9.6632011127952016e+00 -1.3579960014672938e+01 7.5321216209791245e+01 -3.2728763018476620e+01 -1.0240706162722114e+02 2.4229419629946747e+01 1.1555963461340070e+01 1.2671604965141253e+02 1.0250484259501872e+02 1.1465063693965782e+01 1.4234059898376782e+02 1.6825364380124765e+02 -1.0427274376171596e+02 6.8108219496011998e+01 1.9649781038285627e+02 2.5233796983458934e+01 -8.2527730051033956e+01 2.2996430172378865e+01 -2.7128569991193743e+01 -1.3509518505247220e+01 1.6966504479827492e+01 7.3286947964495628e+00 -6.4051525856529381e+01 5.5321042046020068e+00 -6.5994838467769803e+00 3.6431275341612612e+00 1.0668298328842502e+02 -2.9680515381542147e+01 2.2041733530472730e+01 5.7060593969669853e+01 4.4807356163524901e+01 5.6885113869869386e+01 4.6329982944114832e+01 -1.9340865475066515e+01 -8.6651629402383435e+01 5.0692460198699209e+01 6.4909883764997134e-01 -4.4939158924039475e+00 -3.7798174158333011e+00 -2.7638962295726643e+00 1.9400436509045711e+01 2.6961957534131482e+00 3.4452864827278846e+00 -1.6540479550876615e+01 6.3551900758412387e+01 9.5719579927436165e+00 2.1245707247042670e+01 -3.8799200007297259e+01 9.7373409334527441e+00 7.5337481273508331e+00 1.4937650758299674e+02 -5.0304006903443534e+00 -1.5369640671001056e+02 -6.4760536440522827e+01 1.9270383945717715e+01 1.0430038919571029e+01 -8.9690127212264450e+00 5.6391874188024538e+01 4.2193059962511001e+01 7.7265653277265358e+01 7.0761872547384650e+00 3.8377418160781872e+01 
      </Row>
      <Row Index="10">
        1.8674599100606888e+03 -1.6519809933328870e+03 -1.1774163964041220e+04 -1.2226701740816679e+01 -1.0748227561788497e+02 -2.6372165875299206e+03 -9.5961790847717803e+03 5.5059755718304059e+03 5.7124443524180151e+01 8.5560585319823031e+02 1.5488868967561974e+05 5.5788260284664384e+03 -7.5733143380696220e+02 -4.1148314986482312e+01 7.9921420140102773e+03 -1.1194305474793551e+02 -7.2296670509024423e+01 -3.9442921160848309e+03 1.9618524255495745e+03 1.1904139148571749e+03 -6.7782545796961301e+02 1.4437854730642718e+01 -8.1391373537009840e+03 -1.9931917703076138e+03 8.9463047460243251e+02 5.2797735920137711e+01 -2.8343619915374247e+03 2.1856505183611100e+02 4.4266962989515588e+02 -3.9609590366413613e+02 -1.4584526975421904e+03 -1.6474802076367101e+04 5.2498438507107949e+02 6.8491453544985092e+01 -3.6108146173719397e+04 2.0582782429217468e+03 1.2090822486378875e+03 -6.8240307421958596e+02 -5.0923147207279380e+03 2.9636903320131864e+01 -1.1577249029892580e+02 -1.8405273459984824e+03 -1.8500143555847192e+03 1.8285534879951410e+04 -1.0785231277031789e+02 4.4780262702810950e+02 -1.4934615579916979e+04 3.5283900876989910e+03 -1.8297171814015328e+03 -5.8583866935743117e+01 4.6582584712215357e+03 -1.0604928634295118e+04 -2.2305382790649628e+03 -3.9805719550402582e+03 3.4969940064853076e+03 -3.9873483198104936e+03 -2.3260963508085661e+02 -1.3069092000181347e+03 1.0512835072951566e+03 -1.8592009832729423e+03 -2.4293698317706585e+03 4.4492755028123020e+03 -2.3115905077393709e+03 2.6239249279483897e+03 3.8344471648640770e+03 -4.7535365363070912e+02 -3.5184508739382371e+04 -1.8170741938515046e+04 -4.0000468884761969e+04 2.9756157498933740e+03 4.0814554356747467e+03 -1.4269561971307878e+04 3.7078573933373365e+04 -1.1044350333454960e+04 4.9241230235704279e+03 -2.1371395730122764e+01 2.7124634958637125e+02 8.8178698000140776e+02 -3.9669188488997241e+02 7.8403655239089755e+02 8.7150667889256090e+02 4.2956288608569497e+02 1.1218583821311452e+03 1.2611706346402982e+03 -6.0864519493099067e+02 4.8008408139870693e+02 -7.5498393515900329e+02 -2.4132431749579487e+03 -2.0947289973204211e+03 1.4684171775237178e+02 -5.0343753158617972e+02 1.1842399480957629e+03 1.2723278861939270e+03 2.5248621166369639e+03 1.0143522283140377e+04 2.2021221597977524e+03 7.1665100358612835e+02 -6.1682825724922404e+03 8.2804255456016490e+03 -3.1578737276280426e+03 1.4092714471863019e+04 2.0003210992477107e+04 -1.7225765864109158e+04 -1.0098132460157140e+04 -7.8226595677984806e+03 -2.4130012252833762e+03 6.4597970454709866e+02 2.1059813028322817e+04 1.3878121445584111e+02 3.5903181747557010e+03 -7.7608623668518103e+03 -2.8365991833554352e+04 -9.0294957004041225e+03 -3.9355432925176523e+04 -1.8434383074749989e+04 2.5523966223851225e+04 -2.5955412940900991e+04 4.0185539103715397e+04 -1.2563685188291442e+04 1.2362235669996535e+04 -6.3822231443282374e+02 4.2774737053144054e+03 -6.4825755263179544e+03 6.7762819730650617e+03 -6.4537062740803958e+03 -4.6175033251522837e+02 -3.1227883858830496e+03 2.3509638061373025e+03 2.7710226917578984e+02 -7.3776275878921047e+02 2.5000413961906068e+02 -2.5542149198990819e+03 4.3143157397697723e+03 1.2095735705536972e+03 1.7857132870469297e+02 5.7208463895147872e+02 1.8648544296188169e+02 4.9074565783517210e+02 8.0819526131888619e+04 -9.8299601563782344e+03 6.1874012991889453e+04 -1.8704993727522880e+04 -2.9138552879419702e+04 -1.7243541327185289e+04 -9.4917217993887229e+04 6.5342103964129572e+04 -7.7698161824897208e+04 -4.4467522689310375e+04 -1.0493020108258323e+04 -4.4049490634072834e+04 -5.6182040692992650e+03 3.8211539478908329e+04 -1.3575715477886994e+04 5.2982061676271791e+04 -3.1989442525681756e+04 1.6976477394755413e+04 -3.8362207252025735e+04 1.0313152410845887e+04 -2.8339731681554356e+04 3.0907983041074516e+04 -1.0680952780090252e+04 -6.0267649360684536e+03 4.6725974701691383e+04 -2.3321742574227614e+04 3.7855564205293012e+04 3.7503014441670001e+02 -4.9052825076412410e+02 -1.3857864328601863e+02 8.1830796142968870e+02 1.4393662651064557e+02 3.0682603784897098e+00 -9.1970924922688866e+01 1.8633803450544569e+01 1.0331689737435863e+02 -3.5134719348785256e+03 1.3635725635667833e+02 4.0991495213111193e+01 -7.6578373669001212e+02 -7.9814405295512552e+02 -1.4350722232285625e+02 3.9327634004885185e+03 1.3930502604255726e+03 3.9809676158185789e+02 5.9749800591705863e+01 3.3825095017163421e+03 -2.9370132234960784e+02 1.3464024987900207e+03 2.9500163125501302e+02 2.6378824822682088e+02 1.9432076108975372e+02 -5.1831560738254666e+01 -4.8123350411176369e+02 -2.8314040569584204e+03 -9.4877361798144307e+01 1.5874926623792402e+02 -1.0740112599279969e+03 2.0851509568853844e+03 7.6349042818517103e+02 5.2252342114821988e+02 3.4759270644574497e+02 -4.7083779288992082e+02 -6.4403254732226813e+01 1.2384924511362897e+02 -3.9917648632086070e+02 -2.9387714657983283e+03 8.6629605118514667e+02 2.9587958749811645e+02 -5.0730396856892185e+01 -2.5327227920642940e+01 5.2030826611235298e+01 -5.8480579518883644e+01 6.9372319368062536e+00 -2.3076973447313143e+00 -6.5073608593070878e+02 1.1757230262811204e+03 2.3722576181334091e+02 7.1772585460085077e+02 -2.6261993800099299e+02 -2.6044477761224815e+01 5.3897417778249610e+02 5.0078496267961273e+03 2.6698974793315955e+02 -7.3134737819918155e+03 5.5951936193727306e+02 -2.9723870559366094e+02 3.9694460067151880e+00 -3.2513814167470425e+00 -5.8651864552321445e+02 4.3912271894766054e+03 -1.1185053462288729e+03 -1.3162496722315467e+02 3.4990805425613526e+03 
      </Row>
      <Row Index="11">
        -3.0591698730708686e+01 -6.4466033948718245e+02 1.6871026792231501e+03 -8.1982490676081625e+01 -1.2581327074537698e+02 3.8226276817807025e+02 2.5880776981018480e+03 -2.5735904214519974e+02 -2.1172557649210103e+02 1.4922766359157316e+02 5.5788251602102746e+03 7.1054381207956276e+03 2.4123265174124299e+01 6.2735282661028577e+01 -2.2028698855567382e+03 -1.3958965742570467e+02 -1.0153815408444544e+01 -1.2809743071492815e+02 -7.4644263510836026e+02 1.9754053630410880e+02 -2.6802794342467519e+02 7.0689462049170757e+01 -8.4225063049283983e+02 -1.2300391604837877e+02 -7.4901938474103645e+01 -8.9398585439854202e+01 -8.3237356336411631e+02 1.5217818130913818e+02 -5.2174060643781701e+01 -3.9831375125737623e+02 -8.0856974579635994e+02 -2.0535686530669550e+03 1.0692497762282994e+02 -8.8286997673678599e+01 -1.2951992970580468e+03 1.5206842263140555e+02 3.9629214968585757e+01 -2.4735976575808002e+02 -2.0329559850871847e+03 -3.4298608214728254e+01 -3.5975429137349366e+01 -9.6031393161052165e+01 -7.9589240663674673e+01 3.4926621238761722e+03 -9.4271624038699827e+01 9.4028437617579954e+01 -9.1873841790882161e+03 4.0180667966781621e+03 -9.2892378397061952e+02 1.9991316002078031e+02 2.3795065442871878e+03 -3.7366381417562475e+03 -1.9991571874548949e+03 6.9987316153394363e+02 -2.3667757414687719e+02 -1.3444002896852301e+03 7.2832897990197262e+02 3.4671952825420578e+02 1.3193135309151767e+03 3.9221137450701337e+02 -1.9976310919551179e+02 -6.7930198353141304e+02 -1.4221574008357632e+02 7.7461797922357209e+02 1.7013495161668220e+03 2.1680336790251050e+02 -5.2961307755503276e+03 -1.5862570720884127e+04 -2.0947301603541894e+02 3.2738153062040083e+03 4.1730200076875108e+03 3.5456964987589636e+03 -2.4523331783562335e+03 -1.7435441765041269e+03 -1.3791182583664427e+03 1.7448776020497155e+02 -2.3809897978832839e+02 -1.9333085259078968e+02 3.4026498393496496e+02 2.4693887779970706e+02 5.1243109293693169e+02 -3.5514237477260144e+02 3.1268182433499561e+02 1.1653780149513872e+02 -1.1020036424555515e+02 3.6758659942024804e+02 -1.9583727778405515e+02 -1.6460978806293787e+02 3.4246395090046701e+02 -1.3159063639155082e+02 -4.3719207782437628e+01 -4.6362224015598855e+01 -5.5122210867288345e+02 7.6893850925762013e+02 2.0182291730991471e+02 1.4937813995261606e+03 -2.3442288931244984e+03 6.2774006414137887e+02 2.5534894233620591e+01 6.7085092916505528e+02 1.8814019898675738e+03 1.1501978004234766e+03 -2.0564659192534491e+03 -1.0310256476382667e+04 4.1636642771525776e+03 -3.9275088986237297e+03 -3.5115182414011451e+03 -7.1549090259433524e+02 1.5064019828679920e+03 2.6242419556042332e+03 3.3895418783478590e+03 -5.3335378902095472e+03 3.9847647852859091e+03 -4.6639420693239499e+03 -3.6938795465265571e+03 -1.8989217497375357e+03 5.8262170989954029e+01 1.9859565690530471e+03 1.6266544599697663e+03 -3.3363521497488709e+03 -3.1940831700577530e+02 9.4888618254024914e+02 -1.6113050168441496e+03 1.1993758492155846e+03 1.4214449272271202e+02 -2.1760218434179774e+02 7.4036258909416347e+02 9.5415602714745842e+02 -6.0021634837688543e+02 -2.4179511798509449e+02 4.2276979269465130e+01 -1.2068067796594262e+03 1.6851236719474696e+03 -5.7051721696108916e+02 -9.2667117446532899e+01 6.1570551013119491e+01 1.0466441474516320e+02 -2.3627434398680111e+02 4.3881468608418381e+03 -3.4434509127884030e+03 -3.5847191725841767e+03 7.3605397120538382e+03 -8.0328752804643591e+02 -2.2262268232981623e+03 -2.5535969281692569e+03 -3.3700767250327044e+03 -9.0629013517995782e+02 -9.3686990952228261e+03 -2.3659044675209207e+03 -4.3393636096277241e+03 -3.9583917473029101e+02 5.2691219457471152e+03 4.6933050977528928e+03 2.8623975529617846e+03 -6.9265226606598590e+03 -4.6700188261565672e+03 -8.5824761241642045e+02 -6.6385779310857924e+02 4.4974110157245905e+03 3.9199645601488519e+03 -7.0894153396567049e+02 2.4939638512591528e+03 -4.4291289898512487e+03 2.1427722834587353e+03 -2.8704513878980197e+03 5.7193017742576274e+01 -1.4599940098656225e+02 8.8595598372703535e+01 7.2274356749916308e+01 -1.3894674097417627e+02 6.1156593894050843e+01 -3.5356991831365008e+01 -4.3682501420899264e+01 2.7603978168656191e+01 8.3628038996596032e+01 -4.7470315217205208e+00 -9.1265095504682904e+01 3.6449564148877357e+02 4.3892502734019945e+02 3.6800702724735584e+02 6.8516466737013934e+02 4.7335509431587764e+02 -6.4354579664340164e+01 -7.7868003573486533e+00 1.3841994729185603e+03 4.8561441072530897e+01 8.4933488810830099e+01 1.1921890492373535e+02 2.0188217868689442e+01 -4.0108271241831311e+01 1.0518122039493664e+02 -3.8353842938477996e+01 6.6412388007521076e+02 5.8288681292849361e+01 1.0865280925016735e+02 1.2898544334023470e+02 3.0270133035136433e+02 2.1235553640302061e+02 3.2666715610845313e+02 -1.5683554509855330e+02 1.3420009638427018e+02 1.3481690157300298e+02 5.3649822653642843e+01 6.3223903389434298e+01 -4.6665531410227356e+02 -5.6588987927877078e+01 2.3513314343150505e+01 1.7789625556664760e+01 2.3716588936716306e+01 1.2421350825361793e+01 -1.4251859634897670e+02 5.2783961290572137e+00 -2.6490811169924644e-01 -7.1762692735585219e+01 1.4421508165082636e+02 1.7797196102683358e+02 -2.3732765920114366e+02 -1.3887072818978777e+02 1.1959519295698782e+02 -1.2447920676141163e+02 1.2733010804507358e+03 -1.1778466495488306e+02 -4.0841245159090145e+03 -1.5917661710586830e+02 -3.9539339911023092e+01 -5.3439256942224844e+01 -4.5029189372310896e+01 -2.3334799251807823e+02 1.0770346197789479e+03 -2.1568202135839482e+02 -2.7014908199745516e+01 1.0593671488551408e+03 
      </Row>
      <Row Index="12">
        4.2718121931648284e+02 -4.8778778859070876e+01 -4.4904078232648487e+01 1.7170198890445789e+00 3.3957679793338215e+01 -2.3539122653562538e+02 -1.1076157573162958e+02 5.2375204775776831e+02 1.1650137688059769e+02 1.1576961573049804e+01 -7.5733155915844600e+02 2.4123290958331946e+01 4.8013470164728301e+02 -4.3358709349895443e+00 -2.6089539094458553e+02 2.8497332686405237e+01 2.6346325042691173e+01 2.8219980662178035e+01 -9.9800407314796459e+01 -1.9117929126233264e+02 1.9011151369510122e+02 6.4630197385579365e+01 -4.2720371453491890e+02 1.1785980263448742e+02 -1.4327065431638789e+02 1.1595066735575164e+01 1.1869041342594139e+02 -3.0294477010031691e+00 -4.7279648332636022e+00 -4.7765120400099519e+01 4.6538628171600465e+01 -4.7554104947360315e+01 -1.3870558157216732e+02 -1.3818285600184893e+01 6.6572783710980798e+02 -1.2840841535173334e+02 5.0399445602516266e+01 -2.9092798799243340e+01 1.5276567268413453e+02 -1.0963547372489344e+01 -1.1373929398045266e+01 -1.6041947589660592e+02 1.7534549177682632e+02 4.7582329872282918e+02 -3.2043006071682072e+00 -1.4248628183856127e+01 1.6459156483082995e+02 2.6739695855872572e+01 -7.9091528536762794e+01 7.1623750606605438e+02 -2.2219005703702027e+02 3.9785270274662594e+02 -1.0650990339619074e+02 2.1839825271956609e+01 -1.0720935955541631e+02 -1.9170011864851875e+02 -6.1528184580357606e+02 3.6508524644351191e+01 3.3197414903692476e+01 -4.1284328890825748e+01 -7.1956802939144836e+01 -1.8694760263301440e+01 -9.8772588798166282e+01 -1.8470842769931167e+01 -1.8241341858513854e+02 -5.3572532126731517e+01 -9.0374029663772581e+02 -1.2515305818515096e+03 -4.7207763364415774e+02 -2.1946354751359979e+02 1.2298649944916860e+03 -1.5837775749063621e+03 -4.1172927123480952e+02 2.3072129782129914e+03 9.8272459915952027e+01 1.5804768299436802e+01 2.2997973923049557e+01 7.3935544249379035e+01 1.8745247460347557e+02 -1.3761238363802801e+02 8.4977310749585612e+01 -8.7266791035364299e+00 -3.8227257879804199e+01 5.5628295145237544e+01 6.6473872392251163e+00 -1.9570305932469797e+01 2.3297934869984303e+01 -4.5587900563569940e+02 2.3236517676102730e+02 -1.7132187607642425e+01 2.1593740593314546e+01 -4.3433310107854659e+01 1.3323366910130318e+01 -7.4461009447270115e+01 1.6622855740245501e+02 5.2174823204850145e+02 4.2080188917610212e+02 9.2492404043195597e+02 4.3449946289893808e+02 4.1263409786617376e+02 -6.3290989737959387e+02 1.3150364385667277e+02 5.7353277683604404e+01 -4.9862792177505588e+02 5.8515938011177968e+02 -7.5597850243758785e+02 1.8059732886278107e+02 -1.4582578030098473e+03 -7.0555385659414242e+01 2.5879155819879320e+03 -9.7426511084554292e+01 6.5492889917823766e+02 -3.6547835347362701e+02 6.4678423980310788e+02 7.5614017036808718e+00 -1.3706563595700618e+03 1.0277415210853737e+03 1.6337145480869640e+02 -1.2517805774234449e+02 -1.0279602552916663e+03 7.9821320781966620e+01 -7.6639124883286877e+02 3.1427594360531401e+02 -4.0503756796588146e+02 8.2570988766698292e+02 4.1567736337965130e+01 4.6371036471017641e+02 1.6696106229901045e+02 7.4541110294873226e+02 2.4203313831411987e+02 7.8980638068826153e+01 1.8672609805724835e+02 2.1818996468508445e+02 -7.0231942961287427e+02 1.9969982040410122e+02 -2.7162002967136607e+02 -5.1284983339652001e+01 -1.8074619324957024e+02 -1.3895444804605486e+03 -1.0203009765388360e+03 -1.4784354952916599e+03 1.9145710347023521e+02 3.7464015892252064e+02 -5.1946209353252812e+02 -2.3081116401861817e+02 -1.2910188940788094e+03 6.8301403236263513e+02 4.6963256100282291e+02 -1.7368530224958991e+02 -5.7216809030583136e+00 -4.2130257726911941e+02 7.1545433870524391e+01 -1.1004950334652457e+02 -2.6187811999084710e+02 6.4698102787963830e+02 -3.2185206884425338e+02 -4.4140534647469522e+01 2.9382199199379835e+02 1.5238896280686657e+02 7.3391708905927862e+02 6.1647474472001932e+02 3.7936303723246283e+01 1.6724723552714693e+02 3.3912711734226866e+02 2.5952161537879692e+02 -2.1128502918784140e+01 3.2298611174837788e+01 2.8780265214461451e+00 -8.7714260340293023e+01 -9.2649657925690221e+01 3.5153186516295904e+01 5.9009611699658171e+00 3.5754202547922226e+01 -3.3130429979197572e+01 9.5429299374723001e+01 5.9218120906219376e+01 2.0819564096928502e+00 4.2433159876857147e+01 -1.4071536792088972e+02 -6.7873876868371212e+01 -2.2384777709643151e+02 -2.4065503752026842e+01 -6.5019055716650797e+01 -3.6011875677431753e+01 -1.3964148324740015e+02 2.4014074708841804e+01 9.1848044355929801e+01 -1.8299847067541762e+01 -5.7014605858495919e+01 -2.5038274037886470e+01 -6.8634887371718722e+00 5.2484693577500501e+01 1.3630204358122199e+02 8.6373716140045662e+00 3.5920080529236325e+00 6.5526760749852784e+01 -7.8944818463287760e+01 -3.6616788390439687e+01 -7.2960469445164193e+00 2.7426756482393689e+01 7.9286291074384110e+00 1.4274114991715363e+01 -2.0825465249875474e+01 -8.3919943826463470e+00 -1.3150214915371549e+02 3.6332379418996410e+01 1.2995001836802000e+01 -6.9219513474469636e+00 -3.8750647935103975e+00 -5.8079308211851055e+00 5.0103932905170765e+01 2.9690083952299200e-02 -6.6109647455123968e+00 3.0066992095511676e+01 -4.5863858296118430e+01 -3.2723506634723904e+01 -8.5018020267040271e+01 2.6726689193799302e+00 -8.9742517122043342e-01 -1.7456299319699596e+01 -9.3080509973693779e+01 -8.6032198303535488e+00 -3.2488286673096809e+00 8.7694488334910261e+01 -3.2952729703241253e+01 1.6458193138286212e+01 9.7733203097411625e+00 6.1472453693821919e+01 -1.3593600824133915e+01 5.3699205086563012e+01 2.9941378662107141e+00 -3.3630228499064287e+00 
      </Row>
      <Row Index="13">
        -1.1861585160836080e+01 -2.8820135779563937e+01 -1.1014533556852601e+02 2.8973328904671263e+00 -3.5707814996835516e+00 -8.8737689121458203e+00 -9.6916911757161955e+01 -9.5449753603199099e+01 9.2954764062994020e+00 9.5936496069107982e+00 -4.1148344604088578e+01 6.2735277907351765e+01 -4.3358716794338683e+00 1.2531521663964593e+01 -5.9341041781735967e+01 -5.3046158272359056e+00 4.2743812280386582e+00 1.1511205246098655e+01 4.0118412922833704e+00 5.9208693027912894e+01 2.8457440578538971e+00 1.4752013841827623e+00 7.9969235499609859e+00 -1.6294948881268642e+01 5.1362208749424170e+00 -6.1413211127654588e+00 2.6354085203703654e+01 -8.5527499905375648e-01 -1.7538077579289602e+00 1.5049396937574144e+00 -4.2801521774765749e+00 -9.0704483707575307e+01 7.2009270865367938e+00 -1.8907388464988437e+00 1.4333320233298721e+01 -6.8529749602946071e+00 -5.2572817050329874e+00 -1.5203966102197313e+01 3.5306913600747414e+01 3.4393628928501747e+00 -1.9751018542016521e+00 5.9256306633118641e+00 2.9361566050889227e+01 4.0724032278364177e+01 1.1365025660209191e+00 5.6003526040714782e+00 -1.3790099113263278e+02 5.8674466275040821e+01 -2.1920274473449425e+01 5.2990906434036624e+01 1.2388712113040880e+02 -5.8773377608376407e+01 -3.6360596310795017e+01 1.7206341896625350e+01 3.2650812004198471e+01 -1.3910451694425472e+01 -1.8573718841245245e+01 5.5524413662884031e+00 4.3190340248221254e+01 2.7526796359303582e+01 -1.4677139144652756e+01 3.6550496598234972e-01 -2.5775758008862097e+00 1.5742528889548190e+01 1.8246807052352409e+02 -1.2370600892507506e+01 -3.9547175582561550e+01 -1.5311080695127845e+02 -1.1901721201256252e+02 -2.8186073156111178e+01 -1.7721924369596952e+01 -5.7033406364397806e+01 -2.2231983418440106e+02 -7.1579249011881743e+01 -1.7994754874113653e+02 2.8582852940247072e+00 -3.0115558377057837e+01 8.3909309386950532e+00 1.9609646552516210e+01 1.0908013641077124e+01 1.1072645238220666e+01 2.1825649841147506e+01 2.7390484583283561e+00 -1.1742445624808065e+01 -1.4441608742995702e+00 3.5712066688575335e+00 -1.6421806664624548e+01 8.5107601964439070e+01 1.4665657833058118e+01 -4.1004306003833095e+00 6.0928386084689912e+00 5.9895573853351838e+00 2.9259506163536386e+00 -7.3744992582985969e+00 -2.9548245657682855e+01 2.1505135691034006e+01 -1.7575313237096998e+02 1.6467019816597008e+02 -1.0686289431415739e+01 5.8678446423592959e+01 8.0175943116874507e+01 -1.9460766719669724e+01 -1.3274709606510527e+02 -6.4015781435375629e+01 -1.1662539487967936e+02 -4.0918938399535705e+01 -1.5690142177672934e+02 -1.3919200362882174e+02 -1.7620791065887033e+01 -1.4425843751317828e+02 9.8293260005886154e+01 2.8408345647975821e+01 5.5294881476270795e+01 8.1885784266211612e+00 -2.3942805611251549e+02 4.3615982241337292e-01 5.1822854308742762e+01 8.9338398077940212e+01 2.6246619505554634e+01 -1.1601238028779181e+02 -4.4730938456754128e+00 1.0520642697930480e+01 -5.6733730935317958e+01 -5.7335316218339841e+01 3.0595310899097285e+01 -1.7991189530356738e+01 -5.2099415055316305e+00 -3.4156548332386620e+00 1.2613541821476304e+01 -3.6190691367627870e-01 -9.1282617041046965e+00 -3.1197726702298525e+01 4.0959027570958682e+01 -2.4441300605147596e+01 7.2762663536568351e+00 1.5848486848712975e+01 4.9787585537963146e+00 6.0978974559946577e+00 6.9443759443269926e+01 -6.5345412919561213e+01 -1.2759462562825394e+02 -3.2696720206212362e+00 3.8663916917464348e+01 7.0095335141160746e+01 -1.3390809417434764e+02 -1.1713664315754230e+02 2.3669277417457636e+01 -6.3371237286564480e+01 3.8121466213211754e+01 -4.2766655095168062e+01 1.0661141637866793e+02 -4.5439919556120948e+01 3.3241799354137960e+01 7.6322575129732499e+01 2.6122169441196115e+02 -9.2310697600987069e+01 1.2374731520580781e+01 3.0423309326913724e+01 1.1736999663435076e+02 8.7572900464581366e+01 -8.9391597317324152e+00 2.1649459695989918e+01 -5.3882252059183166e+01 1.2536133647258701e+02 -1.3586156648274178e+02 -3.0662641465739391e+00 -2.3134138310138042e+00 1.3970727864276569e+00 -1.2196878412955366e+01 -8.1647452245632923e+00 2.2446474258284499e+00 1.0678372124889526e+00 1.0540115808225597e+01 -6.5061445048691837e+00 7.0797321799524244e+00 1.0607884694923831e+01 1.5336429409625794e+00 4.6330581622275107e+00 -8.5064160996083764e+00 -1.6315101272295379e+01 1.3335606424962862e+01 9.2786413848244251e+00 -3.8081654593817547e+00 4.6963720414726540e+00 -4.0060567347281335e+01 4.9752921837343340e+00 1.3414064231621673e+01 -5.5224626825312138e+00 -8.7322622824911811e+00 -1.9702947319956894e+00 1.2059372343043620e+01 1.9246699371139475e+00 3.7639094988831104e+01 1.4595902329041568e+00 -1.8862212312557660e+00 -1.6352814435410892e+00 2.6450339069136888e+01 -2.9243641702791878e+00 6.3638345773750320e+00 4.9049914082050128e+00 2.3540064770955951e+01 3.2367000042707306e-01 -5.6084352920872362e+00 6.9732337508231863e+00 1.6738079009144982e+01 -3.8090010152496392e+00 -1.7960962173149131e+00 -2.2030848394723535e-01 -2.8323399895796575e-02 7.5878865975813281e-01 7.8228977249441058e+00 7.5363207690165909e-03 1.3559837241247756e+00 -2.8195598565568303e-01 1.3089744143663776e+01 4.5103095090990208e-01 -1.5351420429282095e+01 -2.9602359184980287e+00 9.4579890238872935e+00 1.5637080584357861e+00 -4.8271870023386043e+01 1.9882633690182210e+01 -9.2537838216270529e+01 -1.5294974565028484e+01 -7.3453901473020977e+00 -6.7922242953215539e-01 -1.7427981404832302e+00 6.5523175471480606e+00 1.7076289623364545e+01 6.2014619393011223e+00 5.4171278544588886e-01 1.9476689708051616e+01 
      </Row>
      <Row Index="14">
        1.5108650535554330e+03 -3.0626233778371795e+02 7.3719480748044552e+03 5.1727380134754640e+01 -2.7327544595382489e+02 4.9688406034967352e+02 -5.1396682037567844e+03 -6.6435801858147233e+03 -4.3323061670297528e+02 -2.9191467572870079e+02 7.9921465003813209e+03 -2.2028703300715820e+03 -2.6089540712673386e+02 -5.9341040122689684e+01 2.0743914098599773e+04 2.4207827376246340e+02 -9.5380518664484683e+01 -6.4217183833806496e+02 9.1432013581948340e+03 -7.2730885909621384e+02 2.6899462311727393e+02 -1.1581964526464293e+02 1.8516742676906024e+03 5.2374857833018304e+01 9.0201858357556011e+02 -4.2441906416605143e+01 -3.7734582392802299e+03 1.7637451500772180e+01 4.3178073570685257e+02 5.0834168300211877e+02 -1.2855370359642075e+03 7.7390428814020561e+02 -1.2100177350591312e+02 -3.1259557630818591e+01 -1.6803273242892683e+03 -3.7261604052463736e+02 4.9664848325733146e+02 -7.7181001603997288e+01 -1.3248502354577286e+03 -6.9768307159827273e+01 -2.3972701781572960e+02 -1.0341031774521980e+01 -5.1724669916963130e+03 -6.6370158359154648e+03 -2.5576216946620355e+02 -1.2129821039940575e+02 5.5461079732813059e+03 -1.0931106861161925e+03 6.4943744570093213e+02 1.7510306901699985e+03 -1.7642122388460723e+02 -1.9914914846271161e+03 -3.5196228757630834e+03 6.6270555822166205e+02 -1.6981413834844661e+03 -2.3337707809326180e+03 -2.2271639476403470e+03 -3.5944186140593240e+02 -2.9119272221645599e+02 2.1645974008542026e+02 6.6078933314234018e+02 4.4358175527898550e+02 -2.7108691851548502e+02 5.6239409470705809e+01 2.6571081576742768e+02 -3.8973448324022468e+02 2.2399904576314402e+03 1.2780224814180385e+04 -1.6478732579341791e+04 -3.6057242116801972e+03 -1.3666473433185718e+04 -7.2919269942999381e+03 1.5486600439581291e+04 5.7100274827328903e+03 2.1658362196835187e+03 -1.4395523005797918e+02 8.9827439016735218e+02 -6.0152037547593196e+01 1.5958435825494506e+01 -7.5673294441550809e+02 -4.5118376799183324e+02 4.0015655496311865e+02 -4.3939689701096779e+02 1.5253474490574786e+02 -5.4046816214347189e+02 -4.8485474565864098e+02 -6.2186366021863728e+02 -2.5158043772551076e+02 -1.0655473717256816e+03 -6.0416632518020083e+02 -4.2725808998499593e+02 1.1143943113026862e+02 8.4709266952328153e+02 -1.1694085344560233e+03 1.1049867805664062e+03 -4.3399509409379843e+03 -7.5482520333677530e+02 -5.2379202701170943e+03 2.6640522702112194e+03 -4.3972660603071563e+02 -1.4479623522550189e+03 3.2938174547574963e+03 -6.5029907601058367e+03 1.8687614451816626e+03 -1.5888373250264478e+04 -9.7555394499072281e+02 2.8917251710722066e+04 4.6479187666064012e+04 -9.7979406049100289e+03 -1.8146327093935783e+04 -2.5606506729091554e+04 1.0722955528900056e+03 -8.0792181307506610e+02 -5.5315490429626043e+03 -1.3812099807404018e+04 -4.2890995864266879e+03 -9.6426305930787494e+03 -8.2836104429769875e+03 -4.6395619060863100e+03 -4.0819586682797853e+03 4.8117345574977168e+02 -8.0223834585826489e+02 -7.6136700159830116e+02 -2.7190405157867326e+03 -1.8419935395512148e+03 -1.5118289352335703e+03 -3.5679434116412688e+02 5.8459904618788460e+02 1.5338549715913896e+03 -1.4547887846470843e+02 1.9355587549803414e+02 -2.9774490221175552e+02 6.3831258199097272e+02 2.3043966434941558e+03 -6.1287644246281388e+02 -2.4276140876633039e+02 6.8252737397500226e+01 3.2420091680768678e+02 5.5683440843115941e+03 9.2896956037292730e+03 6.8487646726873354e+03 2.4542469636885471e+00 -2.6973246388444299e+04 -3.9088527389597031e+04 1.2569026257816164e+04 1.8906323957254928e+04 3.1239459556876791e+04 1.4908670828720562e+03 1.5537405359272618e+03 9.6929395638080314e+02 -1.2582096567330882e+02 -6.2436802446575048e+03 -8.5105848324214130e+03 1.6355302646423449e+03 1.0546086526612053e+03 -7.8133628497330605e+01 3.0666211957562628e+03 1.0349167764483173e+02 -4.6125758323434238e+03 -9.4196662054500916e+02 -5.5591968080637444e+03 -5.9464883121932080e+03 9.8039371066675303e+03 6.0095797683442506e+03 -4.5919196224029383e+03 -1.8385630197268614e+02 3.1556334021233488e+02 -8.2571690463635605e+01 6.9301298931992079e+01 1.0228124827986103e+02 2.2752293418937597e+02 -1.0576745140682823e+02 -1.8853234858772930e+02 4.6418818856432338e+01 -1.3346900444923140e+03 -8.4434729814550295e+01 -3.3738304240294383e+01 -7.6476673578226746e+02 -1.0221116929837549e+03 -1.9216465234277530e+02 3.8445662884992907e+02 -7.0785450490823223e+02 9.5719777055300972e+02 -3.4346437561553802e+02 -9.2535730237080031e+02 2.3705339950434859e+02 -1.9847258606243986e+02 -2.9398612437614020e+02 1.1563277615988663e+02 5.0636483170129239e+01 -7.5797130208991803e+01 -4.7785393640454259e+01 -1.7544588853222131e+03 -1.1451215038692551e+02 2.3493941004556149e+01 -4.3768709667318035e+02 -1.7545393645878977e+02 -1.3035245114870267e+02 -1.0907012737823502e+03 -1.4923573538757918e+02 -1.0295800764099113e+02 -2.6913957767637982e+02 -5.3838587951272552e+02 2.2640904992944809e+02 -1.9771517268616763e+03 -9.3024869663118537e+01 -1.1999599748514820e+01 7.1171229915344156e+00 1.8076219837324217e+01 2.5648653840527974e+01 -8.1233831352580910e+02 -2.4368593917198140e+01 1.2234279055988319e+01 -7.4578687040592058e+01 6.4916175613816250e+01 -2.6126813062626076e+02 -2.2866812916868042e+02 1.8391975626791827e+02 9.5510776321844347e+01 -3.5159241397003029e+01 -4.5767677995391568e+02 4.7858086338325751e+02 -3.3486074083305334e+02 9.6555791541638342e+01 -3.3060482185340220e+02 1.9690824046241133e+01 4.1091016071721263e+01 -3.4943503263581545e+02 1.3676466680547524e+03 -5.0598547002084979e+02 -7.6667185703666433e+01 8.6713128804957705e+02 
      </Row>
      <Row Index="15">
        1.0870325808583303e+02 -1.5390473301053285e+01 1.0717002379382106e+02 4.8336716875982120e+01 1.7363832391005793e+01 -1.9820831110458977e+02 -4.8749191083727055e+01 -6.1086544854445754e+02 -4.5773790147620396e+01 -2.0162086605809357e+01 -1.1194294499414306e+02 -1.3958971327410697e+02 2.8497333891871847e+01 -5.3046166295764259e+00 2.4207826175321412e+02 8.9932373455489667e+01 8.9368571516439985e+00 -8.3231654024504763e+01 2.5788058196164377e+02 -1.7441400604934810e+02 2.2240850109938464e+01 -1.3427511238136644e+01 2.6346921110950126e+02 4.5045879838066341e+01 6.4624544163076550e+01 1.2344115636900234e+01 9.2198834600036506e+01 -2.8688047595688921e+01 1.8872158645548822e+01 8.8647902795365709e+01 2.8883322847254249e+01 1.4545636762015931e+02 -3.5890300776156970e+01 -3.1767831151622334e+00 -1.2032641439403238e+02 -4.7023121641560472e+01 1.1035135760317338e+01 -5.8798207615426996e+00 -2.4963066212729555e+02 -1.1175074385892270e+01 -3.7818613160919674e+00 -2.1548887060739116e+02 -2.6401950535458315e+02 -1.0418279367556038e+03 -2.1390351700112006e+01 -6.0521808559976442e+00 2.9525384264845019e+02 -7.5279543833574081e+01 1.6419724456146679e+02 1.6645289116679839e+02 -1.3926932115298530e+02 1.0533677575911187e+02 -2.2250959954423303e+02 7.6363180035142307e+01 -8.3074487165505019e+01 -1.0520313572189369e+02 -1.6803362187305942e+02 -3.4080176828134654e+00 -4.1776557747181720e+00 -4.3121921914626931e+01 6.4589318074751645e+01 7.8338937901806361e+01 -2.7908927060825452e+00 -2.5540550445325838e+00 -1.1224007217960251e+02 -1.8944699014753542e+01 1.1289789946500997e+02 9.9365052103590426e+02 3.9435554963539590e+02 -4.0418587087179361e+01 -4.4568220416787682e+02 -8.3930787460850775e+02 -4.5953737622417873e+02 6.2418330232405026e+02 -6.3062303972928112e+02 -9.8172202482497084e+01 2.3093360374981904e+02 1.0131842228152443e+02 4.0105393111047377e+01 -6.1655854442737109e+01 -2.0733983666204210e+01 -7.3152327283705631e+01 -1.3706852081850224e+02 9.3686780970181445e+01 -3.4878424761803963e+01 -2.9852897378112676e+01 -1.5487527746175349e+00 6.8605110693962757e+01 -6.7734129115779496e+01 3.4275887301700777e+01 -8.3740653626220350e+01 4.2836637734799559e+01 4.5508032591965254e+01 -3.0709205526220632e+02 3.9709175009986285e+02 -1.6424970740638224e+02 4.1386445197113790e+02 -4.3152731977805502e+02 1.6062359960444056e+02 8.8505987677650410e+01 -2.6979463843471774e+02 6.3936239864876688e+02 -7.6765892116687360e+02 6.9896300371083225e+02 1.7559389111537257e+01 7.4258894168390839e+00 8.1826371787760991e+02 2.4776443450507008e+02 -5.4037072912548552e+01 -5.9197889864128501e+02 5.0531128220934909e+02 3.7954929156034706e+02 -2.5509878389515822e+02 1.2000173251050981e+01 -2.5867190550182715e+02 -6.1501986811158804e+02 5.1604002977514324e+02 -5.8922577458726869e+02 -1.5292553717631131e+02 -1.2331809076224044e+02 -9.6048064360835887e+00 -1.3044565744112737e+02 9.2030862835969799e+01 -1.7804981360632053e+02 -7.4243118576936439e+01 2.9640248679147305e+01 4.1658749881710186e+01 5.3613704064331934e+01 2.0054596237482303e+02 -2.9356692878398114e+00 3.4763200918582022e+01 3.3015754793097067e+01 1.3097182807302461e+01 1.1190039758164110e+02 -3.0310546096934978e+01 -5.2398267816665381e+01 -3.7128367428776201e+01 2.4113966124289092e+01 5.4427150189638928e+02 1.4732182398787324e+02 5.5151212733766010e+02 4.1850941933660124e-01 -3.4911624442650691e+02 -9.3682868048191267e+02 -7.5765050744123857e+02 1.7773831569614777e+02 -1.1649064985442069e+03 2.9557374297217467e+02 8.5684600453778515e+01 -2.4760697016914492e+01 3.3062290547597513e+01 -2.0209111089113082e+02 5.0110934509714468e+01 -1.6327909251707680e+02 1.8073371922020942e+02 -3.2400756902067322e+01 2.8790705947005881e+02 -1.0110753622876726e+02 1.4933641922863887e+02 -7.1328118301050540e+02 1.8550434837293895e+02 -2.8109536152264172e+02 2.6453485136084839e+02 1.1922247217367401e+03 -1.7805695982915637e+02 -2.0688313268538593e+01 1.9420863327426559e+01 1.4954995744844382e+01 2.2090303960042476e+01 1.0041089418046415e+01 -2.6567091280330544e+01 -1.8467726554116535e+00 2.1520843230927658e+00 1.6718182618084942e+01 -8.5540703172342518e+01 -1.0906810622377202e+01 3.4582450317479925e+00 -5.3665552921361574e+01 -8.2623183698381865e+01 -1.0486486704476424e+02 -1.2210609281839572e+02 -7.7437517827808520e+01 1.3788005388061640e+02 -2.9855278534482107e+01 3.0494945560406094e+01 -6.0953175072902326e+00 -1.3741928336939478e+02 1.3081106204555823e+01 1.4548295298030977e+01 -7.6029875581749300e+00 -4.1806239578368718e+00 2.7619750233236084e+00 -1.1317519927594644e+02 -5.7754444774130018e+00 9.2642425829288599e-01 -1.3282736998262408e+01 1.6671882852443485e+00 1.1157451490155637e+01 -7.4850160883455374e+01 -4.2047515016796517e+01 3.0923798258446823e+01 1.2545657005114947e+01 -5.7542265070863543e+00 7.7319672165694957e+00 -8.5073622360345468e+01 2.2184986113449764e+01 -1.3764243368438720e+00 1.4110973110996383e+00 -1.5715173933491919e+00 1.7288930169879795e+00 -7.2447323745376352e+01 5.2911706927981562e-02 2.8553872279801498e+00 -3.8466746289980720e+00 -5.3087442837989833e+00 -5.0049549704240748e-01 -1.2378874106451315e+01 -1.3316880361489893e+00 1.5179303701415567e+01 3.8950591944198706e+01 1.1951891694800635e+02 1.0049654302946308e+02 2.9081238128177324e+02 1.0005140071397415e+02 -9.5471290034042909e+01 6.9303688495126892e-01 1.0168530781345648e+00 -2.8188787298423996e+01 1.3974740219989684e+01 -3.0721542898682571e+01 -1.9036742531426194e+00 -2.8877006732471017e+01 
      </Row>
      <Row Index="16">
