<?xml version="1.0"?>
<MethodSetup Method="MLP::MLP">
  <GeneralInfo>
    <Info name="TMVA Release" value="4.2.1 [262657]"/>
    <Info name="ROOT Release" value="6.14/00 [396800]"/>
    <Info name="Creator" value="riggi"/>
    <Info name="Date" value="Wed Oct  9 10:37:09 2019"/>
    <Info name="Host" value="Linux riggi-tpt460 4.4.0-116-generic #140-Ubuntu SMP Mon Feb 12 21:23:04 UTC 2018 x86_64 x86_64 x86_64 GNU/Linux"/>
    <Info name="Dir" value="/home/riggi/Analysis/ASKAPProjects/ScorpioSurvey/ScorpioASKAPCatalog/CompactSources/SourceClassification/MVASourceClassifier/train"/>
    <Info name="Training events" value="7313"/>
    <Info name="TrainingTime" value="3.92726396e+02"/>
    <Info name="AnalysisType" value="Classification"/>
  </GeneralInfo>
  <Options>
    <Option name="NCycles" modified="Yes">1000</Option>
    <Option name="HiddenLayers" modified="Yes">N+9,N+6,N+3</Option>
    <Option name="NeuronType" modified="Yes">tanh</Option>
    <Option name="RandomSeed" modified="No">1</Option>
    <Option name="EstimatorType" modified="Yes">CE</Option>
    <Option name="NeuronInputType" modified="No">sum</Option>
    <Option name="V" modified="Yes">False</Option>
    <Option name="VerbosityLevel" modified="No">Default</Option>
    <Option name="VarTransform" modified="Yes">None</Option>
    <Option name="H" modified="Yes">True</Option>
    <Option name="CreateMVAPdfs" modified="No">False</Option>
    <Option name="IgnoreNegWeightsInTraining" modified="No">False</Option>
    <Option name="TrainingMethod" modified="Yes">BFGS</Option>
    <Option name="LearningRate" modified="No">2.000000e-02</Option>
    <Option name="DecayRate" modified="No">1.000000e-02</Option>
    <Option name="TestRate" modified="No">10</Option>
    <Option name="EpochMonitoring" modified="No">False</Option>
    <Option name="Sampling" modified="No">1.000000e+00</Option>
    <Option name="SamplingEpoch" modified="No">1.000000e+00</Option>
    <Option name="SamplingImportance" modified="No">1.000000e+00</Option>
    <Option name="SamplingTraining" modified="No">True</Option>
    <Option name="SamplingTesting" modified="No">False</Option>
    <Option name="ResetStep" modified="No">50</Option>
    <Option name="Tau" modified="No">3.000000e+00</Option>
    <Option name="BPMode" modified="No">sequential</Option>
    <Option name="BatchSize" modified="No">-1</Option>
    <Option name="ConvergenceImprove" modified="No">1.000000e-30</Option>
    <Option name="ConvergenceTests" modified="No">-1</Option>
    <Option name="UseRegulator" modified="Yes">True</Option>
    <Option name="UpdateLimit" modified="No">10000</Option>
    <Option name="CalculateErrors" modified="Yes">True</Option>
    <Option name="WeightRange" modified="No">1.000000e+00</Option>
  </Options>
  <Variables NVar="3">
    <Variable VarIndex="0" Expression="peakSNR" Label="peakSNR" Title="peakSNR" Unit="" Internal="peakSNR" Type="F" Min="3.40282347e+38" Max="-3.40282347e+38"/>
    <Variable VarIndex="1" Expression="eccentricityRatio" Label="eccentricityRatio" Title="eccentricityRatio" Unit="" Internal="eccentricityRatio" Type="F" Min="3.40282347e+38" Max="-3.40282347e+38"/>
    <Variable VarIndex="2" Expression="areaRatio" Label="areaRatio" Title="areaRatio" Unit="" Internal="areaRatio" Type="F" Min="3.40282347e+38" Max="-3.40282347e+38"/>
  </Variables>
  <Spectators NSpec="1">
    <Spectator SpecIndex="0" Expression="classOutput" Label="classOutput" Title="I" Unit="" Internal="classOutput" Type="F" Min="3.40282347e+38" Max="-3.40282347e+38"/>
  </Spectators>
  <Classes NClass="2">
    <Class Name="Signal" Index="0"/>
    <Class Name="Background" Index="1"/>
  </Classes>
  <Transformations NTransformations="0"/>
  <MVAPdfs/>
  <Weights>
    <Layout NLayers="5">
      <Layer Index="0" NNeurons="4">
        <Neuron NSynapses="12">
          3.8779518189187359e+00 6.3444844633389419e-01 8.9669740272592546e-01 7.5002316707180832e+00 -1.7947005022765132e+00 -1.7713958301102157e+00 -9.6692056208274235e-01 1.4679455893572424e+00 -7.1065482919852885e-01 -2.9352332948772624e+00 -1.9887194890546502e+00 -3.8567461324884766e-01 
        </Neuron>
        <Neuron NSynapses="12">
          -5.2149008443589842e-02 -1.3103701159657000e-01 5.0060811352852001e-02 2.4225789749518539e-01 4.1678215005439008e-02 -1.2096028721244025e-01 -9.2673952375099830e-02 8.1852142258833105e-01 -4.3783001720633974e-01 1.6957750929914625e-01 -2.7296883851466166e-02 4.3609191298349753e-02 
        </Neuron>
        <Neuron NSynapses="12">
          -1.4588313424633288e+00 -7.3677258529885437e-01 1.2903105110666329e+00 -4.9049252756105792e+00 -1.6161607669818214e+00 -1.1376412496401432e-01 2.9565693774661661e-01 5.5186285182375194e-01 -7.8344898428543086e-01 -5.8218958683727315e+00 -1.3143274023585433e-01 -1.2181958536133024e+00 
        </Neuron>
        <Neuron NSynapses="12">
          2.2793566358046506e+00 2.4701607171138611e+00 -1.2062338350692297e+00 2.3475925212867716e+00 1.0596747377349733e+00 9.9132577412217571e-01 1.8882112412870102e+00 8.2188747717485577e-01 -1.5166675074993630e+00 -8.9605799106472936e+00 1.2741411765095547e+00 7.6928275440763660e-01 
        </Neuron>
      </Layer>
      <Layer Index="1" NNeurons="13">
        <Neuron NSynapses="9">
          1.3518925670527335e+00 1.2659903397440184e+00 1.4024892776061091e+00 2.8985670548103410e+00 -1.1589875308356121e+00 1.3355100232844956e+00 -4.8205312581670876e+00 -6.5076764908686502e-01 -3.0615016471326584e-01 
        </Neuron>
        <Neuron NSynapses="9">
          -1.6185252159208263e+00 1.4541241247597603e+00 6.6525218659394791e-01 -6.8023335806703034e-01 4.8165948344349768e-01 6.3456421320391942e-01 6.5071653583550704e-01 1.2550245648409126e+00 -3.7615611022401035e-01 
        </Neuron>
        <Neuron NSynapses="9">
          1.5688163513324868e-01 -1.2549732262114799e+00 6.3712255293351661e-01 -1.1937593201141774e+00 -1.0543228540629725e+00 -1.6035728475340609e+00 4.2027761250790224e-01 1.5074405783050333e+00 1.4770423459661530e+00 
        </Neuron>
        <Neuron NSynapses="9">
          -2.7280759094778728e-01 -1.6415504337035054e+00 -1.6886559794133484e+00 3.7357407601266726e+00 3.1380447916987841e-01 7.2881143020744865e+00 -4.0521939776086668e+00 7.9415856846792232e-01 -1.6404645135160691e+00 
        </Neuron>
        <Neuron NSynapses="9">
          -8.3944036882997686e-01 -4.8101595582286140e-02 1.1220192955086068e+00 -5.7499339469082378e-01 -1.0284144344724826e+00 -1.2776233013729592e+00 5.7153673802335998e-02 -5.8464679122032759e-01 1.2438312894888890e+00 
        </Neuron>
        <Neuron NSynapses="9">
          -1.5069016471980361e+00 -6.0417032693773909e-01 1.5268065106449313e+00 -3.3051783158000675e-01 -9.7476042958901821e-01 -8.4982620638605866e-01 3.8291591985822238e-01 -2.2086208222896477e+00 -1.7621825294363174e+00 
        </Neuron>
        <Neuron NSynapses="9">
          6.1398772756938669e-01 1.6674903549857538e+00 -9.9655526731646893e-01 1.9568961850775073e+00 -3.7920911814415775e-01 -5.2644076581210331e-01 2.0914825428424194e-01 -1.4125350166745268e-01 -1.7740315343766382e+00 
        </Neuron>
        <Neuron NSynapses="9">
          2.8976938996014884e-01 1.3494597020342539e-01 3.9587203927511749e-01 -2.1269940378321763e+00 3.0853191187654256e+00 -8.7982744891844999e-01 -3.5564711490752732e-01 8.5693086942237939e-01 -8.6758422160526605e-01 
        </Neuron>
        <Neuron NSynapses="9">
          -1.5065811678461705e+00 2.4378582690625186e-01 -2.7650030759058980e-01 1.6752947094283426e+00 1.0590835828198744e+00 1.2291755154337063e+00 1.0247743298529437e+00 -1.9679672765536024e-01 -2.6094907975743014e+00 
        </Neuron>
        <Neuron NSynapses="9">
          9.4616623714834958e-01 1.2521001859901557e-03 -1.6657924382239466e+00 1.5287477224003732e+00 -6.8714552424182854e-02 -3.3050483229993657e+00 8.5955337635785565e+00 1.6826844018039713e+00 -4.6433303728167106e+00 
        </Neuron>
        <Neuron NSynapses="9">
          2.6844989637393768e-01 1.5506582256336350e+00 1.5261445829223832e+00 4.1644970561006589e-01 -8.8859797444386313e-01 -4.9582768344059797e-01 -5.5316557305397751e-01 9.7475630545832159e-01 1.0432934134510745e+00 
        </Neuron>
        <Neuron NSynapses="9">
          -4.6698773551441564e-01 -2.5672353220069899e-01 1.9787205183550274e-01 -1.2068289731242345e+00 9.5846334583242643e-01 1.4172901457173872e+00 2.8860340158724122e-02 -9.3234483192598927e-01 -1.3206237920012739e-01 
        </Neuron>
        <Neuron NSynapses="9">
          8.8191493097311391e-01 6.5271474973560561e-01 8.9175471362533643e-01 -9.2401107566974172e-01 1.8370301004739480e+00 9.7697071039572025e-01 7.0162511406293415e-01 6.5607690904687835e-02 6.6489395710615773e-01 
        </Neuron>
      </Layer>
      <Layer Index="2" NNeurons="10">
        <Neuron NSynapses="6">
          -8.5407856462858356e-01 4.8788950384392143e-01 3.9966726406798447e-01 -4.4910368495791814e-01 7.8296907652994269e-02 1.2348638687877354e+00 
        </Neuron>
        <Neuron NSynapses="6">
          1.1389408489057007e+00 -1.2704191209779143e+00 1.8851375671059538e+00 1.2342692229699037e+00 -2.3560851519776618e+00 7.5108048045933817e-01 
        </Neuron>
        <Neuron NSynapses="6">
          3.0224367070946956e-01 -5.9018071408447670e-01 -9.7219270308982186e-01 -1.7558779851515918e+00 4.2348739833866539e-01 1.7631564870583585e+00 
        </Neuron>
        <Neuron NSynapses="6">
          -2.1319250284343796e+00 -3.9281372420647775e-02 -1.9561210345056839e+00 -5.2072864444219946e-01 -3.0706698339405261e+00 -1.8715259681728000e-01 
        </Neuron>
        <Neuron NSynapses="6">
          1.1113623821560505e+00 -1.5866703534298929e-01 -9.1082969534531155e-02 1.9839030862606157e+00 2.4359537466511698e+00 6.6714191992604727e-02 
        </Neuron>
        <Neuron NSynapses="6">
          -1.7236880626756406e+00 -1.8722222844126928e+00 9.9849739583224295e-02 -8.0228423270792859e-01 -1.0265157416301641e+01 -4.4402941946564817e-01 
        </Neuron>
        <Neuron NSynapses="6">
          -2.3565010129509747e+00 2.2663038993412341e-01 -2.9132436358229952e+00 2.0344389275908528e+00 1.3013945490467611e+01 -5.3952932308072765e-01 
        </Neuron>
        <Neuron NSynapses="6">
          -1.0436741235752524e-01 2.4583622389167781e+00 3.2185447426845298e-01 1.0400340813514943e+00 7.6668051061616838e-01 -1.8265997456827465e+00 
        </Neuron>
        <Neuron NSynapses="6">
          -2.6297048860308161e+00 9.6087886721147397e-01 4.3118883607069982e+00 9.6913359187226808e-02 1.7793017115785703e+00 1.6175884264368228e+00 
        </Neuron>
        <Neuron NSynapses="6">
          -1.1637700183088548e+00 -2.1854096503494307e+00 4.3551358291234826e-01 -1.6696469555267084e+00 2.8518923191943735e-01 1.7025586698754358e+00 
        </Neuron>
      </Layer>
      <Layer Index="3" NNeurons="7">
        <Neuron NSynapses="1">
          -3.0568054664817792e+00 
        </Neuron>
        <Neuron NSynapses="1">
          2.0904980585329795e+00 
        </Neuron>
        <Neuron NSynapses="1">
          4.5482466309428498e+00 
        </Neuron>
        <Neuron NSynapses="1">
          -3.4524118694924288e-01 
        </Neuron>
        <Neuron NSynapses="1">
          -4.4628375104686047e+00 
        </Neuron>
        <Neuron NSynapses="1">
          -1.4580199506007985e+00 
        </Neuron>
        <Neuron NSynapses="1">
          -2.1707178542190677e+00 
        </Neuron>
      </Layer>
      <Layer Index="4" NNeurons="1">
        <Neuron NSynapses="0"/>
      </Layer>
    </Layout>
    <InverseHessian NElements="53824" NRows="232" NCols="232">
      <Row Index="0">
        6.1858003432822170e+03 -8.3566344562885715e+03 -6.5442452825185364e+03 -6.6818932952553860e+02 -2.2461124316274399e+03 -5.7188093566250936e+03 1.0187486660066797e+03 -1.9624446321162486e+03 4.7376854984888723e+03 9.9148516240851416e+02 2.3231669035790010e+03 1.8775017263783193e+03 -6.9222123631588701e+01 -1.7453263703016884e+04 1.3973846141829752e+04 1.0360708446890321e-01 1.2678239930936556e+03 -7.9516026057554336e+03 5.6891922925574340e+02 8.0468401134656602e+01 -1.4597868877781849e+02 2.1812021420121244e+01 -4.9275485326735579e+03 1.5178766946765709e+03 -1.5801687378264708e+03 -3.1582310628243690e+03 -1.8864501052618401e+04 -5.9419810828740890e+02 9.3476293608028641e+02 1.9182480767478496e+03 3.3107875280606613e+03 4.1383483699974181e+02 -7.3664394038413343e+02 -9.3840522850186517e+01 -1.1821689608811719e+03 8.1504204974637469e+02 5.4333940993607166e+03 1.5244649399934953e+04 8.1695959541985649e+03 -1.1790748036412210e+03 2.2619544018787037e+03 5.2164635867323741e+03 -2.2677200234217325e+03 -1.4832224577697139e+03 3.7093837221411904e+03 9.5955975143439741e+02 -2.3840395699232881e+03 -4.3421116523316523e+03 3.1348962362122711e+03 -1.6073455810546875e+00 -2.2810879071280397e+01 -6.8378557556484484e+03 1.1220919343936166e+03 -2.6577748751280328e+03 7.5361670939101068e+03 -2.6329003087746258e+02 2.8177838335633810e+03 1.0974946286128945e+03 -2.4841718172144311e+00 1.4317593854636652e+02 -1.6343888334785725e+03 4.7469064173853013e+02 2.2546255059623495e+03 -1.4054028165794505e+04 -1.2869256680493709e+02 -4.5966080629835244e+02 -1.0916017950907062e+03 2.3643597083318042e+00 -1.4396798947324169e+02 8.1787375554402502e+02 -1.2274528621730331e+03 1.4144541021962470e+03 -6.5589388011179653e+03 1.3448031377171355e+02 -6.7849268973460937e+01 5.7034926707436389e+03 -2.6805114746093750e+00 -2.0404739028025642e+02 -5.0076318139766954e+02 7.3461623410390803e+02 -3.1296003605488841e+02 -4.7523858863342252e+02 -1.2068788963389306e+03 3.9120769219879639e+02 1.0410356010488904e+03 -1.9767477621662195e+00 1.4583030629917266e+02 -1.7112888277263514e+03 1.6753911434810839e+03 -3.5015886341935102e+03 8.3528981882705848e+03 -1.2689037845138955e+02 6.3467061887425984e+01 9.1495891828052481e+02 -9.4482670428750026e-02 1.5292196424589201e+02 -1.0370598966345017e+03 3.8008952573991564e+01 -2.1981705123459119e+03 -4.0143770035528728e+03 -1.2346054279072268e+02 -4.7383536099218088e+02 9.8455565902416311e+02 -1.8485294502459340e+00 1.4558022790249197e+02 -1.1583679609639862e+03 1.4151422232259843e+03 -3.0336911623057777e+03 3.4941560472085193e+03 -1.1535321395448409e+02 -6.7508718368334087e+01 2.5707536315665129e+02 -4.8858451098203659e-01 -3.1569580597334664e+02 -1.4208358078293327e+02 -1.4573236898360533e+03 3.1274155218689248e+02 -5.8458615369309030e+01 -1.1033501288346258e+02 7.8520098390017199e+02 5.1439420847060524e+02 2.8671875000000000e+00 1.4418066334425112e+02 -6.2959877410230365e+02 -1.3759642211764526e+03 -8.4193961808079086e+02 -3.3112770477572576e+02 1.8257461779915195e+02 1.3782978013038885e+03 3.3898559523400581e+02 2.5852050781250000e+00 -2.0854537500010338e+02 3.8614122858446524e+02 -3.9534627070379327e+02 -7.4600279382405245e+02 1.9923811693953576e+02 -1.2986967249475711e+03 -1.4971558391206258e+02 9.3017197010573000e+02 5.7031250000000000e-01 1.5282689519956693e+02 -1.6260801705915401e+03 4.9857670864476421e+02 -2.9293705617767282e+03 1.6052999269287818e+02 -1.2475834332469822e+02 -2.4148731809164715e+02 1.2901699318236206e+03 -1.6034545898437500e+00 1.4035503346892074e+02 7.3226128113099649e+03 -6.4452773081283103e+03 1.3889532750554206e+04 1.1107140339833968e+03 -1.6070301732647204e+02 2.0971148860223002e+03 1.0446201115160948e+03 5.7899041741620749e-01 1.4385928292895551e+02 -1.9435322714345757e+03 1.0323120712770501e+03 -4.1209249867333183e+03 2.6971775963743694e+03 -1.1934273864328861e+02 4.2008670983563206e+01 -7.9779147870035740e+02 2.0738449874776416e+02 9.4958986885569175e+01 1.4750330725731328e+02 -9.6347015470333099e+02 -1.7440467184782028e+02 -6.0584398722105107e+01 -2.0321780865895562e+02 -5.9875223402414122e+00 -1.5203827509845723e+02 -1.3381611987324999e+02 1.9893777623435017e+02 -2.8380796290482976e+02 -2.0321780866256449e+02 -3.0440105715550089e+01 -1.5124371757934568e+02 -1.9000918857210490e+02 1.9736884755710344e+02 -4.2938355929669319e+02 1.7866981443762779e+02 3.9633437353189044e+02 1.2085172102025153e+03 5.3094934624412772e+01 -3.0025710385361590e+03 1.8887871539811795e+02 7.9397557406408635e+02 -3.9374852377584182e+02 5.3163558730080895e+03 3.4065896926054336e+02 3.1072823978416636e+01 8.6900065116147225e+00 -1.8089127147943782e+03 -1.0858325741828423e+02 9.4854691312015893e+02 -2.8580832660863909e+01 -6.9819764920754096e+01 -9.2085175795058163e+01 1.2506026632098481e+03 -1.6382844531457823e+02 -3.6346555162498357e+03 1.2150501094994434e+02 4.7055824381872816e+02 2.7613444030084247e+02 2.0284010915437830e+02 4.0578696940459849e+01 1.5673059727391228e+02 7.0988323446561026e+01 -1.9585519838333130e+02 -3.9000515366484439e+02 -1.7288233423978090e+02 3.2165918285749819e+02 -8.0196855887918900e+01 2.6911337628219326e+02 -1.0019615935809210e+03 -6.0978416703312178e+01 -2.0321780875325203e+02 -5.8975052745777248e+00 -1.5204035738858511e+02 -1.3381611987320775e+02 1.9893777587078512e+02 -2.3355289184075056e+00 8.4879745046128079e+00 1.2182861766349603e+01 -3.9148181706332252e+01 -5.5957576830845870e+00 1.2551098839709084e+01 -5.6586446448487337e+01 
      </Row>
      <Row Index="1">
        -8.3567421408616901e+03 8.7756816551512643e+05 -2.3274627577692350e+04 -4.6636989296737011e+02 1.3693994783852206e+04 2.4069641444559384e+03 1.0929718258342356e+04 -2.4163017338367281e+03 3.4003895528564899e+03 7.8469725809639544e+02 -2.7585743722239567e+02 -3.0809704354407440e+04 -2.2012040368362722e+02 1.5063768164279620e+05 5.8810263221912552e+04 -5.0461263414626387e+01 -2.6102288760423544e+03 -5.9292633591369959e+03 3.0290395581097921e+04 2.0942733786460957e+02 -4.0620374870120560e+02 7.5796095694851573e+01 1.9203180599277373e+04 9.7336249320534771e+03 5.1094903363170524e+03 4.3863738343172241e+04 1.9810760413780436e+03 -1.7840061602812855e+03 -1.7119559803611446e+04 5.3990825784235494e+03 5.2365293234658830e+03 6.1286965555995312e+02 -1.4321430793161126e+03 -2.2240318627714273e+03 -1.3590882883079466e+03 2.4615512374353413e+04 -1.9741068534570677e+03 1.0502396794715978e+05 2.3991357873013476e+04 -1.9514798759371770e+03 -1.4863987933810044e+04 -5.7471289088936173e+03 -4.4840560232391654e+03 -1.7368507645237005e+03 1.5488292477538826e+03 -1.1617197329955825e+03 1.8076082447809167e+03 3.0444935006208882e+04 2.0926534057516837e+03 -1.2954589843750000e+01 -3.2615181261068210e+02 9.9528214124078731e+03 -1.0899002553840619e+04 -6.9116150920601394e+03 -1.0795859061814102e+04 6.9874807982600760e+02 3.5983287540465431e+03 -5.3161972630539767e+03 -1.3645088382604172e+01 1.3341137758337427e+03 -1.1240752296144274e+02 -6.3189410589387990e+02 -6.6095518971924294e+03 -3.0376191814218393e+04 1.6265959551555570e+03 -3.0359281814583128e+03 5.3250105685768649e+03 1.2595660304069497e+01 -1.3591920725373784e+03 2.3441465814618587e+03 8.0397381580321544e+03 -1.9327412025937119e+03 2.5110511119009509e+04 -1.6458609011885710e+03 1.2903612035366896e+03 3.9738270856440067e+03 -1.2759765625000000e+01 3.3967993154775468e+02 7.9618282213629573e+02 1.6849312912785681e+03 -1.6651570920319737e+03 -4.4180952317779884e+03 6.5916680617108941e+03 1.2921835520374589e+03 -5.5260699506876990e+03 -9.2743437242215805e+00 1.3757776502592023e+03 -2.3871218511538777e+03 -1.1802081063438891e+01 2.0950964115599400e+03 1.7905279877916932e+04 1.6570389584866352e+03 -7.4665380101657502e+02 -6.2672364364559762e+03 6.6678063339768414e+00 1.4256843660582672e+03 -6.5763864298639965e+03 8.7213131570104724e+03 5.5639455287272067e+03 4.3355404335204366e+04 1.6041222760714172e+03 -2.7311078277169581e+03 -5.5556926107036415e+03 -8.3109133108482638e+00 1.3567044173594913e+03 -2.4255967752170545e+03 9.5037027213811234e+03 4.1649299930668458e+03 4.0177116145471598e+04 1.6152354213669896e+03 -2.9762900760120101e+03 8.2215367743549868e+03 -8.8828287124633789e+00 -3.4220658357109642e+01 7.7784468646785172e+02 -2.0730716529491765e+03 6.2763945945087471e+02 -1.6165034497640099e+03 3.6310009280795275e+03 2.6410553693251022e+03 -1.4858488027784645e+03 1.5687500000000000e+01 -1.0033662381543254e+03 -1.4128281897929770e+02 -5.5564755242201011e+02 -5.1310291815696546e+03 -1.5159724161755792e+03 -3.2549205480894307e+03 4.3401241514690882e+03 -7.3069065118534490e+02 1.3632812500000000e+01 3.0266831165552139e+02 -7.0065040406953767e+02 -1.4412785993240759e+03 7.4428254474044297e+02 -2.5947291133031640e+03 6.4519584994427860e+03 2.4953010513276968e+03 -6.2689765266925097e+03 7.3125000000000000e+00 1.4343146263000090e+03 -3.7627081272331052e+03 8.8333050102787456e+03 1.8243496446577522e+03 4.0462579491045435e+04 1.6265092808816116e+03 -1.2308192322773612e+03 -5.3044991765022278e+03 -1.1214355468750000e+01 1.3433178194761276e+03 7.6238342384395073e+03 -2.0510760544829653e+04 -4.1904195369990412e+03 -1.1440629597959667e+05 1.5847289462133776e+03 9.3554864398147474e+03 -5.3841386127863079e+03 -2.7718727931380272e+01 1.3586619813442230e+03 -2.2962691881727660e+03 8.6912640767201301e+03 2.0635034556037053e+03 3.9565759080677839e+04 1.6783729621544480e+03 -9.4551882525732799e+02 4.1503877741276301e+02 2.9755799802541733e+03 -1.8650266780067468e+03 -1.2012843966633081e+03 5.6460568058177014e+03 -4.3391273137181997e+02 3.4348378770533600e+02 -2.9836225965199992e+03 -4.7525530046836820e+02 1.7969081250615418e+03 1.8862601052368991e+03 4.9327054195851088e+02 -3.8751687477657106e+02 -2.9836225965097547e+03 -3.2501708391436841e+02 1.7940483612003736e+03 1.1392036949143694e+03 4.9254154728353024e+02 8.3383518527009073e+01 3.1586895622014999e+03 3.1946583612024676e+02 -4.2300296902062837e+02 1.5419595548075995e+02 -3.4132706572005409e+03 -3.0333745803672718e+02 -1.2364570375656840e+03 2.0264862310470198e+02 -3.9193054124901537e+03 2.0924728035725093e+02 4.5215660683263559e+03 -9.0078037496906177e+01 1.1010163341997308e+04 -4.2268422184398457e+02 -1.1607913560909219e+03 -2.7711712931379816e+02 1.6087382461898960e+02 1.0575523452200748e+02 2.2830242939537529e+03 -6.2571218242726411e+02 1.2173970270482474e+04 -1.0336275220883800e+02 -1.0327327552115385e+03 7.4897927962651011e+01 2.9844103224910796e+03 -1.4862946133450532e+02 -1.6959330541193485e+03 -5.5814706683934492e+02 -4.7514331054687500e+02 -9.6908939327969165e+01 -3.1619208173751831e+03 -2.6892416136463021e+02 -4.3427847936078906e+03 -7.3392889671312878e+02 -1.8837744936002036e+03 3.3766392355391872e+02 -2.9836225968189538e+03 -4.7531198091943952e+02 1.7968891942352057e+03 1.8862601052370137e+03 4.9327056572958827e+02 -6.8871339591332603e+00 -2.4812589538063406e+02 -5.8227605477841280e+00 -5.0431865201005712e+02 -4.0411320484814013e+00 -2.9020269130804809e+02 -4.6086284961767865e+02 
      </Row>
      <Row Index="2">
        -6.5443632718102826e+03 -2.3274459165352047e+04 8.9352593425983493e+05 -4.3105420820631298e+03 -2.9749883319755114e+04 -2.0177710855594196e+04 5.3792756340613778e+03 -9.3972878569350723e+02 -1.3834604002763488e+04 1.7185146761402693e+03 4.2751336539097829e+03 6.0877808335396781e+04 -4.9836130363326788e+01 1.9048416627628663e+04 4.0362041024440201e+04 -6.7308177818204967e+01 -2.0643517032361706e+03 -1.0476513797030260e+04 -5.0588635448144978e+03 -3.7041235927776177e+02 5.2421781270459337e+02 -2.9711611040246396e+01 -4.8737586747108144e+03 -5.3910653030631947e+03 3.5917976941480265e+02 3.3626839228824596e+04 8.6713748153019988e+04 2.5355187263489338e+03 2.2949829240578169e+04 -3.0928856513979845e+03 -2.3560308700732137e+04 -7.5557145728685464e+02 9.2568973874619405e+02 1.0133957245971660e+03 -3.1797153756557964e+02 -1.3363556298096443e+05 -7.1175683587494768e+03 2.1177358586455928e+04 1.0390020081173992e+05 -1.9675301496585098e+03 1.9379857581319666e+04 8.5033654353925958e+03 2.0558938943065710e+04 -1.4480503567729957e+03 -1.2407830697690079e+04 2.6860933627624959e+03 1.1810664546508924e+03 -6.6237233633656098e+04 4.7426443674683105e+03 -9.9246093750000000e+01 -5.4855876226231157e+02 7.0216602305935521e+03 -3.2973237464600570e+03 2.4385169268197205e+02 -3.7695634254225033e+03 4.7085527261486277e+02 -5.5900101679543513e+03 2.8260798128986498e+03 -1.0039187748762129e+02 8.5425561457884032e+02 9.7929662139403808e+02 -5.3259811435648226e+03 6.4947569560323291e+03 -7.8835182992056343e+03 -1.3051619399199262e+03 7.8981097625656275e+01 -2.6224836985690054e+03 9.2212087692380464e+01 -8.9808443343872204e+02 -2.6381771140485953e+03 -6.9793665179293457e+03 1.0226757331027929e+03 2.9972597622916306e+04 1.4591309919832274e+03 2.8309926356567303e+01 2.6438951652657852e+03 -9.9449218750000000e+01 -6.0885913830576465e+02 4.0524382581746322e+03 3.4158399783870846e+03 8.0483584355993116e+03 -4.1673906885115284e+03 1.4450225593075156e+03 -1.5212565695793601e+03 1.2314102332210168e+03 -6.6393434109919326e+01 1.0025780509263277e+03 -1.4685705463549457e+03 -6.8194644049272783e+03 -4.6159073928253183e+03 2.9352390989580863e+03 -1.3561416835542768e+03 -4.9086871219522436e+02 -4.4557985530709848e+03 5.7329343706458531e+01 1.4843476517144591e+03 -1.0514880698957444e+04 -1.6461125962949398e+04 -2.0566792704105028e+03 2.9599645808498051e+04 -1.5143984413603321e+03 1.4212570916814293e+03 7.2802813432877883e+02 -5.9004891481595223e+01 1.0170110924364999e+03 -1.5409895528365960e+03 -1.6394084669219439e+04 -1.5080302497786397e+03 2.7208817703863224e+04 -1.2232567337751389e+03 1.2106377725479106e+03 4.0618414093591273e+03 -9.3269922494888306e+01 -1.4282385351377307e+03 -4.0438319718090497e+01 1.7395956122110583e+03 -1.2117963983874652e+03 2.3964707506504237e+02 1.3362284639937279e+03 -1.5271779958941740e+03 -2.4259770726263782e+03 9.0562500000000000e+01 3.5338826455674280e+02 2.9971330075379838e+03 4.8037749299921161e+03 3.7841035776819845e+03 1.4626811139449787e+03 3.6374809843604453e+02 -5.0012187986287545e+03 -6.7193593312830781e+03 9.5953125000000000e+01 3.2160444888472557e+02 -1.0027162665032301e+02 -1.4319683625586576e+03 -1.4902599940369837e+03 3.2647189984132456e+03 1.4187156934067607e+03 -1.2060860062494176e+03 -4.3703264701962471e+03 5.2625000000000000e+01 1.4800990891016554e+03 -1.1422464474568267e+04 -1.6660980079990644e+04 -3.9562917503369813e+03 3.1383119967983217e+04 -1.5153770519651007e+03 5.6555547672962348e+02 3.0103928200453520e+03 -9.1500000000000000e+01 8.8294061756134033e+02 1.9574848806012713e+04 6.8472964999603486e+04 8.7423807552120870e+03 -8.9635982040917821e+04 -1.9531815772363043e+03 4.1161773342110682e+03 2.5486363125368953e+03 -1.1114238670468330e+02 8.6809836392104626e+02 8.5516956902787570e+02 -1.6644974359519165e+04 -5.1441616725239264e+03 3.0422772188926978e+04 -1.1491963852047920e+03 -7.0579357450531097e+02 -1.2686209212243906e+04 5.4968093523383141e+02 -2.0393287195400335e+03 1.7935770885944366e+03 8.5909544624651899e+03 5.6351000900752842e+02 -3.8234404012745463e+03 -5.5116690009366721e+02 -1.0430625196668334e+03 -5.6399559228308499e+02 2.1749047756365035e+03 -5.3380068642646074e+02 -3.8003947431422421e+03 -5.5116690009692684e+02 -8.0617935824417509e+02 -5.6073868678510189e+02 1.6923626872679797e+03 -5.3737687081098557e+02 1.6689070049245083e+02 5.6154053366184235e+02 -4.4063495127374870e+02 3.1964838912980631e+03 2.9692499252912967e+02 -5.8208850915295770e+03 1.5448026954646048e+02 1.5680454956476606e+03 -1.8367967082365503e+03 -1.8949985446256323e+04 3.1063379806958619e+02 -4.8899406550358981e+02 4.2241682655560098e+00 -4.9406434665573761e+02 -6.9904343259428549e+02 -4.0630282002334570e+03 -2.4893088679314496e+02 9.7454271771293133e+02 2.7673077588930028e+01 -3.4035883107061927e+03 -9.4547032766859274e+01 -3.7305851304169337e+03 6.7066982633174393e+02 4.1883978882999509e+03 9.6849044753261842e+02 5.4900815851241350e+02 2.9910099347466166e+02 9.0547909936308861e+02 -3.4453508433787210e+03 5.3736841011047363e+02 3.5939291375514586e+01 -5.3715903854370117e+02 -8.3857644042493325e+02 -3.6385084631759673e+02 3.0542447537461703e+02 -4.1020620348280954e+02 -3.8678544663882640e+03 -5.5116689985990524e+02 -1.0432479866525682e+03 -5.6414324329793453e+02 2.1749047756366899e+03 -5.3380068293213844e+02 -3.5871636052218538e+00 2.3094247416812314e+03 -7.0639881386941852e+00 -7.3713091882902081e+03 6.1562001093187746e-01 -2.6174048285822246e+03 -2.4356686326687523e+03 
      </Row>
      <Row Index="3">
        -6.6831930215695820e+02 -4.6675140626419619e+02 -4.3107778411997051e+03 4.5720166759249014e+03 -1.6443426689879998e+03 -2.7479800729149417e+02 3.6770552798299891e+03 1.1881758111618055e+03 -2.8230637568147431e+03 -4.1314090331804882e+03 -2.3252522297767814e+02 -3.0848598805440470e+03 -1.2207463414884199e+01 -7.7572024328420011e+03 9.0692798504362381e+03 2.0557139018417232e+01 3.2503174839502799e+03 7.5960919567256906e+03 7.1694248337238412e+02 -6.1664309785551694e+01 1.2404079657657681e+01 -1.4573268144830326e+01 3.0195774131601856e+03 -8.7977507679159157e+02 1.7547334581790892e+01 -2.5312045396393250e+03 -2.1449938497515650e+03 -3.6473615776709840e+02 8.5919949897713138e+02 1.9337580482124204e+03 2.0107264747714294e+03 3.5877346169183619e+02 -1.3008988153727837e+03 -8.9913396926421319e+02 -7.8743894638571135e+02 6.0689912445913251e+02 -3.9430824827176684e+02 1.7035670052778872e+02 6.7313375421803339e+03 4.2635469199338595e+03 1.3459149804882964e+03 1.3777936299160947e+03 -3.6252777917632156e+03 1.4340172292316211e+03 -4.0128429064149927e+03 -4.9602052546878276e+03 7.4672758008514074e+02 3.4830856323156368e+03 -8.2961601513631058e+02 -3.5786132812500000e+00 -1.2445271920620719e+02 -1.6486643740521031e+03 2.4289409838681599e+03 2.1813021425844750e+02 1.0355264868187089e+03 -1.2676896489133446e+02 9.7387713397027926e+02 -1.9915120470663624e+01 -4.0612953940675096e+00 2.4653549015579222e+02 -4.4084252496342106e+02 -7.0108341645965629e+02 -3.3103148647829025e+03 3.0481934733420858e+03 7.7731658464829798e+02 -3.0621300815813942e+02 2.5413778117341280e+01 3.6377923112257369e+00 -2.5386651866018065e+02 6.5541340915597402e+01 -8.0248890654227898e+02 -5.4794072639490821e+02 4.2634575345074694e+02 -7.9184361339388943e+02 -5.3842101204912026e+01 1.0800256643200328e+03 -4.4170074462890625e+00 8.4561088907124486e+01 -1.1684265546809729e+02 -1.6324944850898976e+03 -4.7717557966853474e+03 4.7047734465688709e+03 1.4334668413016916e+03 -1.9934014472028866e+03 -1.0871084704440545e+02 -2.3119877086543088e+00 2.5992502164884030e+02 -6.2524083698265849e+02 2.1914972118872834e+02 -9.6057221652225451e+00 -1.4056106981339195e+02 7.9664045442566430e+02 3.9794806638732678e+02 -3.8250504993917275e+02 4.0096531055739053e+00 2.8174567715910416e+02 -4.2754157096635493e+02 4.1886594295336448e+02 1.2845957729564743e+03 -8.5283257532020434e+02 7.7351536662261151e+02 -4.1383089873307949e+02 -1.3107739713381852e+02 -1.9517214813573474e+00 2.5608871243405702e+02 -7.2341320427449591e+02 2.0506665811566882e+02 -1.8819153645096594e+03 2.8922759507096987e+02 7.7948771723487880e+02 -1.5382968149372539e+02 9.2316411409020975e+02 -8.0597587823867798e+00 1.8828566025572616e+02 -1.6202297064872675e+02 1.3847988191997754e+03 3.9189886586535704e+02 -1.3303462188557376e+01 1.5421019999303844e+03 -2.1070165743916255e+02 4.6861666904079181e+02 5.7656250000000000e+00 -3.7233229132267593e+02 1.9259523539745908e+02 -4.2734514618000912e+02 -9.4903457659195851e+02 -5.3009261093237704e+01 -1.6692610362464775e+03 -8.6836251592859711e+01 4.4138749718194249e+03 4.5200042724609375e+00 9.0259778452804312e+01 -8.9779190216039842e+02 9.6852228305650397e+02 3.7210403670799155e+03 -5.5697888459055985e+03 1.1771135805974918e+03 2.9847505138028637e+03 -3.8734064325026702e+02 2.2060546875000000e+00 2.8384810812745673e+02 -8.4095845965030549e+02 -1.3676897229748806e+02 2.6609821000524522e+02 -5.9639885960565221e+02 7.8407669333549711e+02 1.0211445456550712e+02 1.0450934508281352e+02 -3.3906250000000000e+00 2.5132141818921082e+02 2.7098639090707102e+03 1.1728681066554345e+03 2.0796344702999049e+03 -1.9131346784640937e+02 7.7495765694772126e+02 2.5192192985292934e+02 -4.2582250542240217e+01 -3.6896972656250000e+00 2.5306462310208008e+02 -6.5287709896445494e+02 -2.9049262280902224e+02 -8.7197509458400532e+01 -2.4198897286892270e+02 8.0527919401950203e+02 4.4921900564047974e+02 -3.3094982123933892e+02 3.4583815056411549e+02 7.4443482218556073e+02 -5.2851913153019268e+02 -1.3788015133252502e+03 4.1458389203157276e+02 -2.0871052387923598e+02 -3.6090526285214582e+02 6.4284848577153753e+01 6.1061698030238040e+02 -3.5044935797721291e+02 -4.3161324380303267e+02 -4.2044770027812137e+02 -3.6090526285165106e+02 7.7995860626097056e+00 6.0862302644806914e+02 -6.4314416777697988e+02 -4.2984212536054474e+02 -9.6667023171322981e+01 3.7443287423439324e+02 -1.8527891127756993e+02 -2.2303482147068867e+03 -1.0970336996678336e+02 3.8228962507781730e+03 -2.6001485089018934e+02 -1.5108082309772551e+03 -8.1773819492411144e+02 -1.0224351132235297e+03 -3.9657270173015888e+02 1.1630821901699346e+03 -1.0402041885398637e+01 1.5013925209993463e+03 -1.1922192793110612e+02 4.0943013021088900e+03 4.2875948278872670e+01 6.6005688426022652e+02 -4.1473911489997590e+00 1.2806783164368867e+03 -1.4171383265817090e+02 -2.1067495184645536e+03 -2.6948502033957212e+01 -1.8743402122878338e+03 -2.4352644641255029e+02 3.6084276550883624e+02 7.7905997598376757e+01 -5.8694247605837882e+02 7.3190924992560485e+02 4.3132134111225605e+02 -8.2131195884244164e+01 -3.7473319835960865e+02 -1.2574905353977731e+02 -2.2546895145012240e+03 -2.9552468771353233e+00 7.6027877409993289e+02 -2.0974066758283698e+02 -3.6090526282787323e+02 6.4178497672190588e+01 6.1060948599595577e+02 -3.5044935797719518e+02 -4.3161324279289693e+02 -6.2460397794183002e+00 3.2169640705412270e+01 4.0081378438571420e+00 -4.2133238395249009e+02 2.3032698421183007e-01 -2.6651048480940239e+02 -1.1977111719935618e+02 
      </Row>
      <Row Index="4">
        -2.2460604286281105e+03 1.3694045753742092e+04 -2.9749855685111048e+04 -1.6444192081823207e+03 9.6164495739982394e+05 -2.9139773469980002e+04 4.3368364791789754e+04 -1.8060652832497158e+03 5.0334930981452271e+02 8.2668436915487678e+02 1.1097679486364941e+04 9.5936298122077278e+03 -2.9444292039081930e+00 -1.1791476761068352e+04 -9.4301755824762222e+03 -1.6139267188438055e+01 1.1928863155617379e+04 1.8009288674942611e+04 -2.0257763634957977e+04 1.9459734420082555e+01 -2.4356068156400532e+00 1.9990993573026827e+00 -8.0662125866592396e+03 5.7095932658109377e+03 3.7485043728577170e+02 -2.2903422324228566e+04 3.7988435973310683e+04 2.6433400064874002e+02 2.9245220865652896e+04 2.3768627879463820e+04 -4.2683441220823428e+04 2.8249890667760064e+02 -5.1876103803786646e+02 1.9411631441079800e+02 -1.1925542736428994e+04 -7.2988982814262665e+04 -1.7866855604339253e+03 -1.3717793194985628e+04 1.9903718777052429e+04 -1.3966646650556604e+03 3.1882096524753142e+03 -2.6562512755685591e+04 4.5637884651328583e+04 -1.3823395982487327e+03 -1.2251896804231617e+02 1.0227501330740610e+03 1.2545097481908597e+04 -2.8901627798463887e+04 1.6995179889992112e+04 -3.4846875000000000e+02 -1.5120645382844377e+03 -1.4011427627338981e+02 -2.9995795936052118e+03 -1.0454298602652580e+02 -1.8829962338533951e+03 1.6819090207775589e+03 1.4606809554536867e+03 9.1833974741432903e+03 -3.4848599706411187e+02 -7.8786677163117565e+02 1.5508421967560931e+04 -2.8131952911704429e+03 -8.7373430941178071e+02 3.4354983548438358e+03 -1.7046885091895238e+03 8.5754049197750373e+02 -7.7026166311055422e+03 3.2073881265782666e+02 6.7121122099237982e+02 -1.2486934910803197e+04 -7.8916685277594252e+03 9.3448185631045362e+02 -6.3020024519229582e+03 1.7596563829245279e+03 -6.5238201351689349e+02 1.4305743072263664e+04 -3.4862500000000000e+02 -1.5832155258450803e+03 7.7920634350790351e+01 2.1203216903791072e+03 1.3537604916068979e+03 -1.7558741214433767e+03 1.9291682821288705e+03 4.2009643972021877e+01 4.0192755387276411e+03 -2.3309074311870177e+02 -3.2311826410500680e+02 5.1108538920143583e+03 -9.2146733824657713e+02 2.2158870067910948e+02 -1.6006751365525699e+03 -2.0422295953611610e+03 3.8707075299138160e+02 -1.4502943542424124e+04 1.8710348671837551e+02 1.3342950133537233e+03 -3.2286168891186549e+04 -9.6724488755287111e+03 -2.6332391036197441e+02 -3.9363000163200700e+03 -3.0668190047174576e+03 -7.0853403341093690e+02 3.1638717828632798e+03 -2.0787475035285524e+02 -2.3090425191269605e+02 3.1480917914238726e+03 -8.6269571015686561e+03 -3.1171167230396850e+02 -4.3468509152182760e+03 -2.1207274156091735e+03 5.1782882575696931e+02 1.6385060930723790e+04 -3.0178511810302734e+02 -1.5427508182427846e+03 6.6531281864433004e+02 -1.6294989168540665e+03 3.1647322791511397e+02 2.8293325525191563e+02 1.9912636162548624e+03 1.9090759292363146e+02 -8.9726557469890813e+03 2.8950000000000000e+02 9.9543093493976630e+02 -1.3003723154544641e+03 -7.2312602596507531e+02 1.9786590355982071e+02 -1.8506594379135731e+02 2.3972251398954540e+02 5.0205384187098929e+02 -1.8257182716553099e+04 3.4933959960937500e+02 1.1240284155607224e+03 -2.6807757162753569e+02 -7.9231925551796303e+02 -4.3349796071397918e+02 1.3871307305139430e+03 4.3674566067568958e+02 -6.2786252436533687e+01 -1.4181732122686692e+04 1.7868310546875000e+02 1.3057628008250467e+03 -3.1403174636833221e+04 -9.5514655001359388e+03 -8.7504633719940057e+02 -3.5577850042906521e+03 -3.0619673344665207e+03 -5.6081709195470648e+02 6.7401740562161431e+03 -3.1807031250000000e+02 -6.7042422984540462e+02 1.1957385333622355e+04 3.0166031117093957e+04 3.7237029650017248e+03 7.7398785588312476e+03 -1.4886185363347763e+03 3.5659115350585489e+02 9.3422301514549181e+03 -3.5083947753906250e+02 -7.8045874971151352e+02 1.5181499009118026e+04 -9.2669166878916985e+03 -1.6859611000845634e+03 -3.7398129106038832e+03 -1.8171571560557932e+03 6.4865863423172777e+02 -4.1129020115037340e+04 6.9996485996898264e+02 3.1972080148805981e+02 -1.4343113466748036e+03 8.7542051379403347e+01 -1.4097136096563190e+02 -1.1079052435125557e+04 -7.0034655969566666e+02 -6.3391679472788383e+01 3.7089805959397927e+02 6.7505050289750216e+01 1.3944142350181937e+02 -9.2183065808722786e+03 -7.0034655969450250e+02 -9.2754449662112165e+01 3.7817789021413773e+02 -4.2735356619688173e+02 1.4026083552837372e+02 -7.6946454383339187e+01 7.0288618162274361e+02 -1.3583037026562965e+02 -6.4790124664874747e+02 1.5029368120983872e+02 9.0474348686877056e+02 7.6871790645087913e+02 -2.3693110496910231e+02 -5.6570477112312801e+02 -6.0889327207435272e+03 8.4597000791240976e+02 7.0978822525218129e+02 -8.3449490443419396e+00 5.3098409228213131e+02 -2.0864013651920672e+01 -5.2111728295632638e+03 -1.0896593957176412e+02 -8.1560263191885315e+02 -3.6236229169146554e+01 -8.1521112186804748e+02 -1.5589494473637296e+02 6.5073618470249348e+03 2.8760616263466909e+02 -6.5024203283013776e+02 8.6427350266625963e+03 7.0176767325401306e+02 7.6278403184270701e+01 -5.5788035783171654e+02 -1.3242579859113539e+03 -1.3819015383720398e+02 -2.3949832158294248e+02 -7.0188143086433411e+02 1.1539518707952811e+02 6.1501565713249147e+02 3.2355747988532130e+02 -2.7350269325148838e+02 -1.1232584640338508e+04 -7.0034655962884426e+02 -6.3323705702518964e+01 3.7039660811424255e+02 6.7505050289721339e+01 1.3944142365455627e+02 -1.8937051726218392e+00 -4.1403100017485073e+01 -1.6121266594172994e+00 -1.7166827087238926e+02 2.4224420162234992e+00 -7.9819809575764339e+01 -1.2624003437374090e+02 
      </Row>
      <Row Index="5">
        -5.7187748517572154e+03 2.4067598278067308e+03 -2.0177810330893350e+04 -2.7486934747215628e+02 -2.9139752344202119e+04 9.2369769218013727e+05 5.7489188128962996e+04 -6.4214073678202476e+03 3.5425936325204384e+03 -2.3604946920051320e+03 1.8800160466950114e+04 -1.6848902973283752e+04 2.3064674402336777e+01 -9.2318387629753397e+03 3.2154393270962173e+04 -1.1459475578942602e+00 1.0340662864766084e+04 4.3846949711173191e+04 -3.2880564329428475e+04 -1.7274322639502763e+01 7.3113090969438326e+02 -3.3108818195327864e+01 -2.6938683078215807e+04 -1.2527508042672780e+03 6.2146462141176926e+02 2.3568255289895460e+03 3.0927703543618845e+03 -1.4408562934725373e+03 2.6363889370309662e+04 8.7053610247841279e+03 -7.9909143606856218e+04 6.3858976251867807e+02 -1.8818750866606624e+03 -4.5231068180823604e+02 -1.2895900789967680e+04 2.8969346512165735e+04 -5.0715239056101900e+03 -1.0512396574779414e+03 5.5438915325703856e+03 -1.7055704234974271e+03 -2.5306996646424755e+04 4.8475597929192763e+03 8.6714811174139380e+04 -5.9442476851085094e+03 2.9817654504340117e+03 -2.8783183200347962e+03 1.4929545770448312e+04 -2.0212733143017686e+04 2.3878935654573841e+04 -5.3277832031250000e+02 -2.0584096021319565e+03 1.6853335050178830e+03 -5.5178250512719569e+03 4.4793658110513934e+03 -5.2812884870561429e+03 3.2043452804707649e+03 -2.0767419418466411e+03 1.2004094972802519e+04 -5.3083534979106753e+02 -2.2680768146049231e+03 2.1405258137488046e+04 -2.0795613152921942e+03 9.8485797021872750e+03 -8.8451471463102662e+03 -5.8531054517882876e+03 -1.3962176116046890e+03 -9.8581995266578160e+03 4.8797290721088075e+02 2.1012380520200823e+03 -1.8030697890765194e+04 1.2237148518017584e+03 3.5101631674281384e+03 -9.7885961027994972e+02 6.0184909623868298e+03 2.1091865043814705e+03 1.1443889549476233e+04 -5.3222412109375000e+02 -2.1175904285292781e+03 -3.0631284331191491e+03 3.2061246364526451e+03 -5.6890645622418851e+03 1.5783141361774810e+03 3.9262545868046582e+03 -3.1879641700161155e+03 3.9186228516381234e+03 -3.5264908580208430e+02 -1.5664939250168391e+03 4.7497295873184012e+03 -3.9990843602764780e+03 -4.5917367623848577e+03 3.1425222071905664e+03 -6.3985687767948984e+03 -3.7572860169959895e+03 -2.4801866025651805e+04 2.9591429498179104e+02 9.9984309274330735e+02 -4.9094015871645053e+04 -2.4137434540561408e+03 1.8128162730603087e+03 -1.1502919427148427e+03 -7.9122228170656454e+03 1.8851436101287109e+03 2.4861027585682459e+03 -3.1384172550729261e+02 -1.4102854162020667e+03 3.5664561648527524e+03 -6.1467420374074654e+03 3.2303001325979953e+03 1.3942973502279174e+03 -6.4295366592407227e+03 1.5624506039230619e+03 1.9644319347497076e+04 -4.7063470649719238e+02 -1.8816750980482175e+03 2.3650171085361071e+03 -2.8917562103032978e+03 7.5766052203009576e+02 1.9561005040911548e+03 4.5907692782021550e+03 -7.4503632751415280e+03 -1.2640176769265454e+04 4.4987500000000000e+02 1.9184574130440233e+03 2.9924874556881255e+03 3.2635277980045539e+03 3.8546931754434954e+03 9.9525100389965405e+02 1.5186421772516333e+03 3.7804141719929517e+03 -3.4612435471994337e+04 5.3555664062500000e+02 2.0744002979621291e+03 2.0568434307906728e+02 -1.9284062752149621e+03 1.0923523723387887e+03 -2.8838707096582948e+02 1.8395745060946792e+03 6.0545762626137002e+03 -2.4339021545019001e+04 2.8259375000000000e+02 9.5020912911569030e+02 -5.0448943873489021e+04 -3.7961916444192802e+03 -2.9532100218580022e+03 3.6822227164499709e+03 -7.9215908428111579e+03 -2.4084488131426660e+03 9.3204312274977565e+03 -4.8362500000000000e+02 -2.0837936241030693e+03 2.0844686545632685e+04 1.0884642252622305e+04 -7.8829353524381550e+03 1.6872954582159919e+03 -5.7829249729929725e+03 -9.6196474286193115e+03 1.1957970392445102e+04 -5.2956542968750000e+02 -2.2727474614405073e+03 2.0246205872273389e+04 -4.9536454726805441e+03 -4.6014349555599501e+03 3.7660795704712750e+03 -6.0070449048690498e+03 -3.5519061774422371e+03 -6.1815719198683408e+04 1.5604601353527978e+03 -1.0874855962107540e+03 -1.8655306479334831e+02 8.8512151323200960e+03 -1.2332399181872606e+03 -1.7825554350128918e+04 -1.5747980552739464e+03 -7.8638690985296125e+02 -6.3231453741155565e+02 1.5123492045185149e+03 1.2688629148106556e+03 -1.3489870028709482e+04 -1.5747980552755762e+03 -8.1413599850726314e+02 -6.1558551675826311e+02 1.0425362393140094e+03 1.2677528627663851e+03 -4.8899285840688663e+02 1.5695849940776825e+03 -1.0053974218336698e+03 1.0594601492432565e+04 1.2053112345951376e+03 -3.5400508295187246e+03 1.1954548630987993e+03 1.8983653233928744e+03 -2.7507314100722433e+03 -7.1370029698265716e+02 1.0139029454498923e+03 5.7929467090936669e+01 -1.3191193968692971e+02 -4.8397620810545050e+02 -3.3060986823407649e+02 -1.5386553006538523e+04 -6.4980772351955216e+02 -3.0121654606115189e+03 3.9392508397892016e+01 -1.1199305034615345e+03 -1.1770013651820084e+03 5.9630896963770319e+03 -2.1172570669894287e+02 1.3801672604495625e+03 1.1331806768999355e+04 1.5750963843902573e+03 4.0365799292868451e+02 4.9426372878253460e+02 -5.9282511597553512e+03 -1.2631529598236084e+03 -3.0740338201312989e+02 -1.5189490342736244e+03 -1.3929211657379708e+03 2.5771412605121732e+03 8.7172243672466266e+01 -4.3203639371181407e+03 -1.8057780639124805e+04 -1.5747980551868677e+03 -7.8688352990504745e+02 -6.3308847095444798e+02 1.5123492045185606e+03 1.2688629191145301e+03 1.6439538116983346e+01 -6.8554422814828115e+02 -5.8255013196503569e-01 1.7636667828811537e+03 -6.8798304965889763e+00 7.4641273672204989e+02 3.0816538268505496e+02 
      </Row>
      <Row Index="6">
        1.0185572798723357e+03 1.0929739284206626e+04 5.3793578418127145e+03 3.6772949281585156e+03 4.3368322786704346e+04 5.7489355310017636e+04 8.5748693821605598e+05 3.2704409550065966e+03 -3.8889689074433427e+03 -7.5339347481687582e+02 -2.9953849374632235e+04 8.6784692423180968e+03 3.8448648990662093e+01 3.4687781638613887e+03 -2.1445514494706993e+04 3.0773936886121191e+01 -3.5518502454060712e+04 -4.6243259514290294e+04 6.3157409876503552e+04 -1.7481776768746471e+02 -6.4099614173150155e+02 -2.2006806934510553e+01 -5.5356024464594084e+03 -6.3765601237166138e+03 -8.8000410793741509e+01 1.8965335019955150e+04 -8.2690372925227057e+03 -6.3044612369475271e+02 -4.2670239787275430e+04 -8.2304345665582659e+04 8.8034879497555594e+04 -5.3596456470408293e+02 -1.3525608769928849e+03 1.1810025654923743e+02 2.8862754634826175e+04 -1.9022550280563686e+04 5.2891812655428566e+02 -1.8460818165714445e+03 2.1495688674916441e+04 2.9871622267369175e+03 4.9792613306092593e+04 8.7387436012621009e+04 -9.1344750927360088e+04 3.1154632241423378e+03 -5.8048165450001097e+03 -7.1876301168479824e+02 -3.1206723763117028e+04 1.4988265080017256e+04 -4.5959967132399091e+04 9.1811328125000000e+02 3.5071345776874223e+03 -3.1412821203931271e+03 -5.0003150644958441e+03 1.2695656100038314e+03 -1.0337894573654530e+03 -1.6938705671255102e+03 7.3235141355856956e+02 -1.5760306886468688e+04 9.1814882392133131e+02 4.3116770435589133e+03 -3.5582378507315618e+04 -4.5271397991120466e+02 4.1937321528972734e+03 -8.4731459181547580e+03 -6.2001016686265357e+03 -5.1563424608924033e+03 1.2255675450750394e+04 -8.4505431095528866e+02 -4.0251235392948147e+03 2.6783544911475728e+04 -1.3077504484991186e+02 5.4899431006482864e+03 1.8639559285872269e+03 6.0866924063916085e+03 6.0999005031835914e+03 -5.2411554179688450e+04 9.1814550781250000e+02 2.7778234219851729e+03 9.1808020959231799e+03 6.3254916051863984e+02 -4.9743748643758363e+03 3.5659718496572950e+03 -3.9077139496317832e+03 -5.0811445731025451e+03 -1.8998505551721901e+03 6.1416044751535787e+02 3.1133351012846688e+03 -6.9652801464458244e+03 7.5463694724652987e+02 -6.8279077632019616e+03 1.9534454079255561e+03 -5.5409609553075279e+03 -6.4874177841830533e+03 4.7279887012926396e+04 -4.9277310051838094e+02 -1.2654608328368049e+03 9.0537160544199956e+04 -9.3861777097228696e+02 -4.6627733002939549e+03 -2.6323719327211120e+03 -2.8744772561802529e+03 -1.8122270440708180e+03 7.6603957465454005e+02 5.4773073862060482e+02 2.8470472376907528e+03 -2.8296729812412650e+03 6.4097985840461115e+02 -4.7866271152784884e+02 1.1371325584270835e+02 -5.3117367802560329e+03 -3.3483851457946657e+03 -5.7921406424275832e+04 7.8798756265640259e+02 1.8871004384130647e+03 -5.0757743092380406e+02 -2.6263658661709742e+03 -2.2211147882900523e+03 -4.2260482937682764e+02 -1.4374974695440942e+03 4.3647582648642128e+01 3.1178668943741326e+04 -7.7325000000000000e+02 -2.4738467540324109e+03 -9.7134436345232989e+03 -2.4485237476828147e+03 -1.4019286736744980e+03 -3.2696483925338321e+03 4.5214989928796422e+03 1.3148132669557623e+04 2.6744368834177731e+04 -9.1778515625000000e+02 -4.3352843101657927e+03 9.4242924688035146e+01 -6.7100243158308149e+02 1.5692340391392804e+03 -1.1214774469797940e+03 8.3881383254006505e+02 -2.5018158503310915e+03 4.6455534497981891e+04 -4.7337500000000000e+02 -1.1820879766501603e+03 8.8292080823419310e+04 -8.5648499714282116e+02 -4.9271596728103377e+03 2.3358935380556009e+03 -2.9513402907224372e+03 -3.6258401597738703e+03 -1.2416311048780568e+04 8.3815625000000000e+02 3.9828661878705025e+03 -1.9714531026170407e+04 -1.2390689041462436e+04 1.2386083784874339e+04 1.0205260705650569e+04 -6.0465285322481068e+03 -1.1352927319537237e+04 -1.5480301834791899e+04 9.2049755859375000e+02 4.3187853772044182e+03 -3.3926771358720755e+04 -4.4090971554054704e+01 -7.4263854625967015e+03 2.6159978788101980e+03 -6.2587254072129726e+03 -7.0471928568859857e+03 1.0358095845517631e+05 1.1145260268396232e+03 -2.3431220539775677e+02 -2.1623434308730066e+02 3.1565551329479586e+03 1.6428382063992321e+03 2.9957917957083177e+04 -1.1421275351452641e+03 -8.0750314622238511e+02 6.4698652803059667e+02 6.6805020473073091e+02 -1.7299115940593183e+03 2.4280711004900193e+04 -1.1421275351449149e+03 -8.8200776700640563e+02 6.3263005388528109e+02 -4.9060818018821010e+02 -1.7284188495650887e+03 6.4817839013340017e+02 1.0421514613628387e+03 -1.5594230920102318e+03 4.2339416967845755e+03 3.3129117761292127e+02 3.7248876367326716e+03 -2.9873693403538346e+02 -1.2648032513312683e+03 -4.4407238526310612e+03 -4.6901972026678995e+03 1.2953899369886676e+02 -5.2467941442593001e+03 -6.2681032581333398e+01 -2.0204188912588725e+03 -1.1319679179742564e+03 3.9700447173525790e+03 -2.6454443840637714e+02 -1.6156147033096058e+03 3.6893952967100631e+01 -1.6161245902173960e+01 -8.6795655974734279e+02 -2.2252259663888526e+03 5.8797150093613141e+02 2.5006039618763471e+03 -1.9364279217280622e+04 1.1411652602963150e+03 4.7216298024186540e+02 -6.2598413843847811e+02 -3.3042536956906642e+03 1.7048651542663574e+03 3.6028353161954874e+02 -1.0090843801498413e+03 -2.1101373950204043e+03 5.5903012477308512e+03 1.9991970672426123e+02 2.0994124821655892e+03 3.0361734910250823e+04 -1.1421275351718068e+03 -8.0768568158002472e+02 6.4830704455077648e+02 6.6805020473074239e+02 -1.7299115930944681e+03 -1.5873952981493684e+01 -4.5683331057381778e+01 1.1321021321447915e+01 -1.0217935360128322e+03 6.2226561967563327e+00 -8.2212564737240245e+02 -2.2678294135884650e+02 
      </Row>
      <Row Index="7">
        -1.9624911151974272e+03 -2.4164610114295683e+03 -9.3981452552968585e+02 1.1881231556951243e+03 -1.8060418237614290e+03 -6.4214094899586617e+03 3.2702874634023351e+03 1.1422926456174813e+04 -2.7897158116852497e+03 -1.3352770692066520e+03 -1.7709831990495497e+03 -8.1168932537575583e+03 -1.0251187184565467e+01 1.0795568737118929e+04 -5.4949137965847449e+03 -2.5912574178980389e+01 -5.0759127857915229e+02 -9.7820846119169855e+03 7.8879182928832279e+03 3.1530260969481833e+02 1.5454851442341652e+02 -4.3228687892532115e+01 6.7962684148820608e+03 6.1733284010847967e+01 2.1580236973040553e+02 -8.3471790113268053e+03 -2.1553481007790970e+03 1.3986005955602152e+03 9.7343911280316445e+02 -2.0741420383181894e+03 1.6853867748050779e+03 -1.3992951683996521e+03 1.3682683521346294e+03 6.4862800454020896e+02 -1.0824259539285185e+03 1.8939185314856179e+04 -2.0659343547624821e+03 -1.1406166387410885e+03 2.5493979140083247e+03 2.4472489012984815e+03 8.1650988502615212e+02 7.1932849678615448e+03 2.7921118845651108e+03 1.0240736128944383e+04 -1.2916483633247817e+03 -7.6692341433016327e+02 3.2160798407350048e+03 1.9650983726830600e+03 1.6456030324137882e+03 -1.2024337768554688e+01 -1.9561473821138426e+02 -3.0134589150054694e+03 -5.0930895720794360e+03 -1.7624881939168006e+03 -1.9590566110120753e+03 1.4847746995688813e+03 -1.6957593025591768e+03 -2.1925301966435450e+02 -1.1561609897013987e+01 1.0278233283144687e+03 6.2257003521369143e+02 -9.6626291989217989e+03 3.5087766555742487e+03 2.9667489854807118e+03 -3.1752526971509524e+03 -7.4889199070156644e+02 2.7433929333271226e+02 1.0642182740374617e+01 -1.0426412553070290e+03 -1.7138851074602610e+02 7.6758753777142829e+02 -4.1489533450412569e+02 -6.9723428153690372e+02 3.2354541542525258e+03 5.0018662102848685e+02 2.8892367797584084e+03 -1.1352264404296875e+01 -1.5464229194853579e+02 4.3011864123072137e+03 -2.0820079842561245e+03 2.2247581663769306e+03 1.6239699206987282e+03 2.0598701762968849e+03 -8.8538015821266470e+01 -4.2226021237184432e+02 -7.7385648468598447e+00 1.0563608478705892e+03 1.2156877532963836e+02 -3.7843311689636630e+03 1.6102074534292021e+03 -7.6942889281715497e+02 -3.2494549613306426e+03 -2.7260269178917673e+02 -1.0388293218301078e+03 6.1823506602774652e+00 1.1040891180864464e+03 -2.6563112805828423e+03 -3.7397619365382980e+01 2.1982507617257943e+03 -2.2445041696614940e+03 -3.2503558329353200e+03 -1.2268745667762291e+03 -4.6294939126404279e+02 -6.9031054412527197e+00 1.0459102720333558e+03 -3.9177085760587397e+02 -5.2660998140304127e+03 3.0588282619039755e+03 -1.4096207672218889e+03 -3.2029997688697767e+03 -7.1003639695568461e+02 7.9023963098985405e+02 -1.0716133963316679e+01 -7.6955885818139495e+02 1.9720882589676171e+03 -1.8770931160237478e+03 5.0827904196027293e+02 3.3294824895463148e+02 3.6788769183953411e+02 4.4176290752589830e+02 -4.2551319143858230e+01 1.1347656250000000e+01 -1.3793408608234120e+02 2.6434543693881678e+03 2.5445212516171973e+03 1.9891756995210567e+03 1.0712344860595674e+03 2.4606139567947703e+03 -1.2025657337096050e+03 3.2464794718421581e+02 1.0443092346191406e+01 -4.4316055313800462e+01 -1.5266440455172296e+03 2.4400005389236776e+03 6.9043673953968505e+02 -8.4085031481026817e+02 2.4619153208331845e+03 -1.2237867294256146e+03 -1.0325014618678251e+03 6.0703125000000000e+00 1.1080944930303813e+03 -1.1726461870639964e+03 -2.7427969687255791e+03 1.6675845271476355e+03 -8.0542987695347392e+02 -3.2713890810821249e+03 -3.2767314560834166e+02 -1.7675248219911009e+02 -1.0431640625000000e+01 1.0277892581215128e+03 6.4938343862316760e+03 2.5343741033665618e+04 -1.2286139692766799e+04 2.4112653566816743e+02 -3.1866927412139812e+03 3.9912546101029020e+03 -2.5687877053185366e+02 -1.1348388671875000e+01 1.0414265624377877e+03 2.9663108791709419e+02 -5.1935554299977321e+03 2.1866767898694879e+03 -9.4150725492985998e+01 -3.2381808079516049e+03 -3.8337121759262163e+02 -1.4924120244434398e+03 -4.9707092661259230e+02 2.7895409101616679e+01 -1.9733326926043810e+03 2.6952966913791843e+03 5.7051600421406329e+02 2.8154347633756788e+02 4.7605511551469681e+02 -1.0844518232014343e+02 2.0768169606170268e+03 4.1694421653580270e+02 -5.7173563571285922e+02 -5.5065248380147932e+02 4.7605511551421660e+02 -3.0614033130368625e+01 2.0742783328593941e+03 -5.1923876370873359e+01 -5.7208126082527451e+02 7.7099422335696318e+02 -4.9600952625274658e+02 -1.0397150890259265e+03 -4.7185909498033188e+03 -6.0122822627662470e+02 3.7234644643308735e+02 3.2248953895406089e+02 -1.2547846998019909e+03 -9.0791791841501970e+02 -7.6354757419666776e+03 6.6507031614318828e+02 1.3170964669265509e+03 1.5267612974115650e+02 -2.2639980904256622e+03 -5.8387931027939055e+02 6.7707943934415216e+03 2.7406998248825499e+02 1.8296573041083693e+03 7.8737494014192180e+00 -2.6781078076747453e+03 -5.2396677906035620e+02 2.7865148114721760e+03 1.0442278893633483e+02 7.9102337272363400e+02 9.9440272070862738e+02 -4.7605740059287928e+02 9.3123814623869066e+01 -2.0539416570514441e+03 -2.3709364514587055e+03 5.7501212179660797e+02 5.9171536126114188e+02 5.0456232321076095e+02 -1.0912605760521528e+03 -1.9209247561191514e+03 1.3525296918684944e+01 2.2258241321265232e+03 2.7637009157234206e+02 4.7605511553213000e+02 -1.0843776627496618e+02 2.0768003415912390e+03 4.1694421653577228e+02 -5.7173563582543284e+02 -1.4529598534965107e+01 6.0928907783147466e+01 -1.2113270600331932e+01 -1.9032153939753334e+02 1.0512527419425433e+01 -1.4371144644605556e+02 5.3267635753012705e+01 
      </Row>
      <Row Index="8">
        4.7377614639180329e+03 3.4007527406249947e+03 -1.3834418470432989e+04 -2.8227923526854765e+03 5.0319734711314777e+02 3.5425426548934047e+03 -3.8884305859652227e+03 -2.7896698670460846e+03 4.2002556049828883e+04 7.3867459691566737e+03 -2.9134902039035078e+03 8.7392937166589327e+03 -1.8614169502701193e+02 -3.7493048830545202e+04 3.6547351345710449e+03 -6.2886824108264271e+01 -7.2765777835464223e+03 6.3026416653981214e+03 3.6346968154384940e+03 -1.0901253650904260e+02 1.1565579769045087e+03 8.4311687210352247e+01 -1.0891588395953979e+04 7.4206981407677767e+03 7.1172657627258673e+02 1.2925146743574223e+04 7.0721010428867812e+03 -1.3022339626626995e+03 -2.8574973729766725e+03 1.0087406223248159e+04 8.2946953923095534e+03 8.0772084125701645e+02 -4.5596912154889260e+03 -1.0866480758680511e+03 -2.6689935498546620e+03 9.4067263525000526e+03 6.5438550333154308e+03 -5.4034680867019697e+03 1.4949556859132994e+04 -3.8806907653953795e+03 1.4309449822482120e+03 -9.4258017023763896e+03 -7.8283597017724769e+03 -2.2383007437033029e+03 3.8612632066771694e+04 6.5967086156146261e+03 4.1801274180692262e+03 -8.6089193483770468e+03 3.7885759767354539e+03 1.6438842773437500e+01 -3.2183473075055690e+02 -2.5847755913910802e+04 -3.0639602704619397e+03 -1.5153467966736664e+04 -2.9888971203451132e+02 -1.2217882107253263e+02 2.5177338424128353e+04 6.7181507454943649e+03 9.8356272731467342e+00 2.4163110155849135e+03 -4.0163903954473899e+03 5.6090474653040128e+03 4.5696811010447482e+03 -5.9398493004023076e+03 -3.1683479996588576e+03 2.9087552646988615e+03 -6.8545990022300102e+03 -8.5645808200558378e+00 -2.4332742740923932e+03 2.4633544551663854e+03 6.0831908797325923e+01 1.8980516273746257e+03 9.2002896874862745e+03 3.2190925151998890e+03 -1.4871579075955970e+03 2.5683924087323467e+03 9.6438598632812500e+00 -8.8786902108840331e+02 3.5350872813241458e+03 -2.1418799082611076e+02 3.2083027555572344e+03 -8.0162498412074283e+03 -1.9947865091294516e+03 1.8622426286233310e+03 7.0058178300694417e+03 4.6047952310561087e+00 2.4228970993937473e+03 -2.7128640311741915e+03 2.5906589203499498e+03 -4.8333006325198894e+03 -4.1676115467517102e+03 -3.1820135214389866e+03 1.6629809617932660e+03 7.6926428345518943e+03 -1.4216483263335029e+01 2.3340164584087834e+03 -8.6527881816429181e+02 2.4479829452541835e+03 -3.9252043198423435e+03 3.9231955907831889e+03 -3.0895204584030512e+03 -5.0529115675962748e+02 6.8820626695780666e+03 3.5686646674597284e+00 2.3919553641015737e+03 -2.3614620309930842e+03 3.6828309906696254e+03 -5.8633967751359824e+03 -3.1029661142764780e+02 -3.1054765975642949e+03 8.0421758571045075e+02 -7.8661212757811045e+03 1.1220376119017601e+01 -2.1308043468136320e+03 3.0198838457045440e+01 7.8807641570105363e+02 2.3624956845251368e+03 1.7122183934177424e+03 9.0133137564282629e+02 -4.2717968266210273e+03 -3.0551347393970000e+03 -2.4031250000000000e+01 -4.7565557888611920e+01 9.4965444924428921e+03 1.0486943289169808e+03 5.1862523523210202e+03 4.1318480378032955e+03 1.0463505556703785e+03 -1.2057326053653505e+04 -1.4085969554029269e+04 -6.7177734375000000e+00 -1.0540633148283669e+03 7.4320112292200429e+02 6.8722476644144149e+02 -2.4127585786686236e+03 2.8437375788710197e+03 -1.9125165553177794e+03 -2.3465842901281267e+03 7.7470637137880549e+03 -1.5166015625000000e+01 2.3447694073580205e+03 -8.7288232061398776e+02 3.3271437799153605e+03 -4.2485394678399143e+03 3.3103216209826210e+03 -3.1079845217569018e+03 2.6049525597282081e+02 6.7961208692989312e+03 8.5957031250000000e+00 2.3937585087493062e+03 7.0863020774724137e+03 -2.0190498995710317e+04 2.0039819945844760e+04 1.3488895287839207e+04 -3.2998644328668597e+03 -5.4551144587943318e+03 6.7336840444300324e+03 1.8490722656250000e+01 2.4440952220482286e+03 -3.4524397626118589e+03 4.0588330948127714e+03 -5.5293137114491246e+03 1.9524457619768257e+03 -3.1712019634309690e+03 2.0074725035632237e+03 -1.9201377084623200e+03 -3.5397454743110575e+02 -5.7033472457058815e+02 -2.6346378475218080e+02 5.0269560365053439e+03 -6.1626036773994565e+02 9.7671043203346926e+01 3.7486388080532197e+02 -6.4544687136278662e+02 5.7422913029929623e+02 1.7440981061522029e+03 6.6031758765503764e+02 -5.5360125453940782e+02 3.7486388080203324e+02 -6.9505404821491175e+02 5.7477804276865209e+02 -7.7424619771229470e+02 6.5697714138869196e+02 9.7126857966566149e+00 -3.6224040804803371e+02 -1.1873662196486657e+03 3.4915675637137210e+03 6.5115698739073832e+02 -7.5913511793580365e+03 4.3991352491996065e+02 2.3732246511248691e+03 -3.7796263512682162e+03 -5.7874220856807897e+03 9.5904550806440784e+02 -5.9694773395590346e+00 -4.4016441366823983e+01 4.1081664849529670e+02 -1.3461264035964591e+03 -2.9086055586580114e+03 -5.4584532505602306e+02 -3.0695055662800951e+02 1.6106632272039860e+00 -1.3330236332211707e+03 -2.3777930170914724e+03 3.9626710432636191e+03 6.4781730535575002e+02 4.5082685649280165e+03 7.3886250031588497e+02 -3.7619404347149612e+02 4.2911697505788652e+02 -5.0490748262777925e+02 -3.6932814180871610e+03 -6.5243144786357880e+02 -3.2252105212690753e+02 3.6850340920686722e+02 -2.2197875490580595e+03 6.0763948255917057e+02 3.5172469153761995e+02 -1.0800396661255509e+03 1.0193048856087830e+02 3.7486388084292412e+02 -6.4494400003383930e+02 5.7425161018222570e+02 1.7440981061521088e+03 6.6031758765876293e+02 -1.3426306090063415e+01 6.3352557540006069e+02 -1.9203213623627221e+01 -1.5218907117689669e+03 6.7603261730316255e-01 -3.1681250507766504e+02 -5.4236840815184439e+02 
      </Row>
      <Row Index="9">
        9.9162473823833250e+02 7.8527993988205776e+02 1.7188955734536089e+03 -4.1312883680407467e+03 8.2652853045877657e+02 -2.3605822229785158e+03 -7.5285600439511950e+02 -1.3352791026401076e+03 7.3869205882139386e+03 9.0386465107513322e+03 1.1092428240293052e+03 5.0552063899560944e+03 1.9469198791922231e+01 -6.0494528907153551e+02 1.8721028925060673e+03 -3.9341599543678811e+01 -8.1820642328414863e+02 -4.7888817711047341e+03 -3.3959001657784602e+03 9.9180014949294318e+01 5.5982096409789513e+01 4.0314097436495373e+01 1.2516035203414435e+03 8.1788201726638476e+02 1.3926120627397825e+02 6.8623131031470314e+02 4.5375841251510601e+03 -3.9356615185748490e+02 7.5833456498921976e+02 -8.4995499764433298e+03 9.5620127433191283e+02 8.0366112101281892e+00 1.9787313365324258e+02 8.3169595427026093e+02 2.3002500671699154e+03 1.3729070863371389e+03 9.1501431504340371e+02 -1.3004248276424594e+03 -3.5495653983176599e+03 -4.5043777855505687e+03 -1.3094451547918879e+02 7.0221544742807855e+03 5.0570876043632124e+03 -1.2071145461194162e+03 7.6100726609900557e+03 9.8507650511445354e+03 -2.9214836098180526e+03 -8.7148730977777341e+03 5.4605510527524689e+02 -1.7709350585937500e+00 7.8525089254094553e+01 1.7606280179296618e+02 -1.9746762902040691e+03 -1.6048345510022066e+03 -2.1238803750142465e+03 1.1755451937428961e+02 4.6807565021759217e+02 3.1633199524794222e+03 9.3594967227753099e+00 3.9326420402529948e+01 4.5547320766950838e+02 1.3671414028171694e+03 1.1253075748220017e+03 -1.5158888428333348e+03 -1.0660454102584922e+03 -8.6277279324163078e+02 -3.2060039659523754e+03 -8.5726507831643612e+00 -3.5136826909189040e+01 8.6273679880395377e+01 -2.1171837643353803e+02 4.3882210136363267e+02 5.7686409782882208e+01 1.0743217484397301e+03 4.0355781251295298e+02 3.5369481756452149e+02 1.1060043334960938e+01 5.5823889210898599e+01 -1.0878400083095539e+03 1.1660353385797316e+03 5.3074852387056890e+03 -8.0755336870230622e+03 -5.2597982951114682e+02 4.2808365893558685e+03 3.3486934698409977e+03 6.0911951997809028e+00 2.5247163745311354e+01 9.1115694482316030e+02 2.1125164482569853e+03 -1.6653261782424088e+03 1.0181068886146139e+02 -1.0769318752508875e+03 -7.7941172775872917e+02 3.8538902915216877e+03 -5.7873212132012588e+00 -2.1428143587838122e+01 5.3126770255227541e+02 8.1641667169175264e+02 -8.2199442456191173e+02 -2.3279537614155504e+02 -1.0439571033857619e+03 1.3473788545306229e+03 3.3430961173264468e+03 5.3867408854668870e+00 2.2855889185019805e+01 1.0410469719480716e+03 2.7075159780537660e+03 -1.2027116567944618e+03 -3.1348169084365031e+02 -1.0627898467339110e+03 1.9800340818178938e+02 -2.9591824112006743e+03 7.5528209842741489e+00 -1.8187598969424727e+02 7.4720974399795591e+02 -1.9016602508614760e+03 3.0557740145153412e+02 2.5414755013232963e+02 -1.1862590308191430e+02 -3.2936530922806980e+02 -1.0019053394161880e+02 -1.1145019531250000e+01 3.5574447253035032e+01 -8.6818859802688678e+01 -9.6897805337196769e+02 6.6946371770242251e+02 1.7305640700577763e+02 6.6745887178645853e+02 -1.9051116879519347e+02 -2.9824262359627546e+03 -1.1346702575683594e+01 -3.9960870551120024e+01 1.9013279261108016e+03 -5.3342314018105412e+02 -5.2745002921603236e+03 8.4961951828072433e+03 -4.9991089048074537e+02 -4.6297582366065444e+03 3.8694653585568449e+03 -6.8522949218750000e+00 -2.0901452609741682e+01 1.4721036917023530e+03 1.6460405340765199e+03 -1.4048774338109552e+03 4.6855276614463196e+02 -1.0516367200755849e+03 2.6147282400748378e+02 3.0471129063288099e+03 8.8476562500000000e+00 3.4713420385844074e+01 -4.6673723226592147e+03 -1.3327178918324786e+04 7.9271100111124588e+03 -2.2412792580177666e+01 -1.0442564357130686e+03 1.7426064918876277e+03 3.2189320485860517e+03 2.8804870605468750e+01 3.8195661139674485e+01 8.9903215562386345e+02 2.4247045911022697e+03 -2.0808276790742407e+03 3.3056462735726473e+02 -1.0895897173509147e+03 -9.8868139480556761e+02 -2.2498612857537728e+02 -9.3074586140410975e+02 1.1664934982859313e+02 1.4373820091762464e+03 1.9238824197492550e+03 -1.1623953688776819e+03 1.6488613946885562e+02 9.4617669403927721e+02 1.4862651972845788e+02 -1.5366620707521215e+03 6.2905080575067495e+02 1.2177580370223150e+03 -8.7962464350332084e+01 9.4617669404304615e+02 1.4616104947819940e+02 -1.5355361314005568e+03 7.7733179035538910e+02 1.2146070028252507e+03 -1.3268670984723917e+02 -9.2626148522133008e+02 6.8214226899859545e+02 6.6481473480772445e+02 6.8576692786729393e+02 -7.1325957932575911e+03 5.5358718991753631e+02 1.2081665662656337e+03 5.4612526344427908e+02 1.1146590865478877e+03 6.5147590724434644e+02 -3.3310072909857172e+02 4.7701454153996480e+01 -1.2471590837918229e+03 7.1341701520297704e+02 -6.7057046290691642e+03 -4.2296077164474963e+02 2.8901275392470541e+02 1.0315638597448924e+02 -1.1524551980292031e+03 -1.6317012121983552e+02 7.6503446591370437e+02 2.8266472822064401e+02 2.1494314065436074e+03 -1.7242886170946440e+02 -9.4616908542439478e+02 7.6296797665850136e+00 1.5118278323650593e+03 -1.3668667021239971e+03 -1.2096443431898952e+03 -9.8590314109102337e+01 9.3352377583831549e+02 3.0351140889312899e+02 2.8300575378816575e+03 7.7086651406769533e+01 -1.9887389937671833e+03 1.6813209073986582e+02 9.4617669406533241e+02 1.4867546892266637e+02 -1.5366481576315127e+03 6.2905080575059628e+02 1.2177580352346413e+03 9.9332425781899474e+00 1.4722960202565793e+02 -1.9756494262941416e+01 4.2632389270998647e+02 2.8345099937755436e-01 4.9707628273328288e+02 8.2075639152407661e+01 
      </Row>
      <Row Index="10">
        2.3231644605218935e+03 -2.7574208735483353e+02 4.2752291667509835e+03 -2.3249391779480703e+02 1.1097657387048472e+04 1.8800130921496093e+04 -2.9953761273717711e+04 -1.7709852215662595e+03 -2.9135230081488080e+03 1.1092196375693879e+03 9.8985841990260128e+05 8.0081511412233085e+03 2.2840178556353834e+00 8.5822429384940697e+03 -1.0202471180383822e+04 2.0663702842922191e+00 -6.3748703401612584e+03 -7.4410654525402933e+03 1.5858924492781460e+04 -1.7578777311529782e+02 -8.5419940660090333e+01 1.1611012956669089e+01 3.8039737288797041e+03 -4.0151639633394079e+03 -3.2267058563545987e+00 -3.2067623084635416e+03 -1.4491042119620543e+03 -1.9945695356501102e+02 -1.1001460662186342e+04 -1.4370126541242760e+04 3.2453273241780276e+04 -7.7596517363508951e+01 6.8223666832759409e+02 -7.1184534075071156e+01 5.0226155709844898e+03 1.0679134982793181e+04 2.2617946335678062e+03 -2.1738456586969696e+03 3.6326702696268694e+03 -4.2310077511550617e+02 1.2908746021351428e+04 1.6176056641076000e+04 -3.0374803762207950e+04 -1.7332645404831501e+03 -2.4943285401439816e+03 1.0526678951647061e+03 -3.8676516351283062e+03 -7.2697990904724429e+03 -1.0281379228288773e+04 2.3281738281250000e+02 8.9792441664632406e+02 1.8202023734595964e+03 -2.3124259778134419e+03 -1.3393876268049889e+03 8.3821163943238980e+02 -3.8853700900010881e+02 2.7187737533425252e+03 -4.7997714176209265e+03 2.3257378577566351e+02 8.9794751283159712e+02 -9.2184333023104027e+03 -2.5115422868083770e+03 -2.0146324772293704e+03 2.6928757585513049e+03 -1.3426817296554800e+03 6.0522094573231152e+02 3.9053671009713435e+03 -2.1387302436820687e+02 -8.2418759972520638e+02 7.9555482478035537e+03 1.2312712167508425e+02 -8.7655289085255845e+01 7.5501183524469775e+02 1.3093384153429652e+03 -6.8422227788033342e+02 -9.3719629376269513e+03 2.3346875000000000e+02 8.4206288089464942e+02 2.0573851091226243e+02 8.3253170346304705e+02 3.3679975673356876e+02 -6.4338712794007142e+02 -3.1447866851650178e+02 -5.5014863570319449e+02 -1.2621749795231735e+03 1.5482238305993371e+02 5.9075646212755237e+02 -2.2576083044191018e+03 -6.4838569075147825e+02 8.6183111422249340e+01 -2.2050601019476248e+03 -1.1678943242510431e+03 9.8301498918306970e+02 1.1298478115395454e+04 -1.2821302543881518e+02 -5.2850593987078173e+02 2.1900179346117813e+04 6.5320532492644497e+02 6.3294524696948156e+02 -5.4415609572232540e+02 -4.8917049091949593e+02 1.7679310440445352e+02 -5.9732018167487695e+02 1.3787195499800714e+02 5.2403578217152972e+02 -1.1282823957181286e+03 -1.0295893445433662e+03 3.3928524118252903e+02 -1.3141514333456144e+03 -1.1155514493859373e+03 2.5225582291239425e+02 -1.0740515895452118e+04 2.0365808105468750e+02 8.5300325524323853e+02 -1.5816017308302742e+03 3.7338081973519559e+02 -8.3900776415007044e+02 -5.9805450349299338e+02 2.0540694359311419e+02 1.2970361943068201e+03 6.1747410048398251e+03 -1.9700000000000000e+02 -8.1363816465274431e+02 -3.0097825536398835e+02 8.1728424251012973e+02 -1.7575130779353685e+02 8.2243727041845887e+00 6.1887928266814561e+02 -1.3683253604354863e+03 9.2408026838053484e+03 -2.3344531250000000e+02 -1.0370095610618591e+03 2.2435001235277491e+02 -2.7695047375051308e+02 -4.0365440175694846e+02 4.2768827514327540e+02 7.1978073131805286e+02 -7.5002331815956313e+02 1.1098507360416465e+04 -1.2297656250000000e+02 -5.0731193829177937e+02 2.1790272236025012e+04 -2.9156849488141734e+02 1.5279155020519693e+02 -1.2338433341163470e+03 -5.0535353531216970e+02 7.5959375406335835e+02 -3.9032198412795551e+03 2.1230468750000000e+02 8.1699427237361670e+02 -1.2367092453045891e+04 1.9197572671426965e+03 -1.1073948496759203e+03 1.7831966427092207e+03 -1.3024667259593843e+03 -4.4859716042341461e+02 -4.7356872587148100e+03 2.3455957031250000e+02 8.9896161360573024e+02 -8.8937547824403373e+03 -1.0975809744598519e+03 6.7858947533115952e+01 -1.3128986452277825e+03 -1.3503275433145463e+03 9.5845600370543252e+02 2.6813597884657291e+04 7.3785549694253132e+02 9.2992783603083808e+01 1.1746890176646411e+02 -2.3193500661340458e+03 4.0240856163948774e+02 7.5422176689856151e+03 -7.4345061032241210e+02 -4.6320513623948500e+01 1.8529540341696702e+01 -7.1980468885087794e+02 -4.2750729784625582e+02 6.1151075257802586e+03 -7.4345061032206286e+02 -7.6660183715619496e+01 1.3762770004570484e+01 -8.2856615487906311e+02 -4.2574164240062237e+02 3.5979344649691939e+01 7.4343331119418144e+02 2.4380266802337474e+01 2.5253478735095996e+01 2.4094769074172405e+01 2.7855733637866797e+03 -2.1440169537439215e+02 3.7172732122242451e+01 -4.4463118357352505e+02 -5.2713532359213714e+03 -9.8213519928634014e+01 -3.5848945392388850e+02 -6.4222036902233413e+00 5.8452391359582543e+02 -1.3449127532845012e+02 -2.3550690829278901e+03 4.8345475488567104e+01 -1.3053838845435530e+03 -1.8249619519139742e+01 -6.5657061965478715e+02 1.2264421983000511e+02 9.0178165919408639e+02 1.8112881883718046e+02 -1.0453689116462265e+03 -5.2708492601477701e+03 7.4360629962757230e+02 9.6617019215629625e+01 -3.6849643141031265e+00 8.1748085703388824e+01 4.2226469957083464e+02 7.6247242137962473e+01 -7.4805540663003922e+02 8.4212263946019448e+00 5.6563732353318483e+02 1.5708560691958337e+02 -3.8510261109098792e+01 7.6440568349569912e+03 -7.4345061044394970e+02 -4.6179017310042127e+01 1.8867274545133114e+01 -7.1980468885087691e+02 -4.2750729851797223e+02 -2.9672528445770467e+00 7.8919322346586881e+01 1.2684091640516158e+01 -7.3330334891656094e+02 2.4632393983816598e+00 -4.0319693979481599e+02 -2.5677668653477565e+02 
      </Row>
      <Row Index="11">
        1.8776566309750899e+03 -3.0809217075013294e+04 6.0878285697993299e+04 -3.0849513537373955e+03 9.5935729935821291e+03 -1.6848870273308887e+04 8.6786346969825245e+03 -8.1169350578425856e+03 8.7396018702869751e+03 5.0554147929289229e+03 8.0081716345616005e+03 5.9665843223142740e+05 -9.4032278906913547e+01 -1.9106008895047165e+04 -3.8272464309250936e+03 -5.4884861025552709e+01 -7.0319456787246500e+03 3.3989202224365581e+04 2.1584921547155449e+04 1.1813744791021423e+02 -4.7147487198180193e+02 3.8449390205669125e+01 -1.2474269812967279e+04 -8.8933148214162320e+03 2.7293624228322960e+02 3.3196946735579448e+04 1.0792246512630954e+04 -1.0389597960102567e+03 4.5512829746986690e+03 -8.5190037978620094e+03 -3.2603156221180820e+04 8.3778017569823578e+02 4.7524830152218783e+02 1.5465325132047246e+02 -6.7499800987000708e+03 -1.7971661763373078e+04 2.4486390214297903e+03 3.8884191834716024e+04 -6.7557953238403425e+04 -4.0685465854962517e+03 -2.5078540917230741e+04 -9.5122741504982114e+03 2.6540648824283169e+04 -6.6353787762577867e+03 7.9229050694333700e+03 5.2406713957364345e+03 1.9504473967930826e+03 4.1150608479340776e+05 1.1240300328089848e+04 -1.5212622070312500e+02 -8.0014579693297856e+02 2.3594980526765557e+03 -1.1394021978080887e+04 -1.3266026076045267e+04 8.3708547748740966e+02 1.8851573758084414e+03 9.5942442022161104e+03 8.1190324459855765e+03 -1.5211784879488641e+02 6.7667317942142836e+02 2.7826410475066077e+03 -8.0011798958940199e+02 5.6347922196168583e+03 -6.1953964367526060e+03 -6.7820812319657998e+03 7.0448218638652054e+02 -7.4705378506297711e+03 1.4003174522727613e+02 -7.3725775025659823e+02 -3.3114213980854038e+03 2.2752302890250494e+03 -7.0196636755577583e+02 1.0215944927145489e+04 6.8834573390396545e+03 -8.9050828709764210e+02 4.6854007019451819e+02 -1.4980957031250000e+02 -9.4389387560393880e+02 -1.0209881023114867e+03 6.5288177809311928e+03 4.5798774028521439e+03 -5.3859437225690963e+03 3.0566812690218212e+03 -1.2215092045292986e+03 5.7781447377414152e+03 -1.0185026044167296e+02 8.9113146642228821e+02 -1.3954698492171447e+03 1.7835740457746400e+04 6.5636862493241815e+03 -4.6850742725839773e+03 -6.9992378378291614e+03 4.3770518782450381e+02 -2.3649268727896269e+03 8.1205864078809952e+01 1.6065811678019891e+03 -1.6777238927602895e+04 2.3914507615624410e+04 7.0081225499329648e+03 1.6061941114703950e+02 -7.3906607794484298e+03 9.3273546856982284e+02 5.3220114219711395e+03 -9.0860094140822184e+01 9.1908660027105361e+02 -1.0864803381848251e+03 2.8264898980943482e+04 1.3723916204762927e+04 5.7937036003346611e+02 -6.9449838418066502e+03 1.6700781078405053e+03 -4.0122140123317949e+03 -1.3030862998962402e+02 -1.5691144899397295e+03 -2.0919244416413130e+03 -6.6345826110028365e+03 3.9697455799829777e+02 -1.2638748741189120e+03 5.0530482313508219e+03 6.8887931817630888e+03 3.7467316439111601e+03 1.2162500000000000e+02 3.4915730817549047e+02 -1.7859345113052957e+03 -5.2172997243942691e+03 -1.9934273758585114e+03 -3.0471632372370522e+02 9.5774138170680817e+02 -1.6793545733496535e+03 -2.1426193361826648e+04 1.5420507812500000e+02 1.7848493683990091e+02 3.4167697098740900e+03 -2.5486219969952654e+03 -4.1606684134371162e+03 4.7041066367293861e+03 2.7143099505510181e+03 -1.5938682215226981e+03 -2.2241680028326809e+03 8.0281250000000000e+01 1.5985654088556767e+03 -1.6937808438917735e+04 2.4369781117215687e+04 7.3011956268769572e+03 3.8651888555078303e+03 -7.4164176690625027e+03 2.5462571043207254e+02 7.2656732504516840e+03 -1.3943750000000000e+02 7.2159423106908798e+02 1.8999390335465680e+04 -1.2008860752932771e+05 -4.2173025918252839e+04 1.4157946813934674e+04 -6.7516305390102789e+03 1.1528249733287957e+03 8.0399464342594147e+03 -1.6388281250000000e+02 6.9215006526559591e+02 2.5525388090933266e+03 2.5420568837403080e+04 7.8841195885279758e+03 3.4483014294081568e+03 -6.8883375493586063e+03 4.8371258947589376e+02 -2.0565041722074442e+04 1.4546943368092179e+03 5.4412546381994616e+01 1.3907522743716836e+03 3.5792106042927626e+03 -1.8622943040281534e+03 -4.1264607162013235e+03 -1.4728280407581478e+03 -8.5375358373508789e+01 -1.4750430285930634e+03 1.2586376623178294e+03 1.9621435920596123e+03 -3.4435065224874998e+03 -1.4728280407555867e+03 -1.3444579346710816e+02 -1.4712696987206582e+03 -1.5220560185125578e+02 1.9590327134483960e+03 -3.3269613267859688e+02 1.3432641242742538e+03 6.6741440793076390e+02 -1.2851534264962993e+02 1.5103294719600890e+03 -6.5434151002637227e+03 1.7804954478192631e+03 2.9944051456384841e+02 -1.1823173381363886e+03 -1.9714900527275950e+04 2.9861121686965707e+03 3.5168114220249699e+03 7.2428323714852922e+00 -3.8517841750079024e+03 -3.4628061526471174e+02 -2.4747739472368907e+04 -3.3756952921386346e+02 -6.0023507687437814e+02 1.3187273400868798e+02 -8.2508327608635063e+03 -3.5310832186137912e+02 2.0725766450688196e+04 2.3809931041869925e+02 -8.0401135630517820e+02 6.8704770783244603e+03 1.4737669324825983e+03 1.1678845749582797e+02 1.4611406586468220e+03 -5.3206775946629241e+03 -1.9392244825363159e+03 -7.0704850101074044e+01 -1.3489802913665771e+03 -3.7168469436143147e+02 4.5411229356452823e+03 4.6220127933040203e+02 -5.5452659401483834e+03 -4.1933117664721885e+03 -1.4728280407190323e+03 -8.5306326339637963e+01 -1.4752613632529974e+03 1.2586376623178885e+03 1.9621435920298100e+03 -8.4768655163550193e+00 4.2770760923663119e+02 5.0789278486954572e+00 -1.3166101994621567e+03 2.0208879984426042e+00 -1.0076990620477591e+02 -7.7934511224073481e+02 
      </Row>
      <Row Index="12">
        -6.9221353357246230e+01 -2.2011739312262392e+02 -4.9834248339771662e+01 -1.2208316561809440e+01 -2.9444704615764365e+00 2.3064646443008904e+01 3.8448849350533479e+01 -1.0251518325912116e+01 -1.8614045917235421e+02 1.9470576203672202e+01 2.2839923046099049e+00 -9.4032048746242253e+01 4.5966556221411068e+00 8.6695289913703633e+01 -5.5916854169080796e+02 1.0684575781560586e+00 -2.5539717435863615e+01 -2.2164465983054436e+02 2.0770290134213684e+02 -6.8731171344361053e-01 -2.3219323527975892e+00 -2.1271446207302205e-01 -1.8051650697652425e+02 -7.2079257209312672e+01 1.5207643849492921e+01 3.0569047911402976e+01 2.0868770338044141e+02 -2.1610029978296827e+00 -1.6059220579801782e+01 -8.2860969764469473e+01 -4.3461607762530740e+01 -1.1129135723858941e+01 2.9754223327097733e+01 1.1346459135853557e+01 1.6969709156385132e+01 -1.0122661972283140e+02 -7.5812859141249959e+01 1.7904242224662542e+02 4.8924922918818737e+01 -1.6557224977985733e+01 -6.1331307858050046e+00 -4.8697574055989492e+01 1.0694591539287899e+00 -1.7593147396903845e+01 -1.5214503391148554e+02 2.8089252399718163e+01 5.7728864811909402e+00 -2.2348555695062288e+01 -6.5576609234618161e+01 -1.2241461873054504e-01 1.7082199227855277e-01 3.0375964542403921e+02 9.0169030152121241e+00 1.8738191217377761e+02 -1.2665791889822172e+02 -9.4381411810884686e+00 -2.1976207635249497e+02 1.4234802658433770e+01 -1.1246357819073083e-01 -8.3254664940312821e+00 3.9567609924138637e+01 -2.2871672673871814e+01 -9.0879214537447837e+01 9.0228247637281669e+00 6.1431256636058620e+01 -1.2885636017845698e+01 -1.4474934780828875e+01 1.0314491504294337e-01 8.3018942867953456e+00 -1.8069514385499218e+01 1.9926308104788255e+01 -9.5460826148460853e-02 1.4495998216116067e+02 -6.2232200254552623e+01 5.7688155018573379e+00 -1.4799288713948664e+02 -1.1067046970129013e-01 9.1370047113283661e+00 -8.5106382873730496e+01 8.2792985686807938e+00 -2.9294851763640999e+01 2.0455734268883603e+00 2.4674992883125014e+01 5.1859582169999911e+01 1.3449711121842824e+01 -7.3756365236067767e-02 -8.2001735228075745e+00 1.6661164271877340e+01 5.0293817609674889e+00 9.8371245747816527e+00 -6.4338092666009345e+01 6.2340904262271323e+01 -3.4994056183646265e+00 7.4708926832627185e+00 6.7047211013688934e-02 -7.6299997277027671e+00 -1.1722021407633338e+00 -4.8159275203645926e+00 1.8217635600681682e+01 -1.1116135447962705e+00 6.1482835447730778e+01 -1.4900852216257501e+01 1.3521341669184494e+01 -6.5379130936323526e-02 -8.1307093852626622e+00 2.0804031649932071e+01 2.9714781491301210e+01 4.5129487062269661e+01 -1.5514494368439011e+02 6.1348437259002822e+01 -3.8501775901975705e+01 1.9515849177474138e+01 -1.1023974418640137e-01 1.5077340932613822e+01 -1.3365030589810551e+00 -1.6194407015836784e+01 -7.2834345218811585e+00 6.2134371453316533e+00 -1.7612937648681282e+00 -7.0616277810519819e+00 1.3904064528437402e+01 7.4707031250000000e-02 -7.9293411806401366e+00 -1.8184448196160712e+01 -4.0531019300461708e+01 -1.8729028845110204e+01 -3.3050120131387615e+01 -4.0282942976578283e+01 2.8713403939600497e+01 -6.0673111601569047e+01 1.0088539123535156e-01 9.5381041098435162e+00 1.9072215488901239e+01 -1.1679385997261228e+01 -9.8570160156028521e+00 4.9587803875669998e+01 2.0841966913006445e+01 -2.3589728786076492e+01 7.4140113481089429e+00 5.7434082031250000e-02 -7.6406691665550852e+00 5.5498864652058728e+00 4.7981595523288334e+00 2.0862026236380451e+01 2.6238613660122208e+01 6.1902270337537857e+01 -7.9414065039142923e+00 1.1339102312869727e+01 -1.0888671875000000e-01 -8.1168459119053296e+00 -1.3285186445669410e+01 -8.1653633913748763e+01 1.9802406569655773e+01 2.0728430266033556e+02 6.1362726173135343e+01 5.5157541774548548e+01 1.5217575550768743e+01 -1.5360260009765625e-01 -8.3566407016915036e+00 2.0016141958086642e+01 1.7326801156636016e+01 3.8601265793526771e+00 2.4282385607958489e+01 6.2471506530375336e+01 -4.4181731519180545e+00 -2.0561447174093260e+01 4.0070108421714394e+00 5.8601104872237499e+00 7.7380137655782164e+00 5.6216885709904432e+00 -5.8747502678306773e+00 1.6667539435135605e+00 -4.2002893728404160e+00 5.7949088705203167e+00 -6.6266911069396883e+00 1.4780303265832572e+01 5.4382913715239738e+00 1.3329238278266985e+01 -4.2002893728151776e+00 5.7337758951175601e+00 -6.6498635249299696e+00 1.5830183111433968e+01 5.4899555253023209e+00 -2.7152342368413054e+00 4.5846615333866794e+00 1.5827936693257728e+01 -7.8799030043925313e+00 1.0564233142153496e+01 8.4747795078176097e+01 2.6465922083180047e+00 -1.1079315818474797e+01 3.7145406591439240e+01 4.4134556944811678e+01 2.3320623040176258e+00 1.4018291613406291e+00 -3.3432618596271091e-01 1.4518116378609534e+01 2.0204276247779173e+01 -5.4887857630982197e+01 -3.0790814311340498e+00 -1.2270569161399862e+01 1.6965654302868245e+00 -4.0130576357546577e+00 2.1182535996698867e+01 3.4559333483976360e+01 3.0413745379748454e+00 -5.0969488536185580e+01 3.3705350541106839e+01 4.2087377898531031e+00 -9.2401521211165516e-01 6.9095686158398166e+00 2.8242196705252070e+01 -5.4996042214334011e+00 7.6021809460609546e-02 -4.4388291705399752e+00 2.5165706983355463e+01 -4.3350200039143601e+01 4.2304815026524949e+00 -8.7692807001512847e+00 1.6022159619520266e+00 -4.2002893737517297e+00 5.7945987426587626e+00 -6.6268634482694324e+00 1.4780303265832117e+01 5.4382913956360426e+00 3.1001707082993502e-01 -3.3286884831797714e+00 -8.6571572588776236e-02 1.0152048366492181e+01 -4.3854210498342018e-02 4.1647204459355294e+00 2.3317315569846109e+00 
      </Row>
      <Row Index="13">
        -1.7453120421223241e+04 1.5063798775499000e+05 1.9048586269306608e+04 -7.7579637293456562e+03 -1.1791379232609406e+04 -9.2318986041144271e+03 3.4684061294738895e+03 1.0795233669953537e+04 -3.7492086036439723e+04 -6.0402255726484168e+02 8.5822349072695688e+03 -1.9105588258329222e+04 8.6696480655465734e+01 4.9145341125625756e+05 -1.1143023468503497e+05 4.8524410212201019e-01 1.4080235369377751e+04 -7.9660909152118256e+02 -3.6050405565473025e+04 -3.2040544457270380e+02 4.2741181145421461e+02 -1.0356194962235024e+02 -6.1513597641888555e+03 2.0583775337270799e+03 3.3185266906870911e+03 -6.5726206254420234e+04 -6.1747656639344190e+04 6.8065443303601114e+03 1.7392317855855959e+04 -1.0175004289412085e+04 -8.2189546891252539e+03 -4.0470689447315553e+03 2.2365456177666150e+04 3.9366142630810864e+03 1.1169435220371377e+04 -4.3219591290887416e+04 -1.9236755020668414e+04 -1.2881169655570327e+05 -2.3220012768996545e+04 -1.5728449641033419e+03 9.9156176534540318e+03 2.1726433099905764e+04 -6.2377045016000920e+03 6.2881521271864985e+03 -1.4560409979517730e+04 2.9208267409162240e+03 -1.5033046873270914e+04 6.6734679667293007e+04 -6.4501034850979049e+03 -6.5075683593750000e-01 4.6518812495543307e+02 3.4382829924683399e+04 3.3603934774380305e+03 4.1179645480204381e+03 -2.9630078689451020e+04 -1.2599274601696306e+03 -1.0840935065520040e+04 -8.9679875799039692e+03 9.6178511369890884e-01 -2.4380347292026563e+03 -4.7435102738191563e+02 6.5935786346680252e+03 2.3832371119566953e+04 6.0877599970180265e+04 1.0102409890465031e+04 1.7967416383206391e+03 9.7844015135393711e+03 -1.5646543709801790e+00 2.4636141739208761e+03 -5.0407734286128025e+03 -8.2581860487571066e+03 -1.0172389082416084e+03 -7.3485607221997241e+04 -1.0515780636289684e+04 1.5302087501324577e+03 -4.7971106982717902e+02 -2.3181762695312500e+00 6.0884330523050448e+02 7.3531045189156357e+03 -3.9695484465926493e+03 2.0210419840334755e+04 1.8632709963785564e+03 -8.1729809173010290e+03 -9.8728916834610282e+03 -8.7174026347519830e+03 3.3978838101569551e+00 -2.4622027566081088e+03 8.5766335369039143e+02 -2.5713573796143864e+03 2.1061842032701661e+03 2.6359885494464248e+04 1.0027283031537692e+04 -2.6184733675360967e+03 -8.1923083930906141e+03 1.1961322517418566e+01 -2.4106336627763812e+03 9.2521517473395561e+03 -1.2649782807473366e+04 -5.1808958071383458e+03 -1.9794834622037899e+04 9.5900213503757186e+03 5.2706116684175295e+03 -7.7407008105947752e+03 3.7805215463703803e+00 -2.4291514311069041e+03 3.7906141993877609e+03 -1.6575852960928598e+04 -4.3488630920575106e+03 -1.5512707171677399e+04 9.5422222829202656e+03 2.7145712449048997e+03 1.3617824482873082e+04 -1.8490234375000000e+01 1.3070993896429864e+03 9.6018084921254413e+03 1.0642025522514980e+03 -1.4115367987837832e+04 -9.4599402472527472e+03 -1.4682350407560582e+04 2.0157758757002957e+03 -1.2164318869609269e+04 6.6875000000000000e+00 6.2325380831143411e+02 -7.8162597464997170e+03 1.6610697400987006e+04 1.8025422055627969e+04 1.1911041740864248e+04 1.7479014353585662e+03 -1.1876628006085650e+04 9.8128129161678953e+02 -2.1552734375000000e+00 7.9381011228077114e+02 2.5937560320538205e+03 2.7954016031098076e+03 -4.6057427801514013e+03 5.3953473981633824e+03 -9.1940062063902151e+03 -5.3830049918530176e+03 -8.1960857997108251e+03 1.2035156250000000e+01 -2.4234578792871325e+03 2.5212896257830034e+03 -1.2405806270219367e+04 -2.8309892440658723e+02 -1.8172513433856409e+04 9.6157786676272517e+03 1.0601232595268921e+03 -1.3284126328960992e+04 2.0000000000000000e+00 -2.4261761334240437e+03 1.2541721582694707e+04 3.9246109337604168e+04 -2.1164489005766114e+04 -1.2309706914785833e+05 1.1944230282704193e+04 -1.1346404002455063e+04 -7.7395960177220404e+03 5.7812500000000000e-01 -2.4722203932404518e+03 2.1493353288470462e+02 -1.2744993411584146e+04 3.4325534800545811e+03 -1.6837355456285004e+04 9.6606839096676558e+03 -2.7921257488362535e+03 6.2687666913850335e+03 -1.0638510844260687e+04 -2.0136498562943307e+03 -6.1351487792916596e+03 5.8167989547210891e+03 4.6145320896804333e+02 1.6735087095075869e+02 1.0814374219509540e+04 6.7997084839576564e+02 1.0738322028685361e+03 2.0527310690139711e+03 -4.2192085398174822e+02 1.7357274290702480e+03 1.0814374219513498e+04 7.4551180453188499e+02 1.0787165339142084e+03 4.0394793843942098e+03 -4.2573956504033413e+02 2.0825750995864228e+03 -1.1061406992912292e+04 1.4830886191827051e+02 -7.8066961242539401e+02 -6.8555099947769031e+02 -7.5210283304096665e+03 -1.9486513454244723e+03 1.0301036973303824e+04 5.2573208334861938e+03 4.9144348393650616e+03 -4.0521069785241179e+03 -8.8876536824757932e+02 1.9017847903982511e+02 -1.8457179634123553e+04 -6.6963024159573251e+01 -1.1198039195502570e+04 2.2521645741791508e+02 4.5253378901071846e+02 1.6871760584443109e+02 -7.7832786248009652e+03 2.1221146496302340e+03 2.0880687616308653e+04 -6.5744654607268080e+02 5.3553485220358561e+03 -1.6198939227698138e+03 -1.0808305108709843e+04 -6.7882736279359233e+02 -2.2588944742083549e+03 5.6367160685863128e+03 4.2679485511779785e+02 2.1643984817529708e+03 1.0937477134704590e+04 -7.9830917736380218e+02 1.1948242287245579e+04 -1.3987819299273397e+03 -2.9172195926308632e+02 1.6409596182321548e+02 1.0814374220550060e+04 6.7918395627443533e+02 1.0738217460215092e+03 2.0527310690139348e+03 -4.2192085115052760e+02 8.4828023783447861e+00 -5.5772267756167994e+03 -2.2443652436077059e+01 2.1735145637263195e+04 2.5825769511091025e+01 8.0268609745865833e+03 8.1682836885712104e+03 
      </Row>
      <Row Index="14">
        1.3973516074655394e+04 5.8810205717648372e+04 4.0362020164895301e+04 9.0696260980164443e+03 -9.4300413074214866e+03 3.2154661070198465e+04 -2.1444962496862965e+04 -5.4947515118661786e+03 3.6541009479772911e+03 1.8717903932726999e+03 -1.0202738825096912e+04 -3.8272289367366175e+03 -5.5916560215681909e+02 -1.1142909179146806e+05 4.5548040332999069e+05 -5.1919159725105487e+01 -4.1547692662619360e+04 -8.3018218233671156e+04 -2.8409348584160492e+04 1.0035103276127982e+03 -1.1670333424867354e+03 1.5831429154098177e+02 1.1253127323139677e+04 2.0513461529649689e+04 -4.2414862633764023e+03 -3.5602284009361669e+04 -4.6634447845062678e+03 -6.8324284213419633e+03 4.4011575924689278e+03 -3.5783284237762273e+03 -1.6717679114555860e+04 5.1069157721802394e+03 -1.1471498436412166e+04 -3.8574801833521542e+03 -8.7632868705615238e+03 2.7052714327884052e+04 1.5343849195395345e+04 -7.0510648136942385e+04 -3.7767793388508639e+04 3.3518242712328665e+03 1.4222918730117370e+04 -3.1886975464730149e+04 1.4910950323178957e+04 -1.3227001054914599e+03 -9.2511586789883822e+03 -1.3216370865163005e+03 1.2372597815982805e+04 -2.9005096938321047e+04 -1.4260833617529715e+02 4.0148193359375000e+01 -2.5685157491321388e+02 -3.1581474496109226e+04 1.0154769492810798e+04 -1.1934044844721657e+04 3.2654458952453981e+04 5.5267528265569126e+01 9.0500936725590291e+03 -2.5069145900078424e+03 3.6320275305891130e+01 1.7976689109997733e+03 -1.5383893130520100e+04 -1.3231577112079085e+04 -4.2396784017452366e+04 8.8579651520403029e+04 -3.4804494203724607e+03 -3.9409201263445912e+03 2.7666934310484212e+03 -3.3350740245200342e+01 -1.7963223567719397e+03 8.5890909269355379e+03 -5.5729638216992207e+03 3.6995149860353658e+03 -4.1368194188150112e+04 3.3278725335690542e+03 -1.6261466414025326e+03 1.1723346380510367e+04 3.5735839843750000e+01 -1.8210926656381525e+03 -1.0586237184007914e+03 -3.6575360501894902e+03 -1.3784653233831114e+04 -1.3533081623343969e+02 8.2416703957132995e+01 3.4927930376459335e+02 -1.8560779467337998e+03 2.3985084270202492e+01 1.7633155975565896e+03 -5.2436949541554404e+03 1.0267532054224470e+04 -3.3672707047433214e+03 5.2894732246540898e+03 -3.5350657602164429e+03 1.7831808621929049e+03 5.4370896633487428e+02 -2.0898069787188689e+01 1.5796226113039302e+03 -9.3959319560363565e+03 7.5957539908138087e+03 -1.1784878318887364e+04 1.4366165027632298e+04 -3.5791133487868938e+03 6.2341958334851734e+02 -1.3626271104170592e+03 2.1306397211446210e+01 1.7408932852076832e+03 -1.3527954559308881e+04 1.0574111612372666e+04 -1.1169756735586685e+04 -3.0425805370221606e+03 -3.6729154379814863e+03 2.3290986245354816e+02 2.0618492973107146e+04 4.3408813476562500e+01 -2.5328933241707273e+03 3.0015975099572825e+02 -1.3356531069629425e+03 6.1164288113004241e+03 7.8266384127802849e+02 6.0109551077812939e+03 -2.6306911992296373e+03 6.2179742863333959e+03 -1.5343750000000000e+01 5.8901570120798715e+02 -8.6887998613225827e+03 -3.4916324148608660e+03 -1.1929252452573615e+04 -3.1870942325253491e+03 -2.1641139782575192e+03 2.0844632427286208e+04 3.1420046484537095e+04 -4.2627929687500000e+01 -2.1439910387378186e+03 -2.8404545709612153e+03 6.1219961298103544e+02 6.0956054804611085e+02 -6.7074187437925630e+03 -4.4794446433894336e+01 7.1291675280588388e+03 5.0968965109065175e+02 -2.0187500000000000e+01 1.5862099720576662e+03 -3.4307286680960678e+03 6.1799342649931286e+03 -2.6918230149934489e+03 -4.1054191025052860e+03 -3.5876722778276308e+03 -1.8766059792134183e+02 -4.2952939639091492e+03 3.3570312500000000e+01 1.7584392774049193e+03 3.1413362610624215e+04 -2.1498894456121561e+04 7.2842373136840499e+04 -1.0288043719494269e+05 -2.5338021016780403e+03 1.4686275483676873e+03 -2.0082143420395441e+03 4.1747070312500000e+01 1.8128405019156635e+03 -6.9487530353120183e+03 6.0112470702150140e+03 -5.5463392365608670e+03 -8.0781762294888558e+03 -3.7309960539145395e+03 2.0160393321143983e+03 6.7385566923125007e+03 -4.3268865505978465e+02 4.2853447692023183e+03 4.4079301291070879e+03 -2.6170552128301741e+04 -5.1106809096187353e+03 8.4776426170869672e+02 4.9119533299515024e+02 2.6026167755099314e+03 -6.7999618509211577e+03 -7.1744329323645361e+03 5.2445189761910588e+03 1.2433722107882204e+03 4.9119533301237971e+02 1.8766801668786211e+03 -6.7937677601366304e+03 -1.1169847246407582e+04 5.2314347919877619e+03 -2.2624317533542262e+03 -7.1537748777866364e+02 2.0603292186002291e+03 3.2084383560429560e+03 -1.0873062686337671e+03 -2.2380473974082619e+04 -6.9572715119660825e+02 -1.8622573182289489e+03 2.5333872484080216e+03 -3.5355498671562964e+02 -2.2358165957413639e+03 -7.6647985006812960e+03 -1.1346716558534581e+02 2.7199009962748969e+03 4.7178780552142484e+02 -2.8436836698194209e+04 -1.0687940435188093e+03 5.8650838207546622e+03 -3.8839345068088733e+01 4.4098622472356074e+03 -2.7397687706728111e+03 -4.5744004908391908e+03 -1.2964836311717177e+03 8.2792533509798086e+03 -1.2382495197647368e+03 -4.8537147438793909e+02 -1.4141744289241615e+03 6.2322057633697987e+03 4.9554904559773195e+03 -5.2348635301589966e+03 -7.6823127947364083e+02 5.2808364325761795e+02 5.5198924422873529e+02 2.0824486081805080e+04 -2.0343710583697684e+03 -1.4109839106909931e+03 8.6450091452363995e+02 4.9119533205032349e+02 2.6026381372398828e+03 -6.7999081458076835e+03 -7.1744329323643688e+03 5.2445189668089151e+03 -1.7627117393144999e+01 -1.1780303713714161e+03 1.3965001738313276e+00 5.5724143298217095e+03 -2.6474153213617740e+01 3.0931013878059457e+03 1.2968131593648880e+03 
      </Row>
      <Row Index="15">
        1.0304346781659436e-01 -5.0463511296151559e+01 -6.7309738588267408e+01 2.0556956892259720e+01 -1.6138683545399235e+01 -1.1454724137630947e+00 3.0771860168303899e+01 -2.5912450334919995e+01 -6.2888127271378977e+01 -3.9342138236394575e+01 2.0662379629354470e+00 -5.4884259942574886e+01 1.0684607597037992e+00 4.8920457781798810e-01 -5.1920700655917415e+01 1.3081125168078724e+00 -1.1730206393369070e+01 1.1977367190738570e+02 -1.2160909866225873e+01 -3.7583992171318420e-01 -1.3807171371628142e+00 2.1175304414787657e-01 -3.2252077924375023e+01 5.3398711122635902e+01 1.7285129699296884e+00 -2.7929692775748379e+01 -6.7402130579486283e+01 -5.7708268500403896e+00 -1.4683422264847884e+01 4.9710339842041328e+01 3.2515974171523318e+01 -1.9060475742059402e+00 7.6151298929628979e+00 -8.4457449504177848e+00 -3.4591718973571206e-01 -6.1077518122010915e+01 -3.1608258463068193e+00 5.8864217873065272e+01 9.4224797517336100e+01 1.5354232462212984e+01 2.0156353591396297e+01 1.5613408063336081e+01 -7.2065457497772499e+01 -2.7117978920087641e+01 -5.4621213870567217e+01 -4.6929928883552158e+01 -4.0207294945929473e+00 9.8184369308270618e+01 -3.0456614460043681e+01 2.1383523941040039e-02 -7.3420203165255060e-01 4.2315605746208725e+01 4.3259513350281942e+01 7.2867568009354002e+01 -1.0798991116593117e+01 -1.9592180214232236e+01 -3.7556633480087889e+01 2.3897639884078696e+00 1.8502077140159889e-02 5.0685587331362996e+00 -2.1350325798326924e+01 -1.0242400377796919e+01 -9.5767852635495778e+00 -4.3189273542296121e+01 7.8620957205000636e+01 3.2951101115005903e+00 -2.6563717412696022e+00 -1.7784650013419834e-02 -5.1377812045740399e+00 6.2552053048321810e+00 4.0455774269067257e+00 -7.7733865347579023e-01 4.4867357137624611e+00 -7.9491932355114400e+01 -1.4575903577068041e+00 -5.7149104925960280e+01 1.9103586673736572e-02 1.7083023704685267e+00 -1.5919209054469178e+01 -5.8691653587219061e+00 -6.2719901944199627e+01 4.9410106857490675e+01 -3.5866769106127094e+01 -1.0175163615838430e+01 2.6173216484831414e+00 1.5433445916548300e-02 5.1394714531449708e+00 -2.0157454547123749e+01 -1.2525968828146718e+01 -3.5397533331875115e+00 2.0113571392358569e+00 7.9723694395878908e+01 9.3577718141928301e-01 3.3367501665926511e+00 3.8975851279352269e-03 5.0486339041111563e+00 -4.1344116967568425e+00 -9.3858076961071770e+00 -6.9033013186764975e+00 -1.4233871955564737e+01 7.9242802560153009e+01 -2.2589638072877891e+00 2.8285838103214900e+00 1.4597324704083481e-02 5.0551515259085420e+00 -2.2503868560333899e+01 -1.2314267617619912e+01 -3.0371886446073599e+01 -5.0050074488762419e-01 7.8804476559580507e+01 -7.0185028009268047e+00 -1.0049846917508830e+01 9.9949836730957031e-03 7.2039497004176667e-01 -1.7024024463759830e+00 -3.0558349059337333e+00 -2.5609545562556661e+00 5.3180854289510471e-01 -5.1435050564359528e+01 1.6930467690718345e+00 2.6172639710725889e+01 -3.8162231445312500e-02 -2.9366290556287140e+00 -1.0946137937662051e+01 -2.4962561789343710e+01 -5.5414284958612772e+00 -1.0804464146995850e+01 -1.4001423648156049e+01 6.0979413076901325e+00 1.2117920019436308e+01 1.6541957855224609e-02 1.4323083256022073e+00 -5.3319791212840437e+00 -6.5442701597644968e+00 3.6705238983903904e+01 -5.0590008148285889e+01 -3.6913525994647443e+01 2.9244573789944226e+01 3.1222500408016458e+00 9.4833374023437500e-03 5.0836409288452273e+00 -1.2215559833698101e+01 -1.3892766977717134e+01 -4.9758789204237370e+00 -8.6133199865351404e+00 7.9609643383189450e+01 -1.5727403742868238e+00 3.0817482127749827e+00 3.2760620117187500e-02 5.0832462677699368e+00 1.4310208618490572e+02 5.5159487101899330e+01 5.3791454059430180e+01 4.5338060908722547e+01 7.8043743412494223e+01 3.7772075667985163e+00 2.3890893140533080e+00 -9.1264724731445312e-02 5.1525582110043615e+00 -2.6862897314734017e+01 -1.4377438643830244e+01 -6.6338204469556752e+00 -7.1315068403042128e+00 7.9760676114154194e+01 1.2110984965182325e+00 -1.0072382773187528e+01 9.2246297318197321e+00 -6.9362912922076703e+00 -2.6385692111765820e+01 -4.7971672156795208e+01 6.7245441207633121e+00 1.3620897340659184e+00 -9.1820821897845235e+00 -1.4522736700133052e+00 2.6577961117995983e+01 3.3491055907537230e+00 -7.0002714160582400e+00 3.5617587020615247e+00 -9.1820821898058966e+00 -8.0505413276830495e-01 2.6552969266667787e+01 -2.9689022984962090e+00 -6.9866356368758034e+00 -7.8224655134196386e-01 9.5817586041121103e+00 2.3833437290734723e+00 3.2209680238796025e+01 1.1557749686234873e+00 2.7331283644260111e+01 -8.2944680064069765e-01 2.3362958143894247e+01 7.4504310693027982e+00 4.2735554265295356e+01 -6.4402977356037505e-02 4.3022461109285359e-01 -9.3417250580802058e-01 2.9956578865150277e+01 -2.1070433064526992e+00 3.9437189338742819e+01 -2.9825003628759461e-01 -6.3050187816998005e+00 -6.1617531205972398e-01 3.1328512157882869e+01 3.6655024287756426e+00 1.1737483517498546e+01 6.1706800708452310e+00 -4.3728428761143050e+00 1.5128408200709998e+01 9.1857339113070680e+00 5.1792060684768160e-02 -2.6470860580331646e+01 5.1323005961487823e+01 6.9553624922409654e+00 -2.4397470850135354e+00 -9.6182210034457967e+00 7.4940951956097548e+00 -8.0279858669974942e+01 5.4992020882981265e+00 1.0339091107583954e+01 1.3769627886913725e+00 -9.1820821901783347e+00 -1.4531212294050704e+00 2.6577975776890526e+01 3.3491055907541778e+00 -7.0002714313741308e+00 2.4272467471193160e-02 -4.5553526320869073e+00 1.1062024482524840e-01 7.0339744113470317e+00 -7.9285756248144226e-02 -5.2469867099262046e-02 2.3421360610183224e+00 
      </Row>
      <Row Index="16">
