<?xml version="1.0"?>
<MethodSetup Method="MLP::MLP">
  <GeneralInfo>
    <Info name="TMVA Release" value="4.2.1 [262657]"/>
    <Info name="ROOT Release" value="6.14/00 [396800]"/>
    <Info name="Creator" value="riggi"/>
    <Info name="Date" value="Wed Aug 12 23:49:26 2020"/>
    <Info name="Host" value="Linux riggi-tpt460 4.4.0-116-generic #140-Ubuntu SMP Mon Feb 12 21:23:04 UTC 2018 x86_64 x86_64 x86_64 GNU/Linux"/>
    <Info name="Dir" value="/home/riggi/Analysis/ASKAPProjects/ScorpioSurvey/ScorpioASKAPCatalog/CompactSources/SourceClassification/MVASourceClassifier/train_last"/>
    <Info name="Training events" value="7311"/>
    <Info name="TrainingTime" value="3.77611343e+02"/>
    <Info name="AnalysisType" value="Classification"/>
  </GeneralInfo>
  <Options>
    <Option name="NCycles" modified="Yes">1000</Option>
    <Option name="HiddenLayers" modified="Yes">N+9,N+6,N+3</Option>
    <Option name="NeuronType" modified="Yes">tanh</Option>
    <Option name="RandomSeed" modified="No">1</Option>
    <Option name="EstimatorType" modified="Yes">CE</Option>
    <Option name="NeuronInputType" modified="No">sum</Option>
    <Option name="V" modified="Yes">False</Option>
    <Option name="VerbosityLevel" modified="No">Default</Option>
    <Option name="VarTransform" modified="Yes">None</Option>
    <Option name="H" modified="Yes">True</Option>
    <Option name="CreateMVAPdfs" modified="No">False</Option>
    <Option name="IgnoreNegWeightsInTraining" modified="No">False</Option>
    <Option name="TrainingMethod" modified="Yes">BFGS</Option>
    <Option name="LearningRate" modified="No">2.000000e-02</Option>
    <Option name="DecayRate" modified="No">1.000000e-02</Option>
    <Option name="TestRate" modified="No">10</Option>
    <Option name="EpochMonitoring" modified="No">False</Option>
    <Option name="Sampling" modified="No">1.000000e+00</Option>
    <Option name="SamplingEpoch" modified="No">1.000000e+00</Option>
    <Option name="SamplingImportance" modified="No">1.000000e+00</Option>
    <Option name="SamplingTraining" modified="No">True</Option>
    <Option name="SamplingTesting" modified="No">False</Option>
    <Option name="ResetStep" modified="No">50</Option>
    <Option name="Tau" modified="No">3.000000e+00</Option>
    <Option name="BPMode" modified="No">sequential</Option>
    <Option name="BatchSize" modified="No">-1</Option>
    <Option name="ConvergenceImprove" modified="No">1.000000e-30</Option>
    <Option name="ConvergenceTests" modified="No">-1</Option>
    <Option name="UseRegulator" modified="Yes">True</Option>
    <Option name="UpdateLimit" modified="No">10000</Option>
    <Option name="CalculateErrors" modified="Yes">True</Option>
    <Option name="WeightRange" modified="No">1.000000e+00</Option>
  </Options>
  <Variables NVar="3">
    <Variable VarIndex="0" Expression="peakSNR" Label="peakSNR" Title="peakSNR" Unit="" Internal="peakSNR" Type="F" Min="3.40282347e+38" Max="-3.40282347e+38"/>
    <Variable VarIndex="1" Expression="eccentricityRatio" Label="eccentricityRatio" Title="eccentricityRatio" Unit="" Internal="eccentricityRatio" Type="F" Min="3.40282347e+38" Max="-3.40282347e+38"/>
    <Variable VarIndex="2" Expression="areaRatio" Label="areaRatio" Title="areaRatio" Unit="" Internal="areaRatio" Type="F" Min="3.40282347e+38" Max="-3.40282347e+38"/>
  </Variables>
  <Spectators NSpec="1">
    <Spectator SpecIndex="0" Expression="classOutput" Label="classOutput" Title="I" Unit="" Internal="classOutput" Type="F" Min="3.40282347e+38" Max="-3.40282347e+38"/>
  </Spectators>
  <Classes NClass="2">
    <Class Name="Signal" Index="0"/>
    <Class Name="Background" Index="1"/>
  </Classes>
  <Transformations NTransformations="0"/>
  <MVAPdfs/>
  <Weights>
    <Layout NLayers="5">
      <Layer Index="0" NNeurons="4">
        <Neuron NSynapses="12">
          -3.3710421648836314e-01 5.5146899296382541e+00 7.4304403807043184e-01 6.6260987149665440e-01 -1.7105388724315695e+00 -5.9470210611104557e-01 -2.2295561903817562e+00 -3.4267749044880683e-02 -3.3429311222712901e+00 -2.4651379168358698e+00 -1.9029314798985897e+00 -1.4453580413238094e+00 
        </Neuron>
        <Neuron NSynapses="12">
          8.3219771171407253e-01 1.5987230975992237e-01 -1.2289200457429772e-01 5.0923842981410261e-01 -4.8246566752451020e-01 8.2570333103901317e-01 -9.0626132514116331e-01 1.0621264365792207e+00 -4.8641746723376150e-02 -1.6388055280809442e+00 3.7172410001920525e-01 2.6662043436984462e-01 
        </Neuron>
        <Neuron NSynapses="12">
          -3.7863976650638960e+00 2.1088107631950885e+00 -1.8413305367360788e-01 -6.1046610645277755e-01 -2.6046743244028430e+00 -1.8199550844728557e-01 1.3699791351111708e+00 6.3446815500059608e-02 -2.8587558541072484e+00 -8.2901303616642130e-01 7.8171979402614444e-01 6.5200381119352668e-01 
        </Neuron>
        <Neuron NSynapses="12">
          -7.1378535721058467e-01 1.6305990907186025e+00 -2.7956454221612328e-02 3.5701561957245892e-01 2.7839405410373314e-01 3.7698356574888553e-01 5.9301092244553832e-01 4.1408553272977605e-01 -3.7354033014459087e-01 -5.9573902708275761e-01 -3.2884782473618202e-01 -3.7482585420173287e-01 
        </Neuron>
      </Layer>
      <Layer Index="1" NNeurons="13">
        <Neuron NSynapses="9">
          4.5552860194571088e-01 1.2345431636284041e+00 7.4567746445162042e-01 9.7807123559333087e-01 -7.6302448418581148e-01 1.2245599544476899e+00 -8.6317004044148404e-01 -9.1520923328747417e-01 -1.9400054707737890e+00 
        </Neuron>
        <Neuron NSynapses="9">
          -1.5317052137315654e+00 4.2969878835139264e-01 9.1147767295544457e-01 -6.0212443056808396e-01 -9.0288558223738935e-02 2.4242832899193503e+00 -4.3348144093265623e-01 3.4087267220988027e+00 -7.6345428876490529e-01 
        </Neuron>
        <Neuron NSynapses="9">
          5.2342595579452826e-03 -1.0740545237170049e-01 5.2021944841655739e-02 -4.9799056476235287e-01 -7.1463709362393868e-01 -1.6272337127114300e+00 4.2317647435878569e-01 6.1804583701208327e-01 7.5715896110286340e-01 
        </Neuron>
        <Neuron NSynapses="9">
          -5.2690947575053482e-01 -1.0766000536157192e+00 -1.3580060950118722e-01 4.1549909626470299e-01 3.6639531790170898e-01 1.4169893650412106e+00 -1.9810659299160916e-02 2.2199793103261087e+00 -6.7824300945500501e-02 
        </Neuron>
        <Neuron NSynapses="9">
          -5.5764452389605634e-01 -2.1021971568620179e-01 3.6141271882121594e-02 -4.1622524440814962e-01 -3.6306077389502228e-01 -1.9050255303872756e+00 1.1113180805454939e-02 1.1241743144861780e+00 2.7865523137716850e+00 
        </Neuron>
        <Neuron NSynapses="9">
          -1.0042335189906411e+00 -7.3451140006778692e-01 1.0995630113590962e+00 -3.9404197260686902e-01 -3.2112918759269371e-01 2.3815308156020343e-01 -1.1335866658043270e-01 -1.5151290056836411e-01 -1.5073037556153839e+00 
        </Neuron>
        <Neuron NSynapses="9">
          7.2690922329775876e-01 3.1003296507279160e-01 -9.2493851468588694e-04 9.4404720541982035e-01 -6.0597827311643718e-02 7.1431322480190337e-02 -2.0267988982218815e-01 -1.4793857900871379e-01 -2.0118682099974436e+00 
        </Neuron>
        <Neuron NSynapses="9">
          -4.0207396319903288e-01 -2.3695107702380927e-01 1.1067859007859291e+00 -8.7355770709534364e-01 1.0373795398262613e+00 1.3246026554377137e+00 -7.4233009373512437e-01 1.8662640096573224e+00 -7.6388411645186960e-01 
        </Neuron>
        <Neuron NSynapses="9">
          -6.6751478955631904e-01 1.7359880712708287e-01 -8.3488347618921011e-01 6.7988156403633682e-01 6.6176667504239761e-01 -1.7133413858404953e+00 2.5082467511525192e-01 -6.0116945867196425e-01 -1.6546647813794413e+00 
        </Neuron>
        <Neuron NSynapses="9">
          1.0609059456832015e+00 4.1998831208449350e-01 -1.5961287452800050e+00 7.8048648751969862e-01 -7.2379576763517717e-01 -6.8963550724418399e-01 1.0532298989364690e+00 1.7152590993554881e+00 -2.0464083581966777e+00 
        </Neuron>
        <Neuron NSynapses="9">
          1.6991508323054966e-01 3.4144761123302558e-01 9.0482783758539120e-01 5.8029593661113113e-02 -2.8190262831780916e-01 1.0455670567019451e+00 -7.5228597650411055e-01 7.7990816785779105e-01 1.2422028853208744e+00 
        </Neuron>
        <Neuron NSynapses="9">
          -1.9263525780655671e-01 -3.9818821649576797e-01 1.8092649082119541e-01 -7.1430940743464588e-01 5.6315613453606450e-01 1.6607198683696367e+00 -1.8417279506285977e-01 -8.2693282427973325e-01 6.6302620094653442e-01 
        </Neuron>
        <Neuron NSynapses="9">
          4.7452925057365614e-01 -2.4294338927229689e-01 9.0399490866348287e-01 -3.7027816119764478e-01 1.0879210258046221e+00 1.4924096368693098e+00 3.5637233781618143e-02 5.4003466424750357e-01 1.6522144362940863e-01 
        </Neuron>
      </Layer>
      <Layer Index="2" NNeurons="10">
        <Neuron NSynapses="6">
          -5.8783357037668849e-01 8.7139389827521152e-01 4.7853209410603115e-01 -1.7790888456633810e-01 -4.5176640221854553e-01 1.1871551946746444e+00 
        </Neuron>
        <Neuron NSynapses="6">
          -1.9883428511350536e-03 -4.1091122457964391e-01 8.6683182803737768e-01 3.9018127072241798e-01 -6.6189681026904945e-01 3.7077149586235120e-01 
        </Neuron>
        <Neuron NSynapses="6">
          -3.6821720747164038e-01 1.2749329175818449e+00 -4.8395266727094594e-01 -1.0220600048024586e+00 5.2738072134941771e-01 1.8514007419307656e+00 
        </Neuron>
        <Neuron NSynapses="6">
          -1.7029192254470038e+00 -1.5555977384374708e+00 -1.3190897224952905e-01 2.4688120200460473e-01 5.3842801009808128e-01 -7.6824881181826093e-02 
        </Neuron>
        <Neuron NSynapses="6">
          -2.0377165976585077e-01 -4.3936576898380936e-01 2.3181965468810206e-01 7.0998653547909940e-01 6.0447458930592235e-01 2.5538226338110814e-01 
        </Neuron>
        <Neuron NSynapses="6">
          -1.5195839100073578e+00 -2.6463545486481070e+00 2.2918489860046962e-01 2.6505421880365271e-01 -7.2429776686645053e-01 -1.3011009149295261e+00 
        </Neuron>
        <Neuron NSynapses="6">
          3.7551220450288408e-01 4.9193996579006899e-01 -5.4033277089880616e-01 8.6752113762960026e-01 1.0140233834653756e-01 -3.5316246899867171e-01 
        </Neuron>
        <Neuron NSynapses="6">
          -1.7198289467475312e+00 2.2062386707468025e+00 8.5768149805569827e-01 1.5071152017507702e-01 -7.2563810090350211e-01 -7.9983019901171892e-01 
        </Neuron>
        <Neuron NSynapses="6">
          -6.6964428918265817e-01 2.6879590153226114e+00 1.5701974484718983e+00 1.9946253122980856e-01 -1.7344630718333343e-01 3.3783141838491297e+00 
        </Neuron>
        <Neuron NSynapses="6">
          -6.2975236852760386e-01 -6.4292074351137873e-01 -2.3949973474356445e-01 -5.6531653851544661e-01 6.3506221247397332e-01 8.8490117524947354e-01 
        </Neuron>
      </Layer>
      <Layer Index="3" NNeurons="7">
        <Neuron NSynapses="1">
          -4.5293774464674881e+00 
        </Neuron>
        <Neuron NSynapses="1">
          7.9923417388315681e+00 
        </Neuron>
        <Neuron NSynapses="1">
          1.9620483116172569e+00 
        </Neuron>
        <Neuron NSynapses="1">
          -1.4122959019315873e+00 
        </Neuron>
        <Neuron NSynapses="1">
          -6.5383292763826406e-01 
        </Neuron>
        <Neuron NSynapses="1">
          5.3885041099168269e+00 
        </Neuron>
        <Neuron NSynapses="1">
          1.9938331980596249e-01 
        </Neuron>
      </Layer>
      <Layer Index="4" NNeurons="1">
        <Neuron NSynapses="0"/>
      </Layer>
    </Layout>
    <InverseHessian NElements="53824" NRows="232" NCols="232">
      <Row Index="0">
        2.1396901351202391e+02 1.4194755007564430e+02 -9.9517044373282857e+01 -5.7005222701435159e+01 -2.3757158014999074e+01 -3.8539460499450581e+02 -1.0766963798241209e+01 9.9631670275968787e+01 1.1707690781705557e+02 -6.5414608043621996e+01 2.1842916679432605e+01 2.2008201608410386e+02 7.2031075846349211e+01 2.4665704309775546e+01 2.6561648032831749e+02 -7.5177252141878469e+01 2.2359832186440567e+01 -9.4800149769982582e+01 -4.5751346093998919e+01 -1.2572139168218632e+02 -1.7200034528864286e+01 -3.1202245034486651e+01 3.2017945879592467e+01 -6.7339211109840321e+01 9.4208391408060905e+01 -2.1496056747736240e+01 -3.3089727884796957e+02 -3.6279254801664649e+01 -8.2549582608162737e+01 -6.3797733995761952e+01 1.1166118023191778e+02 2.8991573665323571e+01 -4.2546780332411998e+01 5.0288917720664719e+00 -9.5110296949534685e+01 1.3219844939831424e+02 2.8868987027938708e+01 6.0029780852896749e+01 -1.8130026630486307e+02 4.2599665076202001e+01 3.7026454458291724e+01 -3.2353073176347209e+01 -1.0508519098174668e+01 -7.0133244244546262e+01 7.7451063649253413e+01 -6.8264218642367069e+00 3.1612844251285711e+01 -4.0471816820920594e+00 5.5677582507339636e+01 -8.0173855448586806e+01 -6.5640536091823449e+01 1.4725443337128672e+02 9.4083309554301377e+02 -1.8005007143226965e+01 -1.9002019048470990e+02 1.7505088117085180e+01 -1.3671497324330520e+02 1.4589712223180442e+02 3.7447925080851115e+02 9.5514949417728943e+00 1.4653488391996229e+01 -1.1979070424533185e+02 -8.9385504319472020e+01 -1.8281409236173536e+02 -9.2247713153057433e+01 2.4421220779877569e+01 -1.6738568715825861e+02 -1.2180888500892252e+02 2.1990039405049401e+03 -1.1653076206353396e+03 -3.1530509774821667e+00 -7.9561799850626574e+02 2.1401111398915765e+02 -4.2471978288672642e+02 5.3928214592959853e+02 -6.6472018003874282e+01 -1.3442751089544472e+03 5.2551023011660035e+01 2.9288884106921427e+02 -4.8795503612439131e+02 9.0383424724971712e+02 -4.3188900917828028e+02 -2.3464362417185504e+02 -1.8851266086474186e+02 -1.2552680122963964e+02 7.7355973322944493e+01 1.1418341546429788e+02 -2.0811813750430414e+02 -5.4395387748414225e+02 1.4676334205676815e+02 2.6338740131389415e+02 -4.8528081917417708e+01 1.4867838885098243e+02 -9.9552520568860217e+01 6.3110756764467351e+02 -2.9224426635779537e+00 -4.6334406702254410e+02 -5.2737015759729002e+02 1.1592574346005078e+03 1.3427298130866023e+02 -5.9883696541382233e+02 3.2424784861318335e+02 -7.5196333670468491e+01 3.4735127002597113e+02 1.5402102210628351e+02 6.4970561290849901e+01 -3.4480957571803174e+02 -7.9759121032412040e+01 -2.1154368901464082e+02 2.1575457196624882e+02 -8.6517345915716461e+01 -1.0574575227125501e+02 1.4205495888557714e+03 2.2380087997719784e+02 4.0402550901254202e+01 -5.3514065270111576e+02 -5.5072672444732950e+02 3.1305756174244135e+02 2.6333510595503645e+02 -6.6591153244148393e+02 2.4832437309406055e+02 4.2184469944337332e+02 1.1735048295304890e+02 1.6988451850839235e+02 3.3335008193337336e+02 -2.7049751015509588e+02 -3.6942788059188155e+02 -1.3364426933981977e+02 -1.3923881434099027e+02 8.9133520995992566e+00 4.6593507697120913e+02 8.2225591382898983e+01 -6.1209830019774065e+00 5.6089141883734487e+02 6.0218079910186376e+01 -2.1166810482071966e+02 -3.2372976721690023e+01 -1.5508928563252624e+01 2.9804291047977711e+02 -1.1530484307000493e+03 2.7454660754507364e+02 1.7867564582952457e+02 5.6707156342721828e+02 6.5953672418391966e+02 3.3174451208342782e+02 -2.6152060389004123e+02 3.3400316111576552e+02 -2.8808898676694986e+02 -1.6968996401373576e+02 7.0520422653872424e+02 -3.6532482452496822e+02 1.7697137003404771e+02 -6.0143216728937330e+02 -4.9915484978294990e+02 -9.1282341432372959e+01 4.6003799737496763e+01 1.2115295853791476e+02 -3.9296873566862740e+02 4.4060744949885404e+01 -3.2141265382467896e+02 5.0529075768260050e+01 -7.9367060216373056e+02 -2.9846165618187331e+02 2.0141278361439689e+02 2.9433951658172793e+02 4.7927971260818341e+00 -5.7264335878016460e+01 -9.5779127152585417e+01 -4.0348624588200869e+02 -4.8773683212619758e+00 4.5137805357597953e+00 -8.5179743412341281e+01 2.9108264379225039e+02 -7.4492831266367170e+02 -2.4770417595095580e+02 4.0766610399974195e+02 -2.2568073480777477e+02 3.7189057578922871e+01 -1.9507728417958617e+01 1.0801746610198734e+02 -3.2557224012277550e+02 3.2448701207341924e+02 -1.5670184503959473e+02 4.7988740110787731e+01 -2.9295212869596111e+02 3.4286181593287108e+02 4.8045047001258035e+02 9.7923349949629755e+02 -2.1601630114043118e+01 -1.3784049598485444e+03 4.2684674645230496e+02 1.0872477797304839e+02 7.8504715644382395e+02 -7.7185692739338458e+02 -7.0471707705562699e+02 -9.2159263243476595e+00 5.1084106896897850e+01 -2.4573658197493558e+01 -1.1648319505467069e+02 6.2457856739444208e+02 4.8297390082890473e+01 -1.9652657232371734e+01 2.4096969695153936e+02 -1.8083816108331874e-01 -5.4781323274778958e+02 -6.4712612095038878e+02 -7.6531641059753227e+01 -5.6244367776062781e+01 -5.7062766939771741e+01 -8.3407025269312598e+01 3.0611223361677179e+02 4.1852637498284344e+02 -1.3262262460370344e+00 -2.2213625108620492e+00 -2.9586836880678413e+02 -2.3591685826762784e+02 4.3005323445531531e+02 -1.1201206811127195e+03 -2.5570887480437952e+02 1.2878918861602936e+03 -3.2688227635741328e+02 -9.2337184103235279e+02 3.1680470959855825e+02 -2.8256881904998704e+02 3.4498270636759412e+02 1.1323333998536476e+02 -8.9190015650768846e+00 7.6907825718749086e+02 -3.4863085576666407e+02 2.3871995515072467e+02 -1.5127125952557284e+02 3.6315751850921447e+02 
      </Row>
      <Row Index="1">
        1.4194753897744039e+02 6.2610945052436375e+02 -9.7612072441311295e+02 2.7125585613707341e+02 -8.2347273522007782e+00 -3.4589969802783202e+02 1.3530893024930626e+02 3.7543230585382901e+02 3.9134851224787712e+02 -1.0264945322053035e+02 1.3862219983032955e+02 4.6473049079275643e+02 1.0019251107798038e+02 5.6004706616889301e+01 -5.9737569003045564e+01 1.9153613438293576e+02 6.9607998115400321e+01 -2.4863269442177216e+02 -2.6260771805378226e+01 -4.0726107619021946e+01 -4.5102494944892513e+00 -3.8014846611593342e+01 4.8161331938577725e+01 1.6344684717749752e+02 1.3218630696801850e+02 -8.8884002529888647e+01 4.8557406949631621e+02 -2.8128213799276335e+02 -1.2594210110657951e+02 5.7002376622482564e+02 5.0110356750003298e+01 -6.1264944094231214e+02 -1.6786459589451715e+02 5.7620163470858344e+01 -1.2781807765543815e+02 1.3179109708559093e+02 -1.1573365037663507e+01 2.9838737063157060e+02 -1.0295884937873861e+03 -7.8899744006120784e+01 4.3169609964624200e+01 -2.6646498793851720e+02 4.7038505056150321e+01 4.5984371309726737e+02 2.3869994920273444e+02 -4.5780789927476178e+01 4.8887824588658319e+01 -9.5902250903374124e+00 1.7724569903767502e+02 3.3883963837377991e+02 1.3808544426957343e+02 1.7691924118694530e+02 2.1895301515499464e+03 -2.3094077855080587e+02 1.3653947120984546e+02 -1.0058007693556510e+02 -1.6209365523086393e+02 5.7132384550932193e+02 -7.9836627016098407e+02 -2.8900391277404009e+02 -1.5352304789800530e+02 1.2517666609588628e+03 -7.9980333777693386e+02 -3.8780591479424379e+02 -6.2578359644489899e+02 2.7936668237108336e+02 -1.2808110826462087e+03 4.5429853119426298e+00 2.7837270264816343e+03 -8.0107305758177495e+02 -7.7314825337685761e+01 -1.3891724444592419e+03 -4.0373652577787971e+02 -6.9765315522188496e+02 2.7535633477281681e+02 -2.8487152187883180e+02 3.9321733272040490e+02 -1.3559646104464482e+03 -3.1584238915028010e+02 2.4671816921548418e+02 -1.0049557554168550e+02 -3.5228996987810558e+02 -1.1639419991236584e+03 1.7390465311023112e+02 4.1574624827145136e+01 1.0750323363096736e+03 5.5041248826669437e+02 -3.0481859503189810e+01 2.4946418526977457e+01 3.4552875842966682e+02 -2.6034923428557710e+02 2.4100734696665313e+02 3.3449375819234933e+02 -8.0866711819237184e+02 -3.5573219472520481e+02 1.7938827759847452e+03 -3.1117213839921737e+02 -3.0939206945444903e+02 -6.9583860288976950e+02 2.9596524785625811e+03 -2.4940367146189938e+03 -1.0737774728064499e+03 2.0058911211324573e+02 -8.4381821442941407e+02 -6.6584666497286619e+01 3.0074545038640582e+02 -1.7878213991248081e+03 7.4987631371888767e+02 -3.9148792237603652e+02 -5.6135917409419835e+02 -4.4410962170410454e+02 1.8118551791684922e+02 1.0162539997131867e+03 -2.5456180147241231e+01 -4.5656075911601363e+02 -2.1107417439935728e+02 6.6260107802424523e+02 -1.1200848749696513e+03 1.6343360482661017e+03 -2.1163481933884293e+02 6.1529229958106396e+02 -2.3362665273896387e+03 -5.7709648205649000e+02 -1.2650485209345322e+02 5.6717599463476904e+02 -1.2670778003646797e+03 -5.7737672894804177e+02 -7.4391314879625861e+02 -3.7231904229887860e+00 -1.9232104663599765e+02 8.1928512868667667e+02 -3.4976292973074055e+02 -3.5377135681487727e+02 -8.4587183772652691e+02 2.3414731337623135e+02 -1.5449390585615063e+01 -1.5217082774184163e+02 -1.0298300877389764e+01 9.5794208161425047e+02 -4.1452011010653189e+02 7.1110902160789544e+02 -1.5299271674577399e+03 6.7668031267361266e+02 7.3243993605805781e+02 1.0528301455484368e+03 1.0751733044883122e+03 6.9816180482222853e+02 -1.3160726020603090e+03 5.9480220710156345e+02 -4.1028354385209605e+02 1.2109094320688439e+03 -6.4350052383648674e+01 6.3815897562311847e+01 -3.3180277771311648e+03 -6.1197878360787968e+02 -3.5747197002283400e+02 -3.6368339800880551e+02 4.8497060510424473e+02 -8.2087524574854726e+01 3.0674675591542263e+02 5.9592874885531671e+02 -1.8671290743829652e+03 3.4802046828427819e+00 9.1982541598158559e+02 1.3045050877227184e+03 1.0906747577714211e+02 -9.0910435899098729e+01 -8.1845591002193075e+01 -8.6179177611661976e+02 3.9424300422542797e+02 -5.3497135743027698e+01 3.1534570148824764e+02 -8.4228332950228037e+01 -3.1147854241102505e+02 -6.6394071961073678e+01 -8.4964733184332090e+02 -5.2539715065978612e+02 1.1514938870858715e+02 -1.0704299675528762e+02 5.8173612324575379e+02 1.4015231373233269e+03 1.0824824925919429e+03 -3.2251290765101874e+02 -3.3067678217062102e+01 -5.1862102089507812e+02 2.6996598679362694e+02 1.3653435513170484e+02 1.9662788799772061e+03 -1.6342013580558762e+02 -9.4818827434720492e+02 6.5953785849272606e+02 -5.8101731123550439e+02 8.7286135491807136e+02 -8.1613854215925676e+02 -8.1629026904674629e+02 1.0221701116864756e+02 1.7881555031697746e+02 5.7303266483439234e+02 -9.5218126557516723e+02 1.4331870386672465e+03 2.5332387373090853e+01 1.1467415109280252e+02 2.5081266007630859e+02 -1.4763922575862082e+02 8.9423539773084656e+02 -1.3174312706930136e+03 -1.2991344680137593e+02 -6.6141291186186123e+01 -1.2395666811122453e+02 -1.6832251240230235e+01 -2.5397100414315474e+02 5.0756079076856258e+02 3.1539809592322161e+00 1.3370594501169538e+02 -3.9802979617788202e+02 -4.8630392117066458e+02 1.2817476951534925e+03 1.8897968118868366e+03 -4.3556703506664502e+02 1.1593550079805545e+03 -1.0700807017096354e+03 -1.0910866543234358e+03 3.9821038803901683e+02 -1.0710477115508529e+03 2.4729721029186024e+02 3.6450610327608700e+01 1.9820257743137810e+02 1.3926828083558755e+03 -2.3352163846042760e+02 1.4218966210842182e+03 1.2995270673034679e+02 8.1382554496410648e+01 
      </Row>
      <Row Index="2">
        -9.9518678946165068e+01 -9.7611985061117457e+02 6.1380850056866388e+04 4.6155418727317310e+03 -4.2860307308219740e+02 -1.8802799388110386e+03 -2.7320739315415767e+03 -1.4166987962503699e+03 2.5518328579099023e+02 1.8172576746219559e+02 -4.4647005339145308e+03 7.7790501585008933e+03 1.5172214305379319e+02 1.5513322967184681e+02 2.1636277981047347e+03 5.8214610991871825e+02 2.7731327760795708e+00 -2.0737900335209683e+03 -5.3034399790577640e+02 -6.6814950373864303e+02 -2.3958829296951345e+02 1.2878983917531104e+02 7.4045659397945712e+02 -2.5646944808241906e+03 -4.5243995539182794e+02 1.6944546935827637e+02 -3.2264519472811233e+04 -7.4672685831009824e+02 -1.6692431064140365e+02 -1.1608522832840022e+03 6.3614807809877800e+02 -2.6380745842498895e+03 1.2936388216375238e+02 2.5799421973788590e+00 4.0259941707828085e+02 -8.7899885748535598e+03 -3.8430719414132469e+01 -5.8471544242043672e+02 4.1552483206310135e+04 2.6960493479491720e+03 -2.8530582649488679e+01 -6.6081229510783851e+02 -1.8408897792368674e+02 7.8541724897622203e+02 1.5285866704592672e+02 2.3753969885559080e+01 4.1754038624052328e+00 6.1737362953707707e+03 -5.4194258266122392e+02 -9.2170618809848565e+02 3.7054376178947280e+02 -2.3957132495127067e+02 2.3656323028272545e+04 -7.8747008934070365e+01 7.5765254425243829e+03 1.7950921059754805e+03 2.5815541460759891e+02 -1.2197084120290215e+03 3.2927274494112908e+03 3.9152427739827313e+03 5.6468719099404882e+02 -1.1595017014418421e+04 3.4169199428216666e+03 3.3995012206588622e+03 8.9766320188519296e+02 -6.0133826814843906e+02 -3.6895691871060808e+03 1.0867347618889948e+04 1.1171290450371940e+04 -4.8675032675085204e+03 -6.0183708012646457e+02 5.2888146540476133e+04 8.5442900606595122e+03 -2.2224028372822369e+04 -1.2885115708489689e+03 2.9684562692784125e+03 -9.0810789831876755e+03 4.2334247535805789e+03 3.0645783594258405e+03 6.0678890259036871e+03 8.9595599721239669e+03 -1.8017847067955801e+04 -1.2444258746995054e+04 -6.2267696965706882e+03 -2.6237280662319102e+02 2.6388760732247356e+03 -3.2763211711385761e+03 2.3776467319716645e+01 -3.4392949034793442e+03 4.3680901285708924e+03 -2.2195264538226343e+03 -4.2537919788955907e+02 1.4962705585131500e+03 1.0956951507951903e+03 -1.1172991776477917e+04 2.6145709267336715e+03 1.1955216026780065e+04 7.2865981028336882e+03 7.4612661048030523e+03 9.9662608689638073e+03 -1.5613973371077329e+04 1.8232254977400589e+03 4.1824894018740548e+02 1.0197196991007844e+04 -1.0934416795612975e+04 -2.4351724475256337e+03 1.2692052796810061e+04 -9.3046887350316574e+03 6.2729940738579380e+03 1.6988614857417579e+03 4.9635593668328438e+03 -3.7572814783132562e+03 -1.9758298919942058e+02 -7.6526523873147898e+03 -6.7658080663622059e+02 7.1831425131164669e+03 4.7289309533180995e+03 -6.7020798703554929e+03 8.9235999661658680e+03 -9.0824475413280761e+03 -8.0290638179711550e+02 1.2274304765436957e+04 3.5606949925952576e+03 -1.1883223657515925e+03 -4.1776595383280010e+03 8.4214240080571790e+02 5.5514555474759991e+03 1.7255430390352849e+03 -1.9380730312024464e+03 2.1719266494976483e+02 -9.9178757722186892e+03 -8.1878445430711940e+02 2.4122492024799080e+03 -1.0070041187235402e+04 -2.5907722921644304e+03 -2.9612524934474618e+03 4.0015431489260988e+02 -8.1529057197296220e+02 -2.6492394964034793e+02 1.8120669820494204e+03 4.5347865934430665e+03 5.5922973698870192e+03 7.5302470633327321e+03 1.3646481687285568e+03 2.0486581380923286e+04 -2.4707518832897778e+04 -1.4583960154129552e+04 -2.9887444861426379e+03 6.5736577714489712e+01 1.5529959291975414e+04 -3.6723555392522001e+04 -7.4984560688907357e+02 -2.0405923682724973e+04 -4.3247103552474937e+03 3.5853519708740554e+04 5.0694323479483231e+04 5.0962042992577994e+02 3.2506776849513735e+03 7.2453678525299301e+03 1.0176837542496682e+04 1.6236478081377185e+04 3.6790301072590555e+04 -1.1240307810866963e+04 -1.0608279541541540e+04 -1.9874660839907228e+04 -2.6582033668394723e+02 6.9202188847396343e+01 -6.3748141018293211e+02 3.6402869622077669e+03 3.2239946478315587e+03 -4.8902970696049840e+02 3.4453377835874371e+03 4.2293942322700768e+03 -9.0468454486276023e+03 -3.5439197168140527e+02 4.4102106857192484e+03 -1.2649500353912313e+03 2.8508295442179424e+03 2.8461938534150977e+03 -6.8457915976226795e+03 -1.5425490828531747e+04 5.3336741046355546e+03 2.0473366029207318e+02 -1.2986839707823801e+03 9.2431704298215482e+02 5.5305063712439087e+03 -1.3514833529418425e+04 1.3737101418961278e+04 -7.4873575997522869e+02 5.3083023410611386e+03 9.9220650467188607e+03 -7.0285095833626838e+02 -2.5651873248378688e+03 2.3380915625873968e+03 5.5405359915297822e+03 -5.7841805534613559e+02 -1.2888032244200053e+03 2.6799691896671670e+03 1.2106160474048222e+03 7.4192207810538093e+02 -7.0976393006881881e+02 2.8318936295819849e+03 2.3065463387460650e+03 -1.6506389137769922e+03 -1.5545040624819612e+04 -4.4087365966305151e+03 7.7254754634737083e+02 -3.3794165634371187e+00 -1.6968754991752462e+01 4.8084530066433410e+02 2.5152080815635741e+03 9.6937582634461251e+02 3.5263665221181618e+01 -8.5923729975012429e+02 3.1034192483954314e+01 -8.5673662627854947e+02 -6.9703858056457975e+03 4.1713763755219327e+02 -1.5172744401616051e+03 -3.0144025065467536e+03 -4.4016974870413896e+03 -2.3434601572571464e+03 5.7713758654302455e+02 2.7935073740116204e+03 -7.7438372344610725e+03 -6.7920354924637923e+02 -1.1604265795114884e+03 1.3801783507785788e+03 -8.2947764205632375e+03 -6.9702831595926837e+03 1.0560156281721814e+02 -1.4646545681526059e+03 
      </Row>
      <Row Index="3">
        -5.7005718594757674e+01 2.7125578483247637e+02 4.6155270537064798e+03 1.2237708699008876e+04 -3.2407705108734717e+01 -2.7902627063981981e+02 -2.4021189021005017e+02 2.8451312418285552e+03 5.1612296759461481e+02 2.7476369531143195e+02 -3.9971734430186655e+02 2.5595595077738130e+03 1.0125321780861668e+02 5.8700967226358046e+01 6.5368082097704939e+02 2.8680343026954160e+03 9.1765994953294609e+01 -2.7591298972731579e+02 -2.5353000670274625e+01 -7.1660609872418661e+01 -2.2152297939850975e+01 1.6280268068190992e+02 1.3984714245397473e+02 -2.0885601158964778e+02 -2.4376901186014148e+01 -2.4789903427699105e+02 -2.0274167476704642e+03 -5.1163256024073826e+03 8.6573143457942692e+00 1.4281512925857785e+03 1.8053191890126095e+02 -9.1484444727607990e+02 -4.4901739677647008e+00 1.5743859285989919e+02 5.9662704616163649e+02 -2.6458418019839523e+03 -1.2810934236371602e+02 2.2967441905244507e+02 3.0845594206524602e+03 1.0247319712103132e+04 -4.8796016735636101e+01 -9.8429106069713021e+02 1.5122146853161890e+01 2.0793388428839198e+03 1.9911534384646617e+02 -9.4104271374933660e+01 -1.0128656636700043e+02 1.1539642416594752e+03 -9.6645536139340959e+02 -1.6198479507669374e+03 1.5195965755494007e+02 6.0694605533137712e+02 -6.1038578867753504e+03 3.1854822189841587e+02 2.0550102852589962e+03 1.0758164194637229e+03 1.5082868715537401e+02 4.7475681458471058e+02 -3.5522729476364007e+03 -1.4120121299255618e+03 -1.2104066687000998e+03 -7.3143603278869450e+03 -8.0718850415373925e+02 1.0802717233660506e+02 -6.5448548748863811e+02 2.6374353111515495e+02 9.5096102172122119e+02 1.4843895663895433e+04 3.2346240548574751e+03 -5.5191486282119695e+03 6.9502581372114219e+02 -2.0476537701205074e+04 8.7045173750628646e+02 -3.8837560253102019e+04 3.9051186968025377e+03 4.2025132507899507e+03 6.9049838880980387e+03 -3.1853089241544035e+03 -4.4802395501393785e+03 -2.9133249159473708e+03 -1.2478574511083943e+04 4.2883176517460888e+03 -1.8680897763135741e+04 1.4839565967440757e+02 4.3615087242854463e+02 -1.3871820979004551e+03 3.9457662743911192e+03 6.9334339906644709e+02 -3.1155629665198321e+03 2.6200257395628787e+03 -2.4791697869302816e+03 4.7174700894152113e+02 4.0834407948834655e+02 -5.6446953249687031e+03 3.0507045617050007e+03 6.3882840661450900e+03 1.2352337447524499e+03 2.2667353962797733e+02 -2.2301571184459117e+03 -1.6130587970726344e+03 -1.0320468788781483e+04 -3.6026382347135095e+03 1.4060794823753932e+02 1.1601477436255876e+04 -2.7016987046575869e+03 1.0578285431042609e+03 5.0734378978947207e+03 -6.5981789836681519e+03 4.7993707696540087e+03 -1.5525510387049799e+04 7.0741155310656814e+02 4.7867903300069102e+03 -4.9681919196206882e+03 -2.3134890504507462e+03 8.4840152484539817e+02 3.1878780268592800e+02 2.3556788858512023e+03 2.4604841895211533e+02 7.1286442707342248e+03 1.1279672869019208e+01 2.4740914537660191e+02 2.7901169565269852e+03 -3.8498126689361980e+03 -1.2636698349492979e+03 2.5778615085785013e+03 -2.6076157179285906e+03 4.6688299949725007e+02 -4.2398480927289711e+02 -1.6086527646355506e+02 3.6034022317715716e+02 -3.7364116944431939e+03 -2.3295156619178888e+03 -5.8397118157199634e+02 -7.4261522914781472e+03 -1.0486217155112847e+03 9.0831999013083998e+02 1.2546298908291833e+03 -6.2244361097954902e+02 5.5435877173782490e+02 4.8682302215320196e+03 -1.2309745540660881e+03 -5.7401324528863697e+03 2.5028188355906022e+03 1.8952927106636457e+03 -1.3793420659314615e+03 -3.7296955456307319e+02 -1.1309180357146420e+03 -2.2877809366525544e+03 -7.6552317773601953e+03 2.2716722945313813e+03 -1.5134016792080217e+03 9.9571692470250196e+02 -3.2768325462859302e+03 2.3289148486411650e+03 -3.9440154264707235e+02 6.9487223352061446e+03 2.9318591779454555e+03 4.5219999405894265e+02 1.0250272086616758e+03 -8.8803240869132549e+02 -9.2068717113372918e+02 -6.2299527353875947e+03 -1.1282991535795309e+03 -7.9257794889767074e+03 3.1740882903844897e+02 2.3916934872096184e+02 1.3338795357972772e+00 -5.7767183733841932e+02 -9.3459162784871205e+02 8.5558566679529417e+02 -2.1297329516073259e+02 -5.7111486637177859e+02 -3.3452163376680164e+02 4.5471407253700154e+03 -1.0206330055934195e+04 2.1239114452248177e+03 -1.0760161409894981e+03 1.8550649055664400e+02 -1.4807840473941135e+03 1.3410153374941003e+03 -1.6881376196757683e+03 1.9242349057256033e+03 -7.7900081209407790e+02 4.4972640475832648e+01 2.8056284881844886e+02 1.2321643817021995e+03 -5.5805953458247541e+03 3.1430075309395675e+03 4.0107889035356339e+02 1.6604780067564498e+03 3.4527859661882185e+03 1.4675285448947561e+03 -3.4857646785493416e+03 1.5441907321968756e+02 1.2282206940683052e+03 1.6980569862018041e+02 5.9227230179981814e+02 -3.2174219153749510e+02 -1.2974678719579454e+03 1.4284962836035893e+03 1.8916903880136965e+02 3.3575997488102087e+02 1.0394965216120270e+03 -1.0755564709793537e+03 -1.8414420548730229e+03 7.4984355882897944e+01 -2.4095308843948874e+02 -8.1078698483159428e+01 -1.0377343806843487e+02 -1.1833306746177219e+02 1.3613741868366578e+03 6.4685308769216890e+03 5.3073230267789725e+01 -1.7823847274862541e+02 3.0126487335572716e+02 -6.3647308984618667e+02 -4.1738932403544040e+03 4.3253802609338209e+03 4.8831273819389980e+02 -2.4096570969572599e+03 -1.0568647153399397e+03 2.6035870124486501e+03 -9.5987466002033725e+03 5.4068451957379511e+02 -1.1370739559322533e+03 4.5830614529547620e+02 1.3777907245622791e+03 -9.9662646152792843e+02 -5.3737155755149033e+03 -3.2228002769775167e+03 2.5526094374523641e+01 -2.3313488944516575e+03 
      </Row>
      <Row Index="4">
        -2.3757134511909097e+01 -8.2347763295217007e+00 -4.2860391913148794e+02 -3.2408198113310839e+01 1.4134184956827215e+02 6.3910520460146110e+01 3.5485128675382605e+01 -1.8794173479737555e+02 -1.5295275369834894e+02 1.1849396345548455e+00 1.3808847611115198e+02 -9.7671010031860121e+01 -1.7288763700049262e+01 -1.7818862043561897e+01 2.3798209848431199e+01 -4.4936081100007570e+00 -3.4052128006665285e+01 -1.0220443216354245e+02 1.4372891425575979e+01 1.6164200467864634e+02 4.8252682225052212e+01 -7.1835631907681536e+00 -5.7087508634424751e+01 3.6499331830110862e+01 5.7175559702039799e+01 1.8518349243870716e+01 1.1214367044228752e+02 1.4623672078829271e+01 4.1937020206360117e+01 3.3629738173019334e+01 -2.3912615001181770e+01 -1.5685622786262110e+02 -5.0410143147782644e+00 -8.2246551941258661e-01 -3.3023528815413674e+00 3.0664841260138303e+01 -1.6925642428823366e+01 1.6325057831536105e+00 -6.9942995322054492e+02 -7.0893044062546323e+01 4.4471027843028196e+01 3.8377379186004845e+01 4.1558938949881910e+00 -6.7424973324246352e+01 -7.6422209506667201e+01 6.9776770414328695e+00 5.6059545555763059e+01 -2.8596206546476566e+01 6.5400087500174813e+00 -3.1863387095650933e+02 1.7050207323441290e+02 1.3585887399847765e+01 7.8921295073546094e+02 4.3171375111459234e+01 1.7252441392181439e+02 5.7331848556692933e+00 -4.4169829144512960e+01 -8.1142468659103457e+01 -1.2916327241090607e+02 -2.2719646915981262e+01 -9.3287184125607396e+01 6.9817298131365612e+02 -1.3303515515098763e+02 1.7493295041441893e+01 3.3205687958893165e+01 -8.3955009635424442e+00 2.9174326880782894e+02 -3.2823751977191932e+01 -6.4510433405072604e+01 -1.3746107930428084e+03 -7.9815938757182721e+01 -3.4307292431379227e+02 2.3131058517400356e+02 4.8502783218601159e+01 4.0164187796333204e+02 -1.0249363136617637e+01 5.4461369398050010e+02 -3.5986627205924248e+02 8.4846724642907418e+01 -1.7834802452022399e+02 -4.7074576339807756e+01 4.2241823323017189e+02 3.4795721932084825e+02 2.0949816825865589e+01 4.4577435602905844e+01 1.1429193417856432e+03 -2.3697222848154738e+02 4.8096176202382921e+01 -5.4107782426045105e+02 4.1252896111423656e+00 -4.2832067905060137e+02 -1.1719914883797784e+02 -3.0744421622764128e+02 3.2261416687680844e+02 1.0316079057513557e+03 -6.2753264661352068e+02 -7.6488862472031587e+02 -1.1187967792972859e+02 -1.1325571464824425e+02 -3.1022690701560640e+02 -3.7372449551590853e+02 -1.4388138677387144e+02 4.7301442983475738e+01 -4.9016606022626895e+01 -1.2222761219895392e+02 -5.5882311276953892e+01 -4.4736739602006099e+02 5.7251227895949683e+01 -5.1992106462159057e+01 2.0128162724828371e+00 -7.6230423654151693e+01 -2.1051216671563282e+02 -4.4709035130502872e+02 2.5966266323051951e+02 5.2037495340943678e+02 -8.8651293057832618e+01 -7.0044496333640936e+01 4.5128051438900081e+02 -3.7525560559788232e+02 2.0551944374665223e+02 -1.2723574972174305e+02 -1.1488148939438070e+03 3.0453501920533978e+02 -1.0778195606297395e+02 -2.9489300863361893e+02 -1.4362130434393148e+02 2.8711478317776459e+02 1.5569680671987226e+02 3.3436501056087513e+02 -2.6522865130329929e+01 6.5488920542934608e+01 -1.7029906549275620e+02 2.2525333743714754e+01 7.9600482045672504e+02 -1.9248950619579944e+01 3.3601422366703946e+02 -6.8035469141331333e+01 4.0975769458153671e+01 -1.2775361655964730e+01 1.8426155447661841e+02 3.2081848398680097e+02 2.1011012294609299e+02 -3.6806373482315848e+01 -4.1094439488104570e+02 1.1304446237832690e+02 1.6253111821953394e+02 3.8578453465904931e+02 1.0034183403394630e+02 3.4822806188618718e+00 -4.2203467450350900e+02 -6.0176563321414392e+02 1.5922442401100537e+02 7.5368433319684709e+02 -4.1374437592093977e+02 6.4817176922530734e+01 -4.1145314640967570e+02 -5.0276758109822637e+01 -5.0967165178616420e+02 4.5520338383623232e+02 -3.6499550197220225e+02 -1.4954455155493059e+02 -7.4909253926017186e+02 4.8097949803795120e+02 6.7858238185740095e+02 3.8925689257026852e+02 -2.0775312146949036e+00 3.8352174722260952e+00 -6.4855064683670150e+01 4.9576542731085613e+02 -2.9189429397945247e+02 -1.1749047388697697e+01 3.4490164597931553e+01 8.0416650463612001e+01 2.1756283170809184e+02 2.8587105236943773e+02 1.4965721836530929e+02 -1.3317434813652483e+01 -5.4771757067442728e+01 -7.6608808527551901e+01 5.0012551264421080e+02 -1.2708069464101686e+02 1.0076104627521800e+03 -2.3329376676828041e+01 -3.1989032330360775e+01 -2.2923363694974793e+02 -2.9257940727659866e+02 -1.1220917128983683e+02 -8.9293270537555145e+02 9.7091065780856063e+00 -4.7589823339394547e+02 -2.5465777106698150e+02 -4.9421498627969913e+02 1.8611692724396835e+02 -2.6685520540644711e+02 -6.5926844456054164e+02 1.0739017405287807e+01 5.3619722376783940e+01 7.7893760471293263e+01 -8.4470035008946184e+01 -1.8047161283408491e+02 -7.9730406632602069e-01 -2.5371283828986599e+01 5.1205845638394337e+01 2.1434849826960038e+02 -1.8399749388602640e+02 9.2685154229045293e+02 -2.9861210057200775e+01 -3.9506406120868931e+01 -1.3156452173502693e+01 -3.7535442994531749e+01 -1.2175613608597237e+02 3.3654763473991807e+01 1.5991587873003313e+01 -1.3618627215873480e+00 4.0731210132692453e+01 -4.6720081265891622e-01 1.4352932090653565e+02 4.4213033264727630e+02 6.1014750020882126e+01 4.7533173667281602e+02 2.7343197271868553e+02 9.9531924858326192e+01 8.0361917809380685e+01 -5.1537872559652169e+02 6.9360818195741660e+02 3.0004242691684549e+01 1.3122596283096280e+02 -2.4725079035035589e+02 3.1888874372917115e+02 4.5385023461518358e+02 3.2929373502144870e+01 -2.4845400374857698e+02 
      </Row>
      <Row Index="5">
        -3.8539422978104909e+02 -3.4590044155822699e+02 -1.8802860652073714e+03 -2.7903394434891317e+02 6.3910826673619454e+01 5.6630990739993940e+03 8.6092002148574913e+00 2.5736701124125675e+03 -2.3725143702546404e+02 -5.5781663373399105e+01 7.5087472059754461e+01 -5.7176859234887127e+02 -1.1601937304312143e+02 -5.6366903866991372e+01 -2.4320884243190721e+03 3.4074100052884961e+02 2.4667625978618720e+01 2.5859041674688815e+03 -2.4804379826262169e+02 1.7376792062910486e+03 2.8831705614158501e+01 7.6394366653558208e+01 -2.5673277259493096e+02 1.9074610267871833e+02 -1.2845286084785650e+02 1.8820204250336666e+01 3.5754368156945261e+03 1.6238447513605456e+02 1.6446164479147100e+02 1.2334506234539695e+03 -1.6126185827688042e+02 1.8120554459194880e+03 1.1795713011377745e+02 -1.0402591344892308e+02 6.0187211821647907e+02 -2.8971778632323327e+02 -6.1697127570776239e+01 -1.3959826038719839e+02 -4.1920451668442583e+03 -3.0115994201956346e+02 -1.1386995389825637e+02 5.6332805498619018e+02 1.1988731176423839e+02 5.4343332866077458e+02 -1.8196910804686988e+02 -3.0688124527068112e+01 -2.8457389047268703e+02 -6.0077849831116623e+02 -3.2304681536742555e+02 3.4162890459935079e+02 -6.7254892096312162e+01 -6.7331370112554396e+02 -5.6170302051825793e+03 -6.2243121360878170e+01 -1.1434564780811770e+03 3.6029825415519008e+02 4.1802345922325907e+02 -4.2452279082638552e+02 -5.0590694669615800e+02 -3.0063929462536436e+02 -4.4405762022995293e+02 -2.2197574099266217e+03 -1.4457284757260535e+02 -1.1165188548743215e+03 4.4102784133234297e+02 -5.4970394478641765e+01 -5.3438132948626571e+02 -1.9550467139110751e+03 -6.3022267818520031e+03 -2.5412886137845308e+03 7.0066387262431090e+02 -1.6260596189858500e+03 1.8147241506817036e+03 4.5995520752796756e+03 3.3615415053620254e+03 6.5862647523657949e+02 3.0502056503035128e+03 -5.7958854377496493e+02 -7.4943245892265077e+02 -1.4184274354229626e+03 -3.3952953834360001e+03 -7.0076151275122538e+02 1.4655967341765477e+03 1.4249324075598056e+03 -1.7284169259487601e+02 -2.0869871662792943e+03 2.9987405144056640e+02 7.2816301480134359e+02 -3.6993756429301419e+02 -5.4393745711929682e+02 3.1692412579228303e+03 4.1828028061550846e+01 -1.3449799773355983e+02 -7.1187846313082964e+03 -5.9126862612349832e+03 9.1991718475634370e+03 -9.3767396713777653e+03 3.1112673876954341e+02 3.0948609305100099e+03 3.0712351736801857e+03 2.0127438508869753e+04 -1.1880148961990108e+04 5.5607852189890309e+02 -8.3882111922962156e+02 -1.1698777311381218e+03 -2.9323546732490917e+02 -2.2470709076712060e+03 2.2691477479877267e+03 -4.5874287102344152e+02 -6.2548542075642717e+02 8.5052539725300062e+02 8.2881298515111739e+03 2.5490917676360214e+03 -1.0916454701781595e+04 9.3195331330843201e+03 1.1926804838790551e+03 -7.2526763193736051e+03 2.0451538083755514e+02 -1.5684699866817042e+04 1.7272998419158521e+04 -4.6800850616759408e+02 6.4555072963809425e+02 -4.7051268816210637e+02 -8.8230240278382018e+02 3.5809842453160600e+03 3.2856639424457853e+02 -2.7651841132738646e+03 4.0294569714354293e+02 1.8773246302798393e+02 -9.3647558191184743e+01 -1.9992176063950426e+03 3.0275887355441228e+02 1.0266635787014727e+02 -5.5970202221748177e+03 2.1186386379364959e+02 -1.0650672808381196e+03 -2.6191733755043049e+02 5.3421296516272866e+02 -1.3388331018182998e+02 -3.9207209244631667e+03 1.1743731508934252e+03 -2.3256021230105707e+03 -2.2702283525163039e+03 -3.9644803609930932e+03 -3.0335989518664728e+03 1.2011791786161916e+03 7.1997582391886681e+00 -7.6931899445241936e+02 4.8951484007459067e+03 -4.1080094876969324e+03 1.1630892798427535e+03 -2.4551756535474851e+03 4.2427809747180463e+03 1.0032205845229440e+03 -1.2013993366202528e+03 -2.8458295454712552e+03 -1.4786265692352376e+03 -4.4496117763520539e+02 5.6539893019952547e+02 -1.4279283554070837e+03 4.8739986175991817e+03 -3.5537096962582641e+03 1.0660582443509329e+03 -2.7965517855733015e+02 1.3122252557835625e+03 -2.4069875304974576e+02 1.7001899379215482e+02 7.3960852472496867e+02 1.9133266700082340e+03 2.4536005942215033e+03 1.4150107820461082e+02 1.5238469595739575e+03 -6.9654232686634623e+02 1.9041600051371638e+03 -3.0350528321688676e+03 -2.6493038237698574e+03 9.5936007349156262e+02 -1.8313318187591474e+01 8.6020883179036900e+01 -1.0214323196212956e+03 -8.6537405638065502e+02 -3.0640716293740588e+03 2.7030729882923515e+02 -7.4673418945081565e+01 5.8677180868039250e+02 -7.8742827054475401e+02 -1.6318133330228484e+03 -6.1678589217148328e+02 6.3445372393029402e+02 4.1401079926226230e+03 -2.2781028262404925e+02 -3.0144832311247251e+02 -1.2207421867523808e+03 1.2036450214288343e+03 1.8182512607511671e+03 -4.4426921383656541e+01 -5.1130115475331877e+01 -2.3790654253189132e+00 -6.6960402731205329e+02 -1.0739700146864989e+03 -7.6047713407729219e+01 -6.2052439476992004e+02 -1.0198016093425376e+03 2.0100074402718860e+02 7.8116521167152018e+02 -2.0126316627661408e+03 3.3723513624794066e+01 -2.6371645860863190e+01 9.9279532617623730e+01 6.9955900971973392e+01 3.8159087479375461e+02 -2.3766561034028564e+02 2.8252933847540099e+01 -1.9944755327725341e+02 6.9083387324128660e+02 9.7355038262090693e+02 8.9641460843226901e+02 3.7905362212028367e+03 7.5613086821408160e+02 -3.3830444616088298e+03 -6.8820183068382539e+02 3.4888926762024853e+03 -2.8914011175887881e+03 -1.2016272073344735e+03 -1.1425494254186515e+02 5.6308014489555376e+00 2.7451915278392971e+02 -1.4897332865510755e+03 2.1684548068981576e+03 8.7815982973013888e+02 3.0463825298458164e+02 -4.0773399576339489e+02 
      </Row>
      <Row Index="6">
        -1.0766870169337214e+01 1.3530885218230983e+02 -2.7320735352545394e+03 -2.4021251839246759e+02 3.5485044073402200e+01 8.6078625507339837e+00 5.9481572044446898e+02 -1.7832341933817361e+02 3.2426056048224495e+01 1.1670893263239112e+01 5.3279651348415064e+02 -7.2138079250517464e+01 -4.2953190336094579e+01 -3.5647738280458974e+00 -1.2455461215046487e+03 -1.5054652089523847e+02 9.2078736439513484e+00 1.1885281466072830e+02 1.0155788329990000e+02 -6.5092504439728302e+01 2.5558458385811228e+01 3.0211570743706631e+01 -9.0126850241981259e+01 -1.0831857681898720e+02 2.4271871753983544e+02 -4.7951158094918036e+01 2.1259745065423931e+03 2.1780580083455408e+02 5.5798060052559869e+01 7.6548107281714564e+01 -1.8973411873161368e+02 -1.2129426840285056e+01 -2.5861166756503394e+01 2.6166511417217002e+01 -1.8074101740464712e+02 3.6733929131936242e+02 -4.3925037688715797e+01 8.3885977280528678e+01 -2.8354309418871308e+03 -3.0967229290981049e+02 -1.7658769088508677e+01 1.5464928233827857e+02 5.6429713507400820e+01 -3.6181131855902457e+01 2.4072085288100794e+01 -1.4691108871517997e+01 6.0151142232756513e+01 -1.1057262376435142e+02 1.4274825205359835e+02 1.1346944267570625e+03 1.6700180296861123e+02 1.5368784568547221e+02 -3.5653930396055273e+02 3.6914735545408277e+01 -4.3512855472089150e+01 -7.8637413318876725e+01 -2.2411561921007521e+02 1.2860740593143271e+02 5.1654251215105114e+02 -1.2788180161481242e+02 1.6405490174082619e+01 -9.7418590403792223e+01 -5.1699002374923975e+02 2.1605173774253018e+02 -1.2398474488933984e+02 1.2314245251731811e+02 4.4632056405922276e+02 1.0610050752795551e+03 -1.2970923093113979e+03 -4.1874507246361964e+02 2.3133759290271973e+02 -1.9113979963891911e+03 -4.6309894750144940e+02 7.3798510253026564e+02 1.2635015371994684e+03 -6.6894743992363328e+02 -1.7241118492260575e+03 -3.9404287123072157e+02 -5.7992861515363074e+02 -3.3448409475367436e+02 -1.3427721285036516e+03 5.6471341994451359e+02 1.7934115590612928e+03 6.9887557923150405e+02 2.1457850170278019e+02 -8.7251279871659710e+02 -7.6835963372045299e+01 2.8461485725187146e+00 -9.6743000189141151e+02 1.8216157544958577e+02 -4.6919038850500391e+02 5.8362597451001839e+01 -3.8208681353064520e+01 1.5793644925677513e+03 5.2935178834577437e+02 3.1543483995990709e+02 -1.6203714483472272e+03 -4.5844582302987283e+02 -1.8443739001071373e+02 -6.9130292021179594e+02 7.1343130794921672e+02 8.4258935034624380e+02 2.0727127376454467e+02 -2.1492426998732773e+02 2.0352592614887158e+02 -3.7238080016763178e+00 -1.6128745072667975e+03 1.5400013383023309e+03 -2.2744295351990199e+03 6.8494228866852518e+02 -9.3135056577981641e+02 -1.2173040301711696e+03 8.9798206861102040e+02 3.7855780998926758e+02 3.3842499390846683e+02 -5.9607014820907739e+02 -4.3861034878418968e+02 2.7687041647742427e+02 -4.9688006613136622e+01 -8.6544423605687371e-01 -1.8933579550059761e+01 4.3710929409874993e+01 -1.7621305108620294e+02 1.2466994384177369e+02 5.9611855327849798e+02 -8.0070257246793312e+02 5.5546707576055951e+02 -1.9410596793096920e+02 2.4824179415060198e+02 -2.1152927577828896e+02 1.0327720559027530e+03 -1.0162218109366950e+02 -9.8783292033813311e+01 -4.4546370333933021e+02 5.0470004067896348e+01 3.0568378516968198e+02 2.4631867966619816e+00 -1.8047434352638334e+01 -9.7224384275583020e+00 1.1979942490250710e+03 7.0544428439356636e+02 -9.8248692820262340e+02 1.8480848960791081e+02 -1.3117521240101501e+03 -3.4754312364901898e+02 1.1270895791779403e+03 1.7446987020862994e+03 -1.5068272344860119e+01 -1.0985804206348278e+03 -1.9705526829529058e+03 1.9174930441235097e+03 3.9843286075563100e+02 2.4112870383746731e+03 -2.9638960687447775e+02 -1.8323451668253733e+03 -2.6286545128949997e+03 -1.1088178047771913e+02 5.0128583934030820e+02 -4.6984241673102747e+02 -3.6059654622325610e+00 3.4001590095207638e+02 -3.4291934470046490e+03 2.9866388174554272e+03 4.1310661990995845e+02 1.7790596500034276e+03 3.9787992219825088e+00 6.6307236377696881e+01 1.1417974697309052e+02 1.9252364099320738e+02 8.3286663193488005e+02 2.6387265978513170e+01 2.2396201728193040e+02 4.6150105760229962e+01 -1.7683221082156524e+02 4.1637273440159333e+01 -1.5855301107786781e+03 -6.4414749077132910e+02 -8.5624056258413404e+01 -2.1713424991366719e+02 4.2219417927293250e+02 1.5869161982581179e+03 2.7994147255638563e+02 -1.3056470532098285e+02 5.0150466746710279e+01 -3.2535853578571221e+02 -5.5839782106361372e+02 4.8439204425562338e+02 2.5793197744530607e+02 6.0777142386489729e+00 -8.3570671344295533e+02 7.1782150663891434e+02 -9.9858919431975619e+02 3.3744946019016197e+02 7.4639214194826309e+01 -6.5269683185717417e+02 1.4183732462256488e+01 1.7125623664375667e+01 1.0435961702070790e+02 -2.9672511532137321e+02 3.4791404997906363e+02 5.2725611350848965e+01 -2.9287428637109798e+02 -3.5040295932644892e+02 4.5343737135504438e+02 1.7958595237386485e+03 1.0365850435347388e+03 -7.2914692225165311e+01 -7.6539272330407355e+00 -1.9184588144327520e+01 2.7745348967708665e+01 -7.2451871593688884e+02 -1.8617571029049941e+01 2.5544969472093690e+01 1.6233562373194740e+01 1.4838383680667636e+02 5.9524482988265913e+02 9.8064485657477576e+02 1.8552694681421972e+03 1.3429752715124798e+02 8.3507064659048399e+02 -8.7289858054796423e+02 3.9785169447469139e+02 -1.0216932041660535e+03 -1.6850193931557078e+02 2.8209921368089010e+02 -5.0014661789490333e+01 1.3801617172889479e+02 -8.2233167460205266e+02 7.0317141065395856e+02 -1.6116923925571791e+02 1.3614026288244992e+02 8.3919205992055822e+01 
      </Row>
      <Row Index="7">
        9.9631943172910397e+01 3.7543204684086311e+02 -1.4167244189408102e+03 2.8451213401042623e+03 -1.8794069167870700e+02 2.5736740697415426e+03 -1.7832047277993013e+02 1.3036757735183979e+04 5.2243427631875397e+02 3.1599236731182606e+02 -1.6041829775392423e+03 -1.0470574342049067e+03 8.0040936541458450e+01 3.1161240771563385e+01 1.1712499926719784e+03 1.6545170467237074e+03 1.0391116108591018e+02 1.6072641020425360e+03 -1.8995016626355604e+02 3.3205770314282495e+03 -1.0357342446138161e+02 7.8365623169895002e+01 6.4146629000170242e+02 5.4164811936234219e+02 -2.7657481814399131e+02 -1.7729412986121213e+02 1.6137107118029144e+03 -1.8184025674088064e+03 -3.7216985371136865e+01 3.2219770302300767e+03 3.9079353893507636e+02 1.8258176715040900e+03 -4.8359030634281233e+01 1.2940869229388289e+02 6.1731786564919594e+02 4.5600774269428729e+02 1.3405729537517030e+02 2.2906238665793290e+02 6.6650022794573601e+02 1.1796238885092571e+03 -1.2548670838209671e+02 -1.0337984564644962e+03 7.5758216026352221e+00 3.9346692454602526e+03 2.5520027224186686e+02 -2.9430367686362047e+01 -3.6124401671290423e+02 -5.8367155026873479e+02 -2.3996464263372036e+02 1.0729433200313640e+03 -3.3476319556858823e+02 -1.6708076250286263e+02 -1.1787626863444125e+03 -1.4722467227524092e+02 -1.3480488350509775e+03 1.1064987055548158e+02 3.7772828963373809e+02 8.6860278872763104e+02 -1.3283305848758910e+03 -1.9388181030432363e+03 -1.3985510503498954e+03 -4.4420364083128316e+03 -3.6185506973038599e+01 1.9763202749009767e+02 -5.8370902912454267e+02 3.3970421378448611e+02 -4.7560358153131929e+03 1.2608100944755206e+03 2.5314563005666769e+03 8.2869733204431432e+03 -1.7362064892878552e+03 -9.1425084832522152e+03 1.6296434222793632e+03 5.9980460244903215e+03 -1.8300687780315920e+03 1.4322304919407247e+03 2.4869384422972798e+03 -8.1618848029377332e+03 -8.4127504191894582e+02 -1.4147530590324297e+03 -7.0786316412904362e+03 3.8562313854228705e+02 -9.9851217109314020e+03 1.2770366259802272e+02 -4.7979895118971638e+02 5.6698244825502422e+02 6.4000873764796397e+03 7.0797789708278594e+02 4.8062133002149621e+03 6.6456720565524893e+02 1.3105919600406776e+03 6.9534983748529316e+02 8.6305077050249645e+02 -1.6829755476134302e+04 -1.9799044434633397e+03 3.1307091611451167e+04 -9.1211333658812164e+03 1.0133254834172221e+03 2.4748994337028893e+04 -5.7183512912115602e+03 3.0917432967683351e+04 -2.1847750654803629e+04 -2.7138347596424592e+02 -1.2399696172024439e+03 -3.3301568595979297e+03 2.3937205559216445e+03 -1.0855541377632344e+03 -2.1256055601229368e+03 4.0139028799112562e+03 -5.7023880641270453e+03 1.0166546510701285e+03 1.5983219265623749e+04 -5.4518805291614235e+03 -2.3137777518727122e+04 1.1765322593083796e+04 -2.9008524468667911e+03 -2.1668738783256216e+04 7.2692330853197363e+03 -2.6376383756260067e+04 1.8603868499592914e+04 1.1703858417080316e+03 -1.8588948144576648e+03 -5.6019616089846631e+03 -1.2582268257005035e+03 4.9963724150339713e+03 -9.6676012572514242e+02 -1.0323580164460654e+03 -9.4435579280318052e+02 -3.9647229829437282e+02 4.8011842652288817e+02 -5.0784056486387844e+03 -2.0293193431466352e+03 -7.3974531471309967e+02 -5.3683156147054160e+03 2.6738495782174883e+01 -1.0226404517728874e+03 1.1573283207363049e+03 -7.6485123148001173e+02 1.8867157873342758e+03 1.6080025828321011e+03 -2.9417044313947499e+03 -4.2874824411771478e+03 3.3241717059901766e+03 1.0860457261011836e+03 -2.9973713412627567e+03 4.5887578934723379e+03 -6.1414413571943223e+03 -3.5472310528913013e+03 2.7934734369572798e+03 2.1232900127008020e+03 5.3805253228063084e+03 2.0178843047227249e+03 -2.1417316791373237e+03 7.8037761219440688e+02 3.4599807509342213e+03 3.8497791436559291e+03 -8.5073265054927697e+02 1.0173497836655852e+03 -1.6226700098836056e+03 4.3375711578977280e+02 -6.1250884934169051e+01 -1.7285288371997478e+03 -3.6121184466703371e+03 -9.2812425655024322e+02 9.2795814829841356e+02 1.5387384485826502e+02 -2.2132905718995883e+02 -3.2996243634906790e+02 -2.1473465198384915e+01 -2.5377360562785745e+02 -2.3277189680759898e+02 -1.1491972571099900e+03 -1.6180303371515365e+03 2.3565123269838659e+03 -6.5966096682742427e+03 2.7255683603502475e+03 5.2645151029503177e+02 4.1722494038634460e+02 -1.8726077924615538e+02 3.3471093703485258e+03 -1.2092392420433098e+03 5.9094095652465185e+03 -2.2450597211986860e+01 7.1153996498865547e+02 1.6119374723841593e+03 1.0238268255569915e+03 -6.8265813322128897e+03 -1.2498046515076785e+03 2.5238479346791394e+02 3.3839933803155145e+02 5.5773401850742375e+03 3.6225268163670034e+02 -1.4340062351724046e+03 -4.9325118695465499e+03 2.8512089927080524e+03 -9.8896635453241032e+01 1.1354302974871462e+02 5.1461461098577684e+02 8.0948881672649281e+02 2.9470153194297159e+03 2.2847848863548069e+02 -4.3384284909951646e+02 -7.9207993987113048e+02 -7.3051726634811894e+02 -4.4041219346819353e+03 -5.2196677869067662e+03 7.7099694149559610e+01 5.7966422293139395e+01 -9.1693386130593922e+01 1.5054439395663121e+02 3.5180341224576679e+01 2.9223814627925640e+03 -3.9879925494805377e+00 -1.1115945626243561e+02 9.8343514211681764e+01 -2.0556364798581208e+03 -3.4565714782503119e+03 3.3172401408935220e+03 1.3361731001965947e+02 -1.6961195847225802e+03 -6.2159274493017401e+03 -1.1593601095733748e+03 -8.6686447053098545e+03 -5.4802284867231501e+03 -1.8892122266421597e+03 -8.8755428270061714e+01 4.8488579848153296e+02 1.8792142790928574e+03 -6.5983590470535328e+03 -8.0308703595049883e+02 6.3518881942874691e+02 -3.9382698688581404e+03 
      </Row>
      <Row Index="8">
        1.1707682828430788e+02 3.9134851525774104e+02 2.5518258772176461e+02 5.1612341804787536e+02 -1.5295267826907656e+02 -2.3724982772119171e+02 3.2426058347815705e+01 5.2243623857142416e+02 6.0603454641399412e+02 -3.7270158706757371e+01 -1.3488548289936995e+01 8.4284622810014457e+02 1.1660113330997478e+02 5.9456012931417852e+01 -4.6660943090249305e+01 2.9271778775734833e+02 1.2678583420595891e+02 -2.3032957478261454e+02 -9.3751645810033565e+01 2.8714653045934565e+01 -5.2761477219615422e+01 2.4553372705250345e+00 1.1081621965960632e+02 -1.2074062602290631e+01 6.7724871020463809e+01 -1.1817619855598831e+02 -1.6108183598813895e+01 -2.4542989407509185e+02 -1.3059062369018713e+02 5.5078829718994928e+02 1.0579639180208930e+02 -4.7763981491490250e+02 -8.8189963480134679e+01 4.1293062603815002e+01 -1.2321508642756182e+01 -3.3105710223013631e+02 -1.1571777247786583e+01 2.0967566260463249e+02 -1.7973397884062800e+02 7.1874047247762064e+01 -3.9738830514469967e+01 -3.7341657722763773e+02 4.6473459307540246e+01 5.6542436482263702e+02 2.9416426704278331e+02 -4.3856026751090134e+01 -8.3079657818971071e+01 2.4047263174848683e+02 1.3384005300506806e+02 8.3761502068353934e+02 -2.4323821222176949e+02 1.4635048022221812e+02 5.6699585864465212e+02 -2.4124289036247217e+02 -4.4009343030163882e+02 -6.7181183468433417e+01 -8.3883479987114271e+01 5.5844136299041350e+02 -1.1995503565278447e+02 -1.9903365997682963e+02 -1.9406119120557560e+02 -1.4071076160535799e+03 -3.3140679257504763e+02 -3.9828732570700424e+02 -4.2069526765628552e+02 2.1661459834204445e+02 -2.1853570389523120e+03 -8.0202964554601931e+02 6.7548113656263467e+02 1.0570081420767424e+03 2.3654706150955872e+02 -1.9478076807532796e+03 -6.9440771637930902e+02 -1.2485862594643113e+03 4.9478305216305580e+02 5.2006856025540763e+01 -3.2043838666006923e+02 3.6550669878757930e+02 -5.1647529416017085e+02 -7.5340870605936482e+02 1.3343015477183448e+02 -3.9456248217006214e+02 -1.6880363932118780e+03 1.5890635821905136e+02 -1.1748328566254425e+02 -2.6595094006275758e+01 3.0512403545097567e+02 -1.8331142615529257e+02 1.0458364565318202e+03 3.8200377844709379e+02 5.1938916884516132e+01 4.7204468329715786e+02 8.1543254800844522e+02 -1.4527399061743686e+03 -4.1102568850423950e+02 1.9115560293964950e+03 9.1260748158922434e+02 -9.2961465653225969e+02 -1.6845583299360987e+03 4.3769829333864709e+03 -2.1176230106311041e+03 -1.0782217892115996e+03 -2.2301109114317217e+01 3.5736988039777913e+02 -6.0944619085160548e+02 4.4099490828066178e+02 -1.2891734744844646e+03 3.8514614926997604e+02 1.8787553164345333e+01 -8.1031143263169690e+02 -1.0086917080894295e+02 6.4164913009795646e+02 2.6330125337346874e+02 -1.1432625022547422e+03 5.5303810312925918e+01 -1.0848673060030019e+03 8.7661309981160662e+02 -2.0987721442422953e+03 1.5905439032766487e+03 -2.1499886935484454e+02 6.7519012098962151e+02 -6.6189192748499772e+02 -5.7908108618487131e+02 -3.3219355180685866e+01 1.8895350731359025e+02 -6.3390767926618298e+02 -7.9198510770798032e+02 -7.2131749080315785e+02 -5.3551907938776549e+02 -6.6469920884476863e+01 -1.4893402438315732e+02 9.0329417204717174e+01 -3.8942195893650982e+01 -3.6051206496735466e+02 1.6442320846029014e+02 -8.8370477438204176e+01 -5.5257786648254719e+00 -1.2229697362454615e+02 6.8176501799682319e+02 1.8112519987531846e+02 9.6946416097224528e+01 -2.2558387183041614e+03 1.2288904832556000e+01 9.7649714774440713e+02 7.6680164894977588e+02 4.0983647433896681e+02 2.4433467283278310e+02 -1.3974554679418088e+03 -3.6045868288494637e+02 8.0711832560997465e+01 1.1225397628582989e+03 -2.9308230128918643e+02 -4.6784682287045985e+02 -2.8995134746439812e+03 -1.0997509617331934e+02 7.8137720970599821e+02 -2.0143186061611135e+02 -2.3174876937824050e+02 -2.5155944947550907e+01 3.8291019993992506e+02 -5.4191346125468920e+02 -1.2138879384649192e+03 -1.1528431229152538e+03 5.3163070656036030e+02 7.8796856829371848e+02 4.5700635351101973e+01 -4.2049441707199755e+01 1.0355680729889642e+02 -9.2533234098594619e+02 4.0471112716884227e+02 2.3088573991507193e+00 -6.8112592314581008e+01 -2.2612593637793952e+02 -9.7573194966091978e+02 6.4806113150315468e+01 -3.4670196547364867e+02 -3.4350499432876762e+02 1.0572074300389745e+02 1.4147119567222381e+02 -1.9408296495282764e+02 4.4221858092414413e+02 -4.9295911880047606e+02 -1.4829773356798324e+02 -6.0853718491530614e+01 -4.7675802301501221e+01 8.5616843106330623e+02 9.1687121459448690e+02 2.2962056664166412e+03 -1.6404335097722506e+02 -7.8952329198704365e+02 5.8027008053993427e+02 4.2671061847726833e+02 8.9458212499354863e+02 -1.1939263198015942e+02 2.3747247690209633e+02 5.0560211728634293e+01 2.0545171137544514e+01 1.3264061579490817e+02 1.1147854966701953e+01 1.0582157109597308e+03 2.6240368168133500e+01 -4.7574147920834122e+01 -5.3252862322220579e+01 -5.2169402014538628e+02 4.5869232482624898e+02 -2.0036776697347668e+03 5.9894516273528694e+01 1.0640908644866681e+01 -4.7936430547378592e+01 1.4011179000772236e+02 1.3181647849769706e+02 6.0591438939116961e+02 -1.7072641683178126e+01 -1.1973706023723137e+01 -3.2632435151751679e+02 -2.5249809113362733e+02 1.5787778873833986e+03 4.9816179255417489e+02 -3.0302635036653561e+02 4.5050625087624923e+02 -1.1981672358706389e+03 -1.2254356797100954e+03 6.9323407875488851e+02 1.2222003263187253e+02 -6.4555196179721747e+02 -5.6307971174283125e+01 -3.2545311345104366e+01 1.3388546086045890e+03 -2.9956180583763899e+02 4.2407852681969143e+02 -2.1345377401450801e+01 6.0938987398135851e+02 
      </Row>
      <Row Index="9">
        -6.5414610625856895e+01 -1.0264942700396195e+02 1.8172468510359204e+02 2.7476387104566697e+02 1.1849503090609161e+00 -5.5781761058956974e+01 1.1670971862732992e+01 3.1599211709815080e+02 -3.7270129044960626e+01 2.3580269203354027e+02 5.5207928615071950e+01 3.8172159171604143e+01 -1.8653339378585656e+01 -2.0605901954170118e+01 -1.7659534919474589e+02 -3.1710549461115953e+01 -1.0069670323435684e+01 5.7097785045058174e+01 1.5643606571929558e+01 4.1820688563114544e+01 9.5878110891286283e-02 8.5572130445852906e+01 -3.6295099058272953e+01 -4.8544495351307894e+01 -6.4774065187081263e+01 -1.7146452360968347e+01 2.1051203550901910e+01 1.2116910163222126e+02 7.2273628584323362e+01 -9.2663849045910098e+01 -5.5742631911317055e+01 1.3895088747593076e+02 5.4854327453030081e+01 2.5674629984450061e+01 -1.0484208705237985e+00 -8.9431705962046550e+01 -3.3439054848533201e+00 -3.4163843706723846e+01 -1.8357845078550559e+02 7.5786600426089876e+01 -3.8042399128499639e+01 -4.0753425370041640e+01 -5.0652504903391673e+00 5.2433681656528073e+01 -4.0259005160641962e+01 2.5412072836434035e+01 1.8470761221233367e+01 7.0477608101511152e+01 -2.7563209090128971e+01 2.5500300406485226e+02 1.4047009846677369e+02 -1.0283518924467378e+02 3.0255764037255375e+02 -5.2443211638218319e+00 4.5804548584102383e+02 -9.4868890728838977e+01 8.5532298626323055e+01 -1.0540927488183874e+02 2.5007573800884396e+02 1.4091659968507626e+01 -4.2125501966215779e+01 -8.6388967480867791e+01 3.1094031724901171e+01 1.5505420589028054e+02 8.5057849905312821e-01 -1.2497563481968506e+01 8.6305358728535111e+01 -9.3182529483008636e+02 3.6454704995752945e+02 7.2805865079028126e+02 -4.4231353897533950e+02 -1.5786784333861096e+03 1.4416178458377206e+03 2.4318460783934680e+02 6.6339120574606181e+02 1.1159368854779675e+02 1.0718677552524314e+03 -4.6635065268580041e+02 -7.6091707417777087e+01 5.7064014703457183e+01 -4.7782850704780770e+02 -7.9596038154593043e+02 2.5724907782207481e+02 1.5640164265266289e+01 -4.4866164229072005e+01 -9.1652609417166059e+02 2.2901245833363760e+02 2.5911445852510226e+00 1.0355100327292123e+03 2.4829117362356953e+02 -7.6345971691661163e+01 1.1039572414139002e+02 4.7680359056164548e+01 -1.4823654373228692e+02 1.9084811884090675e+02 8.2698331518544910e+02 -3.9954749978361610e+02 3.7087437533804632e+01 1.5655864703008326e+03 -1.0248832058214282e+03 3.9473751689027245e+02 7.8731721621725444e+02 -2.2687080911307746e+01 1.3096884775734054e+03 -3.7343279592537306e+02 -1.4478620861453987e+01 3.7428126782707074e+02 7.6556560279385266e+01 2.5205668645990838e+02 -1.4858944650203304e+02 4.5314440532759178e+01 4.2156449453861865e+02 -1.7668732418296449e+03 -6.8814566156880960e+02 3.8469656226348133e+02 -2.1923494833037390e+02 -1.1576181677898958e+03 1.3721743579846791e+03 3.3442900392789124e+02 -5.9842303647956874e+02 -1.1065669515483039e+02 5.4216520129523633e+02 -1.8594491276380410e+02 1.1171405853648258e+02 -2.6400266480633900e+02 -1.8052527480413124e+02 4.5675374269950515e+02 -9.3031631102152232e+00 -5.2869421948783630e+00 2.4479999113302915e+02 -1.0558049405496081e+03 -2.6884405597089608e+02 1.7358337660894125e+02 2.7496326106237348e+02 -1.1198276222576872e+02 -6.2256306111485401e+01 3.6296811518191606e+02 -3.3304119109045456e+02 -2.7372708271140766e+02 7.9550697989211108e+02 -4.5993844087900970e+02 -7.4631602101820044e+02 6.0462046975466637e+02 -2.7551329142901261e+02 2.9917187671588374e+02 -1.2036370548879631e+02 8.1012297428922437e+01 1.0965306020085104e+02 -1.9723564894051270e+02 6.0168391336284697e+02 6.5281874523796557e+02 8.6005540124186689e+02 -3.2101350302712183e+02 9.4349056809866354e+01 4.3392742106302018e+02 2.1782073649722886e+02 8.2003091998564230e+01 -8.3992306580930006e+02 5.1942468433824649e+02 3.9004765988759664e+02 -9.7310106510821993e+02 -1.1787320895370651e+03 2.2788514901402044e+02 -5.4024945148144731e+01 -7.6331432013636826e+00 -1.0900319204451128e+01 4.3886771824702580e+00 -1.5638176790230837e+01 -5.7575508424881627e+02 2.3712866714036176e+02 -4.7550848835356888e+01 -4.1486358128597794e+02 1.7294266599960253e+02 -2.4952604553897220e+02 -6.6286146899873302e+02 3.7899321179657272e+02 3.4929808873471284e+00 -6.1855609330054246e+00 -1.0168030356230815e+01 -7.8737456867830133e+02 -3.1124788902459841e+01 -4.0780283382005109e+01 -2.6243904756682326e+02 -7.7016773765880657e+01 1.3920669315040300e+01 2.9822473950857943e+02 8.2051444828532681e+01 -1.0902741547827868e+03 -4.0315840346842506e+01 -9.1433111019390708e+01 4.7801680936554487e+02 3.6780282763970695e+02 -1.2862625885415946e+02 -1.8114126765518449e+01 1.0811881628534738e+03 -2.1802167123172978e+01 -7.2138449081305453e+01 1.6670026869864850e+02 6.5110470083425810e+02 5.1224880938075228e+02 3.8004953318291399e+01 3.3061300676196981e+02 2.4326561789164077e+02 -2.4285681510301163e+02 6.3115336414749345e+02 5.6961522289967286e+02 5.1679433880598744e+01 3.5422820814804261e+01 2.5147013196037104e+01 -2.6440279450081263e+01 -1.9055087908723672e+02 -7.3556163145619848e+01 6.4857785781111565e-01 -3.7861688138256710e+01 1.3805231159328173e+02 1.1936456925081148e+02 7.2680873069248776e+01 8.3695638238703259e+02 1.8178046326030176e+02 -9.2703167140456372e+01 9.7882354187660326e+01 1.4305254494264710e+02 -1.9847890957804390e+02 5.2925497578203931e+01 -7.7018472158752081e+02 -5.4614285893790054e+01 -5.1115308816080308e+01 -3.2223772812960775e+01 -2.1615905412416157e+02 -3.1936956186804309e+02 3.6919301129215128e+01 -5.1770139204470524e+01 
      </Row>
      <Row Index="10">
        2.1843624207121728e+01 1.3862273731131589e+02 -4.4646577283909428e+03 -3.9971225122079159e+02 1.3808728286780513e+02 7.5086754895070271e+01 5.3279440364837535e+02 -1.6041792547935547e+03 -1.3486672409520054e+01 5.5207322371172779e+01 7.1651865606702277e+03 8.0557414839376370e+03 2.4487282212143676e+01 -4.5746512085200282e+00 -4.0896621352413865e+02 -1.7066811159147196e+02 -1.1851997647289542e+01 -4.2834374429347753e+02 3.0519406793449576e+02 -9.9657058650785203e+01 3.8843424596468765e+01 -1.2085433084510735e+01 -1.6269834295548822e+03 -1.3857745941898163e+03 9.6443461504948687e+01 -1.7476666110255152e+01 2.1923917432090689e+03 6.5785542682177277e+02 3.4221120794079809e+01 4.6795711806157260e+02 3.6004556078453569e+00 -2.3324804694167319e+01 -4.9978854639048876e+01 2.8493700694786604e+01 -2.2121102939541670e+03 -2.2882911176883208e+03 -2.8851696015413154e+01 7.9737996891635817e+01 -1.1687999429080352e+04 -6.4275240682554431e+02 2.3987388437468212e+01 -2.7883971626666607e+02 -8.0857920669401679e+01 -3.3391712749668159e+02 -5.4153690222462387e+00 -3.1821778811241757e+00 1.1418924365395551e+03 -1.2553838064700867e+03 4.1092180161360648e+02 -1.0468155045350659e+03 -6.5645028386190484e+02 3.8841879298401761e+02 -3.2729704025342212e+03 -1.0998055290385210e+02 1.5340359478663140e+02 -3.8115549516913916e+01 -1.9259648860621178e+02 3.6120044973562472e+02 1.4117713410695953e+02 2.1458122116843282e+02 3.9237607209663838e+02 -2.5529960362528409e+03 -1.7307411594980093e+02 2.5938538096045244e+02 1.8442653656064422e+02 4.6448795563387065e+01 -1.2412592194245678e+03 -1.1279159300210529e+03 -4.1556416294729797e+02 -1.7318508362720058e+04 -5.1823758654714516e+02 -1.6181496276119622e+03 -2.9418021143858095e+02 -5.4448775072522121e+03 1.0962844994560466e+04 -1.0361914032885111e+03 2.4472068843245506e+03 3.1708935435451931e+03 -2.2325124205802931e+03 -5.9654027469035304e+02 4.0810956471876243e+03 2.7296558357961476e+02 1.8326870667985640e+03 7.1768085882121659e+02 4.3924348052486863e+01 -1.2552106065545231e+03 -1.2629480128434218e+03 -3.7113205546247434e+02 -3.1988013783268011e+03 -1.7051475765223370e+02 -7.6582704007127154e+02 -4.4969657838499677e+02 -1.0470227438844753e+02 3.2646300583823631e+01 -8.5252981227195505e+01 1.8134785474502987e+03 -5.4847935659175100e+03 -1.1497200844858116e+03 -1.8213410953896644e+03 -3.0428601218987860e+03 -2.2483734266458769e+03 7.8045392779273061e+02 -2.4099626062321761e+02 4.4332267658136391e+02 1.5959583028071938e+02 8.9085356889251187e+01 -1.3356569165963238e+03 1.7540431017347594e+03 -3.3363253875186324e+03 1.6245403860135812e+03 -1.4608449881425627e+03 -1.0003611689819081e+02 5.1093202163722763e+03 -2.8702934563996405e+03 4.9176449823928315e+03 -3.1641288380014902e+02 -4.7745566243434115e+02 2.4461732778285359e+03 2.2029791049118339e+03 -1.8871120510414312e+03 3.0977994503212068e+02 -5.3572609490156174e+02 7.2103185219370846e+02 4.1025067534172643e+02 -1.9574328985913123e+03 -1.9860540459766864e+02 3.1694531991247266e+02 4.0973135493975133e+02 2.9090993073513198e+02 -3.6263573110958383e+01 2.8719976003195202e+03 4.4567735427245498e+02 1.9211748874242377e+02 4.7491221303960556e+03 1.0523887175570410e+03 1.7561430425815450e+02 -3.1023252080962720e+02 -1.6753683970159176e+02 -1.7772946359842042e+03 -1.3611082604541834e+03 1.0523437418647070e+04 -9.4390961397296633e+03 1.1757048676845061e+03 2.8532826816837118e+04 -7.7093888499108125e+03 1.1606306696026868e+03 3.0621292842142902e+04 1.5625971935495395e+03 1.3016424188192133e+02 -1.0201364206906395e+04 3.1163219412723602e+03 2.5561360208881324e+03 -1.6641741827741767e+04 6.1858600718189336e+03 -8.4425381034913626e+03 -2.6591154695559439e+04 -2.0589555343931158e+02 -4.0122757120290585e+03 1.0752641762504167e+02 -7.8156469612841574e+03 -3.5045817488903895e+03 -1.5345208192392214e+04 7.1003465212632345e+03 2.0385961352618924e+03 8.8250948397099692e+03 -2.9000079107525586e+01 3.1982891289739779e+01 8.9844036239054060e+02 5.1316106219203073e+02 1.1902844758394988e+03 9.0871493564554811e+01 -5.5978336959434750e+02 5.4457331852868447e+02 -8.8939503830025205e+02 2.2562044537674374e+03 3.0916173339531088e+02 -3.9123952863679961e+01 -1.8527231442254174e+02 1.1339627913692875e+03 -1.6598144166645507e+03 2.1238991428095278e+03 9.2330329287385030e+02 8.9496134181783395e+02 1.1635926941896251e+02 -7.8885262570447821e+01 -7.4621354569668983e+02 4.0072699521769391e+02 1.8885745688363386e+02 -4.0968040978110918e+02 -9.4386861012935697e+02 -3.5344706361671369e+03 -1.4029389471882278e+03 -2.6236639394242957e+02 2.2992557927511662e+03 -1.2856602033206509e+03 6.1367967402537310e+01 2.2738328120366532e+01 -3.9031997906092420e+02 -7.8537013758795854e+02 -3.0476452879385351e+03 -1.7090901980382750e+02 7.2994302154756724e+01 4.3860456208863377e+02 -9.3460483618889396e+02 2.2827925554397248e+03 1.8743477002844477e+03 -8.7363661265525479e+01 1.2392086810785923e+01 1.0710908194686908e+01 4.8177400397284748e+02 1.0405105719232250e+02 4.0190947856398270e+02 -4.6221120592954861e+01 -2.1652499547605623e+02 -2.5309057616952310e+02 1.8605026266892808e+03 -6.9149454351564899e+00 2.1750462564002937e+03 3.6592252049286289e+00 6.4938055269921779e+02 3.1868016349555273e+03 1.3915214451905504e+03 1.6717103101274838e+03 1.8961957758000062e+03 5.2763294354945074e+01 1.6392934192523050e+01 -1.2841678350242546e+02 -1.0383333441175305e+03 1.1585377454682348e+03 3.0228050228848588e+02 -1.1707808589764103e+02 -1.5288864003186609e+02 
      </Row>
      <Row Index="11">
        2.2008246395994004e+02 4.6473113668847913e+02 7.7790751994557231e+03 2.5595675460187490e+03 -9.7671280008702638e+01 -5.7176954675948139e+02 -7.2137745409804694e+01 -1.0470558794676449e+03 8.4284808868834148e+02 3.8172309941987649e+01 8.0557358456816955e+03 3.9457083994865272e+04 9.5487224681213846e+01 6.6885732059260178e+01 3.9213878804908331e+03 8.0513135841402584e+02 1.0021687562104555e+02 -3.0771091033055395e+03 1.1335952289651307e+03 -8.2386707594431425e+02 -7.5703793526926134e+01 -4.8303598770093465e+01 -2.4192945606563899e+03 -4.9865856452730859e+03 -2.5514730561488545e+02 -1.8501626882745404e+02 -1.0858393158177783e+04 3.8231328106998978e+02 8.2399826122194796e+01 2.0955590692632213e+03 4.7859349687337482e+02 -2.2711364852809406e+03 1.2016814932608679e+02 4.4912451044255545e+02 -2.7012388708579233e+03 -1.4515335758393203e+04 9.4578109030754675e+01 2.5585599107003901e+02 -3.9996799215196725e+03 2.9999519903014880e+02 -1.2406067409718511e+02 -7.7252443664671227e+02 -5.6640656748932054e+02 9.0693224508682954e+02 2.7011996914429159e+02 -2.7933760728694892e+02 -1.5853349236294480e+03 1.7288567204729148e+04 4.7217277504560411e+02 2.7725259452272599e+03 -3.3969906483590516e+03 1.9934103060312896e+03 4.3734450989466914e+03 -6.3530226101877119e+01 1.2802474999235569e+03 -5.1522117607175414e+02 -1.1682898562642288e+02 1.1952437576045631e+03 1.0892276795624889e+03 -1.0089075392965237e+03 7.6011962892021984e+02 -1.0089986786396661e+04 -1.1453280928517245e+03 2.7767773621419005e+03 -9.7310476497545480e+01 2.0248039759007446e+02 -3.0478739839299120e+04 -1.4658470640226325e+04 1.3273857314830943e+03 -3.0919962049553469e+04 -1.0163749658949519e+03 4.2913452548041045e+04 -3.5155358311671675e+03 -3.3511140965726634e+04 3.2249638453020085e+04 1.5020618069378327e+02 -4.0123824103474617e+03 5.9394712656848315e+03 -3.6415464323961892e+03 -4.2386009845641647e+03 2.2911778334953131e+04 -2.3701140439603478e+03 -7.6293851513478439e+03 -1.2022869864520874e+03 -1.2858445703908801e+03 2.8437637079507113e+02 -2.1803841710081006e+03 -3.7265395173812376e+03 -6.0494484549135514e+03 -1.4243964556117135e+01 -8.0462631315984254e+03 3.5489174836605650e+02 1.7052617033674824e+03 -8.1199540170451874e+03 -5.6528164027726389e+03 1.3488397367998827e+04 -2.5696420800160122e+03 -2.2109965524915356e+03 3.9012883162860817e+03 1.2460055956287499e+04 -1.7939342893723704e+04 -7.7130869556769758e+03 8.7159023929489751e+02 1.2186545070953107e+04 5.9305787348040867e+03 5.7173979833278163e+03 4.1293859387055154e+03 -3.9917709403515742e+03 2.7124051421766044e+03 -1.3609677523407299e+03 -2.2313631554694448e+03 2.3360779600890382e+03 1.5625705652312978e+04 -8.8633306236232656e+03 1.1727599775028122e+04 -1.2318461750603767e+03 -3.4984078356481718e+03 -1.0999687049417078e+04 1.3726438285818174e+04 -7.0134134572595785e+03 1.5079457276793560e+03 -1.2613183611631393e+03 -1.7648512685917285e+02 2.7057712813417115e+03 1.7192774312942569e+02 -8.4357943328651697e+02 6.6892786821015143e+03 -6.7453332687367219e+02 -1.0620815469952042e+03 1.3257158541783386e+02 6.8709985364557842e+03 1.9323588738674298e+03 1.4612743428703491e+03 1.2705880182314313e+03 4.9523283804193925e+03 -5.3555514362096460e+02 -6.6585463663330927e+01 -9.8106000967905447e+02 7.1769540778985611e+03 -1.4178887400587279e+04 1.8305026510901549e+04 -2.7379688021512433e+04 1.7604194328018544e+04 5.6716438629296987e+04 -1.5088745858729762e+04 -1.3697808570975205e+04 3.9222301185403972e+04 -2.4366985381061852e+04 -1.2512816054641722e+04 -1.8542440382448596e+04 -1.3823633464234495e+04 1.0819716590059234e+04 4.7307677146793940e+03 8.1933753919124429e+03 -1.9391096481906978e+04 -3.4020132151677826e+03 -2.8971684021362607e+03 -3.2321936815266272e+03 -1.1467787184628278e+04 -1.7451118836405394e+03 -1.3735606076994833e+04 -2.1558230724462021e+04 1.4933068515288974e+03 1.3934957426608140e+04 1.2080033858019406e+04 2.3399801040885569e+02 2.2017762742869170e+01 2.6825805457774641e+03 6.9914104239151050e+02 -6.5955848324722058e+02 2.7963906744232196e+02 -4.4719678244100141e+03 4.7958091982423866e+03 -2.3877702980728645e+02 -3.8577406347749020e+03 1.1562049085831000e+04 -5.6676716466134030e+03 1.8344777615390290e+03 5.3055759071202910e+03 4.2609334868614678e+02 -2.7434115675935027e+02 1.3644607848744992e+04 2.0492653838068800e+03 9.4613019336613900e+02 1.7795377462871929e+03 7.3074921401851316e+02 -3.3253227817461720e+02 9.2299426349848218e+03 9.1534709806177581e+00 -6.4799678223787851e+03 6.7576939813206263e+03 2.2277387891974504e+03 -1.0706977979028161e+03 7.1839035447155766e+02 -1.9095329195195518e+03 1.5441971613824765e+02 2.4301945860588421e+02 8.3267354457996589e+02 4.2337957664739076e+02 -3.6683059717189299e+03 -1.2451779654690722e+02 1.7440512089987408e+03 2.4203826125717874e+03 -5.2408836942592470e+03 8.1992679753703078e+02 1.1710435743842036e+03 4.8130975851762923e+02 -1.1447865611864960e+02 -2.7782994513023647e+02 1.3779623066447596e+03 8.4085174116329006e+02 2.1893901170193276e+03 1.6291957221746742e+01 -3.3151333193323376e+02 -6.6607989400788938e+02 3.6993988381025520e+03 -1.0141800256220997e+04 5.1436235354900566e+02 -5.2572645440141414e+01 2.7124976865746726e+03 -3.8097379466890852e+03 -7.0765712919875141e+03 -8.0478019494257915e+03 7.2629836087085423e+03 -5.5304786277996463e+03 -2.8715028102836698e+01 -8.9094854438171733e+00 -2.6963571795082021e+03 7.2319970902895511e+02 1.2032074825401651e+03 -1.3396578125923281e+03 -1.6941251151242541e+03 
      </Row>
      <Row Index="12">
        7.2031049108395308e+01 1.0019252705247696e+02 1.5172153924204605e+02 1.0125341919940222e+02 -1.7288723845368786e+01 -1.1601890440587577e+02 -4.2953134536657835e+01 8.0041371655751618e+01 1.1660114101263400e+02 -1.8653341844184585e+01 2.4486889738681271e+01 9.5486842131760127e+01 9.4434527251130717e+01 1.3722225824569399e+01 1.6301314887690481e+02 1.2228650293776198e+02 1.8546181311614539e+01 -1.6931212622870504e+02 -6.6397519636782803e+01 6.2668650923585233e+01 -7.9156913790115535e+00 -4.7861699196810905e+00 1.5265677268169984e+01 3.6904826926041167e+01 -3.2082136049906325e+01 -1.8980852936533047e+01 -2.1471930575581374e+02 -1.1063233581366369e+02 -5.1834898684415037e+01 1.7358280582390717e+02 8.2832778468494197e+01 -1.8030038920171279e+02 -3.5816239785343591e+01 -1.5175753052469148e+00 2.8462945541611390e+01 -1.3345418321793630e+02 -1.2475542501808466e+01 5.2105459661998665e+01 -2.6801881596014113e+02 9.7267408610568964e+00 1.7480400689383444e+01 -1.4739883254098027e+02 1.1304965632958268e+01 1.5117862351127764e+02 6.4088586287397760e+01 -5.2256867852858129e+00 1.1511039100490564e+01 4.1262062560501235e+01 2.1170690913596360e+01 -2.9057949218613231e+02 -7.1051287136201653e+00 4.8145615203643104e+01 5.4920419634627751e+02 -1.0090268480393543e+02 3.6016617484130983e+01 4.6927260616266921e+01 -6.0282154268405375e+00 1.4604141506868109e+02 -2.3316002597051479e+02 7.1782013508720453e+01 -4.9618477652838919e+01 2.5579468151456547e-01 3.1904127428885754e+01 -2.0744278607306197e+02 -5.7763126468499294e+01 1.4046470508739130e+01 -9.0177372825919065e+02 -4.4588371671612595e+02 7.4041481356689633e+02 1.7515098749235273e+02 -4.8800354453377622e+01 -8.9649541353867482e+02 -1.6106604293936130e+01 1.7060771682954078e+02 4.6970123115453805e+02 1.1402901330497852e+02 9.8223018882796168e+02 3.6958733516587546e+02 8.0965053172476189e+01 2.5331409672854718e+01 1.9071503010136539e+02 5.0506619804480579e+02 -7.1317620144988905e+02 -4.6074877180829866e+01 -9.1525979310376655e+01 2.1809763081336860e+02 -1.8615845161960169e+02 -8.3008163471615518e+01 -3.9403504519591522e+01 1.2663924879395381e+01 -2.1605269663424926e+02 5.3874855384139295e+01 1.8089582496047191e+02 -7.7605315076563875e+02 -3.5824294312515326e+02 2.1152266176127796e+01 -2.7961991359393880e+02 -3.1605929749491634e+02 -5.5512444009873775e+02 6.7037835358932455e+02 -7.2548463866133488e+02 -3.5258136942457520e+02 -1.0966934623162442e+02 6.7490129567581619e+01 -2.3136990950579053e+02 2.7468303889367445e+02 -7.0990322333513427e+02 -1.6384571127020098e+02 6.0352507665922428e+02 -4.4362927205585174e+02 2.4042151463095120e+01 3.9867220622969103e+02 3.8835794725271057e+02 -3.1276803077542928e+02 2.6414159520526010e+02 -1.3889698754425805e+02 2.7603768929981726e+02 -3.7696177870540552e+01 2.5860750968835652e+02 -2.0411009868738319e+02 2.2241121956776081e+02 -3.8183675221865997e+02 2.3267279699330908e+02 1.6192830135790117e+00 1.4145666263507005e+02 2.1232273024742977e+01 -2.7438785390047343e+02 -8.0449277962776250e+01 -1.3464927978554201e+02 3.4881484510350568e+01 1.2760309386746526e+02 3.9793474525416968e+01 5.6426721224503552e+01 1.6371000791459949e+01 3.4026637887988578e+01 1.5361773462028827e+02 -5.6918936642721292e+01 -7.7396016314316839e+01 3.8283894494432769e+02 -6.5039026781646612e+01 2.6459763898117160e+01 -9.4410447879822038e+02 2.4616464086600581e+02 3.8771079420882086e+02 4.7802688022802573e+02 1.3787205845513066e+02 8.7238766601284851e+01 -5.4540241410631040e+02 2.0413218603535094e+02 5.1407441673283063e+02 6.2967336269079362e+02 2.4060659450713405e+02 -1.8313032909667515e+02 -9.9081300961596469e+02 2.6086969683642496e+02 4.1607419540646805e+02 -4.4122096152401809e+01 -4.7076312360144027e+02 4.0443139823024262e+02 1.5026680853144114e+02 -4.1337213906093083e+01 -7.0742276123473243e+02 -6.9684294351793892e+02 7.4071218569342557e+02 4.4996670943432230e+02 5.4270439194749311e+00 -3.5270730359943130e+01 -1.0411703029537403e+01 2.3018760989793779e+02 -6.4105886746358763e+01 -2.0491387319950505e+01 -2.0079322820501346e+00 1.4558006103971707e+01 -4.5049510577448882e+02 -9.9319826862440266e+00 2.4703853129945605e+02 1.9524008048606106e+01 -2.0165737721535873e+01 3.6295668074652099e+01 -4.1339738000232222e+02 -4.4802708351691729e+02 2.1251924657092991e+02 -1.2463866349557149e+02 -8.2983476654850733e+01 -2.0934636447540902e+02 2.4276650284816455e+02 -1.3962622948264618e+02 7.9410470056236909e+02 -7.6160179134164494e+01 -5.3756109013952494e+02 4.2035882217502666e+02 -6.3299282074965504e+00 3.1185388159051240e+02 1.8950352117070452e+01 -2.1428285266890157e+01 3.3377766268968358e+01 2.6855149769681113e+01 -2.0418678072011460e+01 2.9882317101838552e+01 3.0727012031511504e+02 1.4458593495367495e+01 1.3578356006392733e+02 3.2513178940556475e+02 -2.7081187869307837e+02 -1.5310986305681143e+02 -3.4683574243035719e+02 -1.9112183459922612e+01 -1.2680345217772324e+01 3.2370048947259029e+00 5.4307790289982172e+01 2.5583645381700879e+02 4.0724616080025743e+02 -1.1719000836634304e+01 6.7951854688748057e+00 -2.1694372086682179e+02 -1.7241289973827386e+02 3.8513462750644476e+02 -3.1417419310133357e+02 -2.2453089596765318e+02 5.9229693437021047e+02 -5.0432679945614723e+02 -1.8794732401987386e+02 4.5329875125482289e+01 -5.2599907480821912e+01 -8.7169873610862695e+01 5.1698585537673416e+01 -1.0448751003772772e+02 4.5102150244290948e+02 -2.9992353012919909e+02 -2.9741166900842518e+02 -1.3417357064967042e+00 3.1158677825043611e+02 
      </Row>
      <Row Index="13">
        2.4665697766785005e+01 5.6004721123924931e+01 1.5513330708514667e+02 5.8701078574712497e+01 -1.7818859466193665e+01 -5.6366831277237011e+01 -3.5647804765786559e+00 3.1161411277995335e+01 5.9456031284262188e+01 -2.0605904102478988e+01 -4.5749593659035552e+00 6.6885586405641661e+01 1.3722232423756306e+01 1.9709625027111667e+01 -1.4272848404615939e+01 1.2345098115861491e+01 8.4145688512342947e+00 -1.3141438988943181e+01 -5.5688865388658755e+00 -4.6770824958949220e+01 -1.0043354359954819e+01 -5.6492840049611361e+00 8.9967526128348183e+00 -3.4958900023301140e+00 2.5995372592655999e+00 -8.5316907651294578e+00 -6.6179626528337522e+01 -4.8521989787695340e+01 -2.3377772661251004e+01 3.6119526255996320e+01 9.5435376343987173e+00 -5.7376759478412653e+00 -2.1134416370543203e+01 7.3417594253291962e-01 -4.0594481160912039e+01 4.6631510873767127e+01 2.8240328700405888e+00 2.2014873625525631e+01 5.8911630752152213e+01 5.9654201782815676e+01 4.5376518268198751e+00 -2.4332263121626795e+01 1.3059067665476156e+00 2.9937558535033823e+01 3.7944907725693952e+01 -3.4462452902361465e+00 9.6370763295298776e+00 1.7021975033639592e+01 3.1509826200435960e+00 -1.1161293731874041e+01 -4.1621910377517004e+01 4.9588997785848342e+01 2.2548948956090737e+02 -3.6070342745818529e+01 -3.5786798963155270e+01 2.8822391766651613e+01 -1.4164596346813518e+01 5.0867258202521043e+01 3.9845443797267954e-01 -8.3664821502185749e+00 4.9463812723042793e+01 -4.1230002288695738e+02 -4.9157956475723992e+01 1.6349008773039834e+01 -4.4738884616060467e+01 1.9620664979085390e+01 1.9604383596994518e+02 -1.5172907841775100e+02 5.9190792846635162e+01 7.2431960927732987e+01 -3.6861833290166032e+01 -3.6530747991388586e+02 -5.7616109564145674e+01 -1.1470360202450432e+02 -9.3848469412366512e+01 -2.9371772785463712e+01 -1.5943997059774119e+02 8.7406919756508643e+01 -8.4040504909020569e+01 -8.5132307197665796e+01 1.5295917648762787e+02 1.1850945131793560e+02 -2.2906423964580608e+02 -1.3676765148771504e+00 3.1914526297931928e+01 2.9685368603749521e+02 6.5198005442809517e+01 -4.9779379075156029e+01 -2.2237467902026336e+02 4.2787084032590670e+01 -8.2012154752227673e+01 2.8273511816476194e+01 6.5277847377516508e+01 -9.2388091902794571e+01 2.7082738162639987e+02 2.3966673869560506e+02 5.9005120485274347e+01 -1.0235898100330104e+01 1.9359276503762288e+00 2.0030189287446817e+02 -3.6438416700152561e+02 -7.8063095611687757e+01 -6.9134051623322206e+00 1.2516733003303926e+01 8.4593844288231139e+00 2.6425115945970173e+01 -3.0011164683181065e+01 -3.3861527108619526e+01 6.6580813197857083e+01 1.3014061762680399e+01 -3.6972863255051564e+01 3.0833129001350358e+01 1.4746424241984460e+02 -1.9794739184773564e+02 -6.7704943174363535e+01 -1.9086591606111236e+02 -4.2099925328108947e+00 -1.1402093336027021e+02 2.8864308002095902e+02 -7.3816299307658966e+01 4.8856107944677923e+01 -2.5911890440453135e+02 -5.0807556077875731e+01 4.9626897519083499e+01 -4.1924289277323993e+01 -1.1921399534666939e+02 -1.9006441536764449e+01 -5.8200279149434664e+01 -4.3627380153538390e+01 -3.0763469523782017e+01 7.7100963162805314e+01 -1.3511480591256259e+01 -2.6111051817592514e+01 -5.8313645280408316e+01 3.1772080996227572e+01 6.1406109804625977e+01 -2.2759373125504911e+01 -3.9140725355712647e+00 -1.1119530183145557e+01 -2.3379459440603316e+01 1.8661088199955159e+01 2.1246327030355815e+01 5.9226064545956660e+01 -1.1776947437813241e+01 1.7419390704271066e+02 1.0646080839306114e+01 6.7396333172274751e+01 1.3128276701025013e+02 -2.0054634818721604e+02 7.0062938586128439e+01 -5.3904939578870454e+00 -9.9383773524255929e+01 -1.4828248426858420e+02 -2.0655175845211696e+02 7.5867101911953455e+01 5.5127097475854065e+01 7.7393652274644907e+01 -1.3869118214896508e+02 -9.2688535380062561e+01 2.1104176377795039e+01 3.0689530742152749e+02 -9.9614179914677933e+01 -1.4787509136665767e+02 -6.0363852999696462e+01 3.8263992186201669e+01 1.4855173369912814e+01 -1.1667309410784744e+01 2.0571572285443018e-01 -6.3674063932467440e+01 6.1165723852085478e+01 -3.0126829184499386e+00 2.8178780383120554e+01 7.7658311341041127e+01 -5.6072810082652950e+01 6.4054223896257540e+01 -2.8226189021733603e+00 -8.6768145509514483e+01 -1.5448269855850036e+01 2.1218907751181632e+01 -6.9238722605496719e+00 7.5867224533756854e+00 -2.9083338358505921e+02 4.4212062547152684e+01 3.0557181627756510e+01 4.9644406611955674e+00 -1.5733929879566858e+01 -8.5159174365393540e+01 2.4811781836957994e+02 -1.9693879894052241e+01 3.3954932622495562e+01 1.4815336268536288e+02 -3.9788699937776641e+01 1.1500199182306778e+02 4.9890864782429162e+01 -8.7219665785862787e+01 1.8336174976083338e+01 2.2192347513404144e+01 1.3763498862746090e+01 -1.1826744715123624e+02 3.5529477091061572e+01 -8.7310914626478109e-01 -3.4237556062326000e+01 -8.5507724058618937e+00 -2.9380031097458122e+01 6.9608607748633403e+01 -3.1489420957435891e+02 2.4457102275673748e+00 3.7483853182893667e+00 -7.6816358819472841e+00 6.2283523537430270e+00 3.9711743614131947e+01 -1.2083692077398155e+01 1.6602394271330487e+00 7.1251368009628218e+00 -6.4158471469919220e+01 -2.7885255348597628e+01 6.6501176897527955e+01 4.4300077947932479e+01 -8.2653595995026137e+01 -3.6700926970565457e+00 -1.4092529637702955e+02 -1.1130691574099455e+02 7.9471979563957234e+01 3.4756040611620278e+01 -8.7408191194044306e+01 -1.4915948354496306e+01 1.6059531027058512e+01 1.1262051030322129e+02 1.0613742721995487e+02 2.0508462216383725e+02 1.6218402693034793e+01 1.6734706032559416e+01 
      </Row>
      <Row Index="14">
        2.6561607338899915e+02 -5.9737206085321162e+01 2.1636187671794187e+03 6.5368129616319561e+02 2.3798886720601331e+01 -2.4320813055174976e+03 -1.2455453535120253e+03 1.1712586106927188e+03 -4.6661007776032420e+01 -1.7659518378167411e+02 -4.0897245678963054e+02 3.9213852763238447e+03 1.6301321896853713e+02 -1.4272952868368627e+01 1.2549109294873138e+04 3.7762875500138870e+02 -3.6500309005015325e+01 -3.7198023188275151e+03 3.9456932438783303e+02 7.7563303469011419e+02 -3.5321346147104137e+01 -7.9305671906099292e+01 4.8546744543610026e+02 -1.0213953297306479e+03 9.3429329209403136e+01 5.1555451465757592e+01 -9.5901049142145675e+03 -5.7605972364636636e+02 -1.3580010453295085e+02 1.9213658932791504e+03 6.6083089765482487e+02 -2.1228265258943211e+03 -5.7274107484988789e+01 4.4589057684939235e+01 6.7933169070707933e+01 -1.6761278252500101e+03 -7.9584392522301961e+00 -3.9957085940628048e+01 5.2591055153312827e+03 2.2457622738635837e+02 9.3614330240754953e+01 -1.8029754202400911e+03 -3.5613354916947725e+02 1.4669167058202167e+03 -1.1988079425153444e+00 -6.9553303427387533e+01 -3.5620146854368818e+02 4.8057384970521653e+03 -3.9301829848952593e+01 -2.7088047297071771e+03 -1.3339891510020900e+03 5.6169367538477513e+02 -1.3727321426929457e+03 7.4940463020174559e+02 -1.1747738097666402e+03 -4.2716717993322550e+02 -5.6239945905221020e+01 2.9364476289369122e+02 -4.1587826482377995e+03 -1.5941362637561206e+03 -7.1983891054897686e+02 4.8805463215397222e+03 1.2159133487502684e+03 -9.1039703282020753e+02 -6.9146014670513907e+01 -1.2973180976508183e+02 -1.1879614901402529e+04 -2.3638652600584755e+03 1.3385016853534908e+03 4.5189517837277672e+03 -4.7780119770822785e+02 -2.2838188200830173e+03 -6.0936227500579207e+02 -5.2103926570102794e+03 -9.7695954200946016e+02 2.1048378225753772e+03 -1.6287820603698492e+03 2.4674845411823180e+03 3.7632981904399958e+03 2.8643415874151979e+03 1.3020142684655855e+04 3.8806066232245648e+03 -7.1332261318832025e+03 -5.5126137170702714e+03 -3.8364007711513887e+02 4.4650996105195954e+03 4.5207925658486784e+02 -1.0420055448425964e+02 1.6610455611235388e+03 -1.2220333711329131e+03 -6.7668887678795386e+02 -8.4813331150657021e+01 -8.2644148899287131e+01 -1.0442514208624971e+04 2.6204410545084429e+03 2.2478867666489678e+03 2.5400081537061851e+03 4.4714886213987756e+02 4.2289763306084733e+03 -3.0588048160421886e+03 -1.6311581001550043e+04 -1.0692718698263789e+04 -1.8049656951833267e+03 3.1253873543648224e+03 2.7435560993944746e+03 3.8631109453908948e+02 -8.3072443566378224e+03 -1.1653812732738297e+04 7.2460876216620745e+03 7.4764210666392137e+02 1.2970002283330789e+03 3.0161308558729188e+03 -1.0443926715799353e+03 1.7646333935030596e+03 2.5709511176843407e+03 2.0117655274443769e+03 5.6213604994713014e+03 -2.1222028029639932e+03 3.9582897544944854e+03 -4.2528581444623533e+03 6.4153303717158769e+02 -2.3206500583584420e+03 -2.2744709342061783e+03 -3.8406372189850333e+02 -1.6816406278169588e+03 3.3061623150372566e+03 -2.0769360799656793e+03 -1.1751630693890911e+02 -1.2807205643447509e+02 3.6123529373818394e+02 1.2100945614287070e+03 4.9813807598321000e+02 2.5523392762393098e+02 3.9780257109108934e+03 -3.7563530581673979e+02 1.4665308907390124e+03 8.6159867437143092e+01 -1.5771150249107666e+02 2.7970464431732244e+03 -2.8158481114340047e+03 -1.1608067050292116e+03 -7.4573266112515103e+02 3.5415778744363924e+03 1.1276389187259863e+04 -3.3634583392223194e+03 -2.5629647457839169e+03 -3.8069645974339692e+03 -5.0877378217928417e+03 -6.5798125876434524e+03 6.4578330553912224e+02 -2.2265895484777284e+03 4.1374171295231854e+03 2.3909224061135774e+02 4.0015559664500602e+03 1.7974445496282806e+02 1.0727227545099484e+04 2.0889427982109742e+03 -2.4547123453961703e+03 -5.4904781964288031e+03 3.8100564119550090e+03 -1.0884502040970292e+04 -8.0171499629461664e+02 -5.2301830522249948e+03 5.6648378616290465e+03 7.3350595666513061e+02 1.5250665411069559e+02 7.0297518095961777e+01 -6.5359649815675459e+02 1.3773219080834731e+03 -2.5081781603359350e+03 -6.0247114999309176e+01 -2.1639597264854601e+03 -3.6552900749406981e+03 7.7473829411850311e+03 1.2883038244263134e+03 -1.4919438462953622e+03 1.9386772998469751e+03 1.1442572146137263e+03 -1.7709900664123961e+02 2.1344555700642595e+03 -3.1066216804464602e+03 5.4049976464318752e+03 -6.2691597722715460e+02 -4.6116602044596576e+01 -1.1838813524246325e+02 -1.4953580763275459e+03 -1.4768536344228146e+03 -5.7580981672411763e+03 -2.5408012088419628e+02 -7.9784717270302644e+03 -4.0525843355866209e+02 3.6484842607397868e+03 -2.2484241837933077e+03 -2.3576170983350821e+03 2.1111436651870545e+03 1.5722198580964121e+02 1.2581726102194170e+02 -1.2288698711821771e+03 1.0217515482176532e+03 -2.7490524973683159e+03 -1.4447539278160093e+00 9.4451664840848127e+02 1.0276234738576909e+03 1.0573808149046417e+03 -6.7775725971219526e+03 4.9726166958833710e+03 9.6472629409790329e+00 -1.0432236260816772e+02 1.0912323213045465e+02 4.2868156516290446e+02 1.9713515351653434e+03 3.4511599189211884e+03 -2.0112880492165729e+01 1.9740090559866260e+01 1.1368128179054509e+02 -9.2175444776510039e+02 -2.8361976673616064e+03 -1.0629504666329427e+02 7.0980951721645610e+01 5.4874760915891802e+03 -2.4444277555672097e+03 2.1657781301029127e+03 -1.4286201626108686e+02 -2.7111361998402062e+03 1.1911456178879962e+02 4.2426502055488754e+02 -1.1884243352011481e+03 2.4504985436025663e+03 -8.4222592237394419e+03 -3.1192180067660156e+03 -2.1549695977214355e+02 -3.7157052875679419e+03 
      </Row>
      <Row Index="15">
        -7.5177433001350906e+01 1.9153606815794836e+02 5.8213638225471027e+02 2.8680331156258339e+03 -4.4932938858383977e+00 3.4074618569144474e+02 -1.5054595056847867e+02 1.6545223274207954e+03 2.9271742271702436e+02 -3.1710592680135566e+01 -1.7066717826927629e+02 8.0513180339993608e+02 1.2228635870971031e+02 1.2345027284092803e+01 3.7762696041315326e+02 2.7332089851784881e+03 7.2087007712315199e+01 -3.3335729787112047e+02 -1.5249389835198676e+02 6.0346636960476269e+02 -1.2878265387500507e+01 9.3690954811643881e+00 1.3556740279420384e+02 2.2789044253265743e+02 -1.5970785340611312e+02 -8.3402704702281355e+01 3.7657241223848803e+02 -2.0992226795437464e+03 -3.3448429346402605e+01 1.6409409165196378e+03 2.1670252852029554e+02 -1.7071376271169197e+03 -4.0940976283741279e+01 7.0830607660672186e+01 4.4380161101475130e+02 -1.2753231651166550e+03 -4.6820825818013979e+01 1.2239213347641308e+02 -4.2904177900800036e+01 1.4993929373778483e+03 -3.3997221235888624e+01 -7.8622192704739575e+02 5.5650895930746081e+01 1.8477875946489312e+03 1.1479100912971825e+02 -8.1555791742635634e+01 -1.9364630646240894e+02 2.9962488055734912e+02 -2.8866178450757099e+02 6.4213199515585507e+02 -4.8941148781045274e+02 -6.0269746014429302e+00 -2.1273544761416979e+03 -2.3991745181110235e+02 -7.7526451082641552e+02 3.8345562668528441e+02 2.0589315751979956e+02 4.1745471248142712e+02 -1.3950331586465104e+03 -9.3916466001117385e+02 -1.0175734724742942e+03 -3.9501611769665474e+03 -5.6951699439025587e+00 -5.1363940071933871e+02 -4.2102221579976299e+02 1.1555316228783558e+02 -5.4605647058970180e+03 3.4538506991401591e+03 -4.1862816875532899e+03 3.5712142325753121e+02 1.3184301073968527e+01 1.7929305848029001e+03 3.0701027394959465e+02 2.6057237740025312e+03 5.5848041847309025e+02 2.2910551987922431e+03 2.4359577565789223e+03 1.1081518563389849e+02 -1.2605191377124452e+03 -9.0030855491012335e+02 -6.2062334219358690e+03 3.6665891075117979e+03 -1.1553108310478085e+04 4.7712941946297133e+02 -9.3132857078887795e+01 2.6692833883732092e+03 1.8448143030256033e+03 2.2375818954097699e+02 -2.1039186408428991e+03 6.1897555079672998e+01 4.6849269719078603e+02 2.4925988960208267e+02 4.1903770175424569e+02 -3.6066727832684783e+03 -9.5552880540066963e+02 4.5457060623322377e+02 -3.3981851985683979e+03 -2.9462219682240629e+02 -6.3510144280084332e+03 1.7062442294603852e+03 -5.8061470593523145e+03 -4.3246364733588798e+03 -8.1817722124722849e+01 5.9414203652723654e+02 -3.7316710865420264e+03 1.6932553764186596e+03 6.5312895522376982e+02 -2.1900177430302419e+03 3.2221814973306746e+03 -7.2689301218933024e+03 5.9052144667406651e+02 2.1834011739486341e+03 -1.0641679395844042e+03 -1.1220561823159021e+03 4.5765994655141230e+03 -4.1629613413111429e+01 3.4154613746424375e+03 -1.1446843570603232e+02 3.8758169163056477e+03 2.1155618018786431e+03 5.3725224282521469e+02 -2.6310391496145166e+03 -2.1144925081550596e+03 -9.2882177402236596e+02 2.9030742860062187e+03 -1.4635379796695477e+02 -1.4533072320199531e+03 -1.3510725638584699e+02 -2.1669250316358566e+02 -1.4636206435649385e+02 -2.5293980561070580e+03 -7.8988951136649121e+02 3.8828604087829655e+02 -2.7730299327944404e+03 3.2144658449681367e+02 5.0579830238264685e+02 4.0454430720396891e+02 -4.0244978564293802e+01 1.3613469313818036e+03 -1.8738490520947198e+02 1.1900457611996057e+03 -2.8868681978540517e+03 1.3399295175124307e+03 3.3267325531902925e+03 -1.3774956248651320e+03 4.9365282821675264e+03 -7.0702916937694999e+02 -2.8883535447593440e+03 2.8238909781107286e+03 -9.5703877781241181e+02 -4.6227593352801591e+02 3.9352030194940420e+02 1.1015790245600749e+03 1.5745475977398456e+02 -9.5447812296958887e+02 1.8169131675193032e+03 -1.0497655124617029e+03 -1.0491071688039318e+02 1.1571655433864107e+03 2.6542672688262684e+02 4.6444527655863925e+02 1.2035780889262608e+03 -3.0232804884730690e+03 5.1184467122791366e+03 1.1279833889713916e+03 7.9851567831592959e+01 -1.0801273585983279e+02 3.9240072956430055e+01 2.7111259859895011e+02 -9.1814088259814389e+02 -3.8520623961634151e+01 4.0689024865894692e+02 5.5327251476366473e+02 3.1699401870176234e+02 -2.1825521367502861e+03 -5.1809340373945088e+02 1.2225429092118998e+02 5.4115858529911134e+02 7.8177459256868588e+01 2.1175297084363219e+03 -2.7601859125666424e+03 6.0626426126605274e+03 7.9151399875782772e+01 3.7210027077584854e+01 5.8259770259194124e+02 5.1214619377539111e+02 -2.6378375930256479e+03 -4.0266551267987415e+02 1.7583122196264895e+02 1.7387979043148262e+03 2.6834151605982529e+03 -4.4449751169222372e+02 3.6826888842509106e+02 -2.7534966823324230e+03 3.3021761557354159e+02 1.3121733618404545e+02 2.8368432702081418e+02 -6.6582724978453825e+02 -2.1630878283158489e+02 -1.9935497828541568e+03 -3.6337834292082846e+01 1.4353281714868479e+02 1.5976818562504104e+02 -3.3469250160000115e+02 -4.4978783418223948e+03 -2.2869020616797002e+02 -9.0161116424540950e+01 -1.5958167742255046e+01 -2.3790155572638255e+01 4.7006182337002110e+02 1.7553646975855447e+03 1.6790742357759036e+03 5.2408056750367304e-01 -1.0395630069838174e+02 -1.4748848855303814e+02 3.0227703816668338e+02 -3.9617446321928510e+03 -2.9868094841392144e+02 1.8973777488278839e+02 -1.8803186146595699e+03 -1.9524494049227835e+03 4.1447704404115939e+01 -2.6024558512524932e+03 -4.6608845618486703e+03 -6.4291794621399731e+01 2.3461057491594701e+00 3.2250868225756318e+02 -1.5078132175486980e+03 -2.0559081660884772e+03 -2.8751018579664560e+02 -6.2082130786750923e+01 -2.7026024574371113e+03 
      </Row>
      <Row Index="16">
